#include <algorithm>
#include <iostream>
#include <vector>
#include "../tensor_utils.hpp"
#include "../profiling_utils.hpp"

void run_model(int batch_size, std::vector<int> profile_indices) {
  // Structure of data used for profiling
  ProfilingData pd;

  // Variable used to check if a layer need profiling
  bool need_to_profile_layer = false;

  if (!profile_indices.empty()) {
    // Initialize profiling
    pd = profiling_init();
    profiling_print_header();
  }

  // Set up one input tensor
  int t1_chans = 1;
  int t1_rows = 28;
  int t1_cols = 28;
  float t1_vals[] = {
    0.0, 0.0, 0.0, 0.0, 0.0, 0.0, 0.0, 0.0, 0.0, 0.0, 0.0, 0.0, 0.0, 0.0, 0.0, 0.0, 0.0, 0.0, 0.0, 0.0, 0.0, 0.0, 0.0, 0.0, 0.0, 0.0, 0.0, 0.0, 
    0.0, 0.0, 0.0, 0.0, 0.0, 0.0, 0.0, 0.0, 0.0, 0.0, 0.0, 0.0, 0.0, 0.0, 0.0, 0.0, 0.0, 0.0, 0.0, 0.0, 0.0, 0.0, 0.0, 0.0, 0.0, 0.0, 0.0, 0.0, 
    0.0, 0.0, 0.0, 0.0, 0.0, 0.0, 0.0, 0.0, 0.0, 0.0, 0.0, 0.0, 0.0, 0.0, 0.0, 0.0, 0.0, 0.0, 0.0, 0.0, 0.0, 0.0, 0.0, 0.0, 0.0, 0.0, 0.0, 0.0, 
    0.0, 0.0, 0.0, 0.0, 0.0, 0.0, 0.0, 0.0, 0.0, 0.0, 0.0, 0.0, 0.0, 0.0, 0.0, 0.0, 0.23137255012989044, 0.7843137383460999, 1.0, 0.8980392217636108, 0.0, 0.0, 0.0, 0.0, 0.0, 0.0, 0.0, 0.0, 
    0.0, 0.0, 0.0, 0.0, 0.0, 0.0, 0.0, 0.0, 0.0, 0.0, 0.0, 0.0, 0.0, 0.0, 0.0, 0.19607843458652496, 0.7843137383460999, 0.9921568632125854, 0.9843137264251709, 0.4000000059604645, 0.0, 0.0, 0.0, 0.0, 0.0, 0.0, 0.0, 0.0, 
    0.0, 0.0, 0.0, 0.0, 0.0, 0.0, 0.0, 0.0, 0.0, 0.0, 0.0, 0.0, 0.0, 0.0, 0.23137255012989044, 0.9254902005195618, 0.9960784316062927, 0.8784313797950745, 0.3843137323856354, 0.0, 0.0, 0.0, 0.0, 0.0, 0.0, 0.0, 0.0, 0.0, 
    0.0, 0.0, 0.0, 0.0, 0.0, 0.0, 0.0, 0.0, 0.0, 0.0, 0.0, 0.0, 0.01568627543747425, 0.08235294371843338, 0.9254902005195618, 0.9960784316062927, 0.8509804010391235, 0.29019609093666077, 0.0, 0.0, 0.0, 0.0, 0.0, 0.0, 0.0, 0.0, 0.0, 0.0, 
    0.0, 0.0, 0.0, 0.0, 0.0, 0.0, 0.0, 0.0, 0.0, 0.0, 0.0, 0.0, 0.27450981736183167, 0.9960784316062927, 0.9921568632125854, 0.9882352948188782, 0.26274511218070984, 0.0, 0.0, 0.0, 0.0, 0.0, 0.0, 0.0, 0.0, 0.0, 0.0, 0.0, 
    0.0, 0.0, 0.0, 0.0, 0.0, 0.0, 0.0, 0.0, 0.0, 0.0, 0.0, 0.04313725605607033, 0.7529411911964417, 0.9960784316062927, 0.9921568632125854, 0.42352941632270813, 0.0, 0.0, 0.0, 0.0, 0.0, 0.0, 0.0, 0.0, 0.0, 0.0, 0.0, 0.0, 
    0.0, 0.0, 0.0, 0.0, 0.0, 0.0, 0.0, 0.0, 0.0, 0.0, 0.0, 0.46666666865348816, 0.9921568632125854, 0.9960784316062927, 0.7215686440467834, 0.054901961237192154, 0.0, 0.0, 0.0, 0.0, 0.0, 0.0, 0.0, 0.0, 0.0, 0.0, 0.0, 0.0, 
    0.0, 0.0, 0.0, 0.0, 0.0, 0.0, 0.0, 0.0, 0.0, 0.0, 0.3294117748737335, 0.9803921580314636, 0.9921568632125854, 0.9372549057006836, 0.03529411926865578, 0.0, 0.0, 0.0, 0.0, 0.0, 0.0, 0.0, 0.0, 0.0, 0.0, 0.0, 0.0, 0.0, 
    0.0, 0.0, 0.0, 0.0, 0.0, 0.0, 0.0, 0.0, 0.0, 0.0, 0.5098039507865906, 0.9960784316062927, 0.9372549057006836, 0.239215686917305, 0.0, 0.0, 0.0, 0.0, 0.0, 0.0, 0.0, 0.0, 0.0, 0.0, 0.0, 0.0, 0.0, 0.0, 
    0.0, 0.0, 0.0, 0.0, 0.0, 0.0, 0.0, 0.0, 0.0, 0.250980406999588, 0.9490196108818054, 0.9921568632125854, 0.8352941274642944, 0.0, 0.0, 0.0, 0.0, 0.0, 0.0, 0.0, 0.0, 0.0, 0.0, 0.0, 0.0, 0.0, 0.0, 0.0, 
    0.0, 0.0, 0.0, 0.0, 0.0, 0.0, 0.0, 0.0, 0.0, 0.686274528503418, 0.9921568632125854, 0.9882352948188782, 0.6666666865348816, 0.0, 0.0, 0.0, 0.0, 0.0117647061124444, 0.019607843831181526, 0.019607843831181526, 0.01568627543747425, 0.0, 0.0, 0.0, 0.0, 0.0, 0.0, 0.0, 
    0.0, 0.0, 0.0, 0.0, 0.0, 0.0, 0.0, 0.0, 0.019607843831181526, 0.7568627595901489, 0.9960784316062927, 0.6627451181411743, 0.0, 0.0, 0.0470588244497776, 0.239215686917305, 0.48235294222831726, 0.7921568751335144, 0.9921568632125854, 0.9960784316062927, 0.8784313797950745, 0.1411764770746231, 0.0, 0.0, 0.0, 0.0, 0.0, 0.0, 
    0.0, 0.0, 0.0, 0.0, 0.0, 0.0, 0.0, 0.0, 0.25882354378700256, 0.9921568632125854, 0.9921568632125854, 0.3333333432674408, 0.09803921729326248, 0.5960784554481506, 0.8705882430076599, 0.9921568632125854, 0.9960784316062927, 0.9921568632125854, 0.9921568632125854, 0.9960784316062927, 0.9921568632125854, 0.6431372761726379, 0.0, 0.0, 0.0, 0.0, 0.0, 0.0, 
    0.0, 0.0, 0.0, 0.0, 0.0, 0.0, 0.0, 0.0, 0.6235294342041016, 0.9921568632125854, 0.9921568632125854, 0.364705890417099, 0.6705882549285889, 0.9921568632125854, 0.9921568632125854, 0.7647058963775635, 0.3294117748737335, 0.3294117748737335, 0.6666666865348816, 0.9960784316062927, 0.9921568632125854, 0.8588235378265381, 0.0, 0.0, 0.0, 0.0, 0.0, 0.0, 
    0.0, 0.0, 0.0, 0.0, 0.0, 0.0, 0.0, 0.0, 0.6627451181411743, 0.9960784316062927, 0.8901960849761963, 0.07058823853731155, 0.7137255072593689, 0.9960784316062927, 0.8196078538894653, 0.0235294122248888, 0.0, 0.0, 0.47058823704719543, 0.9960784316062927, 0.9960784316062927, 0.5098039507865906, 0.0, 0.0, 0.0, 0.0, 0.0, 0.0, 
    0.0, 0.0, 0.0, 0.0, 0.0, 0.0, 0.0, 0.0, 0.8588235378265381, 0.9921568632125854, 0.7215686440467834, 0.0, 0.0470588244497776, 0.29019609093666077, 0.23529411852359772, 0.0, 0.0, 0.32156863808631897, 0.8980392217636108, 0.9960784316062927, 0.8941176533699036, 0.16862745583057404, 0.0, 0.0, 0.0, 0.0, 0.0, 0.0, 
    0.0, 0.0, 0.0, 0.0, 0.0, 0.0, 0.0, 0.0, 0.29411765933036804, 0.9960784316062927, 0.9843137264251709, 0.30588236451148987, 0.0, 0.0, 0.0, 0.0, 0.18039216101169586, 0.7372549176216125, 0.9960784316062927, 0.9803921580314636, 0.7098039388656616, 0.0313725508749485, 0.0, 0.0, 0.0, 0.0, 0.0, 0.0, 
    0.0, 0.0, 0.0, 0.0, 0.0, 0.0, 0.0, 0.0, 0.0235294122248888, 0.7607843279838562, 0.9960784316062927, 0.9098039269447327, 0.18039216101169586, 0.0, 0.21176470816135406, 0.5137255191802979, 0.9019607901573181, 0.9960784316062927, 0.9921568632125854, 0.46666666865348816, 0.0, 0.0, 0.0, 0.0, 0.0, 0.0, 0.0, 0.0, 
    0.0, 0.0, 0.0, 0.0, 0.0, 0.0, 0.0, 0.0, 0.0, 0.2980392277240753, 0.8705882430076599, 0.9960784316062927, 0.9764705896377563, 0.9607843160629272, 0.9803921580314636, 0.9960784316062927, 0.9960784316062927, 0.843137264251709, 0.5568627715110779, 0.05098039284348488, 0.0, 0.0, 0.0, 0.0, 0.0, 0.0, 0.0, 0.0, 
    0.0, 0.0, 0.0, 0.0, 0.0, 0.0, 0.0, 0.0, 0.0, 0.0, 0.10980392247438431, 0.3450980484485626, 0.6627451181411743, 0.9921568632125854, 0.686274528503418, 0.21176470816135406, 0.21176470816135406, 0.03529411926865578, 0.0, 0.0, 0.0, 0.0, 0.0, 0.0, 0.0, 0.0, 0.0, 0.0, 
    0.0, 0.0, 0.0, 0.0, 0.0, 0.0, 0.0, 0.0, 0.0, 0.0, 0.0, 0.0, 0.0, 0.0, 0.0, 0.0, 0.0, 0.0, 0.0, 0.0, 0.0, 0.0, 0.0, 0.0, 0.0, 0.0, 0.0, 0.0, 
    0.0, 0.0, 0.0, 0.0, 0.0, 0.0, 0.0, 0.0, 0.0, 0.0, 0.0, 0.0, 0.0, 0.0, 0.0, 0.0, 0.0, 0.0, 0.0, 0.0, 0.0, 0.0, 0.0, 0.0, 0.0, 0.0, 0.0, 0.0, 
    0.0, 0.0, 0.0, 0.0, 0.0, 0.0, 0.0, 0.0, 0.0, 0.0, 0.0, 0.0, 0.0, 0.0, 0.0, 0.0, 0.0, 0.0, 0.0, 0.0, 0.0, 0.0, 0.0, 0.0, 0.0, 0.0, 0.0, 0.0, 
    0.0, 0.0, 0.0, 0.0, 0.0, 0.0, 0.0, 0.0, 0.0, 0.0, 0.0, 0.0, 0.0, 0.0, 0.0, 0.0, 0.0, 0.0, 0.0, 0.0, 0.0, 0.0, 0.0, 0.0, 0.0, 0.0, 0.0, 0.0, 
    0.0, 0.0, 0.0, 0.0, 0.0, 0.0, 0.0, 0.0, 0.0, 0.0, 0.0, 0.0, 0.0, 0.0, 0.0, 0.0, 0.0, 0.0, 0.0, 0.0, 0.0, 0.0, 0.0, 0.0, 0.0, 0.0, 0.0, 0.0,
  };
  Tensor3D t1 = tensor_init_3d(t1_chans, t1_rows, t1_cols, t1_vals);

  // Set up input batch
  float batch_vals[batch_size * t1_rows * t1_cols];
  for (int i = 0; i < batch_size; ++i) {
    for (int j = 0; j < t1_rows * t1_cols; ++j) {
      batch_vals[i * t1_rows * t1_cols + j] = t1_vals[j];
    }
  }
  Tensor4D batch = tensor_init_4d(batch_size, t1_chans, t1_rows, t1_cols, batch_vals);
  tensor_delete_3d(t1, t1_chans, t1_rows);

  // Set up 6 filters of size 5x5x1 (for the first convolution)
  int n_f1 = 6;
  int f1_chans = 1;
  int f1_rows = 5;
  int f1_cols = 5;
  float f1_vals[] = { -0.06428742, -0.12301796, -0.13582222, 0.13264473, 0.24411711, -0.15943566, -0.14348593, 0.09222186, 0.0003656381, 0.0793616, 0.10050037, -0.018842341, -0.110830486, -0.14093654, -0.12584269, 0.023709493, 0.23821539, -0.07092249, -0.120845996, 0.08276462, 0.16576685, 0.1890698, 0.032778516, 0.05354159, -0.15098292, 0.045973137, -0.13966826, -0.06895584, -0.1921, 0.5860191, 0.06859213, 0.04044527, -0.27161044, -0.02224947, -0.024205446, 0.08677623, -0.33373877, -0.03753698, 0.047825824, 0.16999435, 0.35091203, -0.106087096, -0.44335943, 0.015950562, 0.13032334, 0.39904884, 0.08122399, -0.5512139, -0.26398426, 0.12294665, 0.083449356, 0.34320718, -0.15555441, -0.2898044, -0.22914658, -0.031701963, 0.08832922, 0.37533346, -0.26215532, 0.24815203, 0.18898293, -0.037186023, -0.36099023, 0.20479411, 0.029456234, 0.23646516, 0.16267046, 0.07379821, -0.10948814, 0.18567805, 0.3587162, 0.13473317, 0.012464141, 0.28397614, 0.09969644, 0.099897474, -0.028200487, -0.4934531, 0.047311988, 0.14558618, 0.05763074, 0.0559981, -0.26866704, -0.75855684, 0.12065471, 0.16375317, 0.13177444, 0.065545216, -0.28829563, -0.062082652, 0.28018823, -0.0701675, -0.107247934, -0.31298622, 0.109959036, 0.32121584, 0.21340631, 0.22070959, 0.097076975, -0.31688976, 0.22113709, 0.18273647, 0.1248143, 0.18276854, 0.039032757, -0.38400486, -0.109993555, 0.09821894, 0.34679973, 0.21869583, 0.214559, -0.2630116, -0.2759827, -0.30626774, 0.16096504, -0.12963411, -0.10398756, 0.099106364, -0.32594958, -0.32226956, 0.18608688, -0.003721005, 0.07297738, -0.04605626, 0.12804708, 0.1673286, 0.13158622, -0.08081864, 0.15336968, -0.42218402, 0.18497036, 0.40730497, 0.24604592, -0.14684539, 0.07147548, -0.48966122, -0.026520437, 0.4064518, 0.048311144, -0.07847442, 0.007892497, -0.41515326, -0.13162446, 0.08447474, 0.010693752, -0.14013094, -0.12175419, -0.27936783, -0.109899335, -0.079093665 };
  Tensor4D f1 = tensor_init_4d(n_f1, f1_chans, f1_rows, f1_cols, f1_vals);
  
  // Set up 6 biases (for the first convolution)
  int b1_cols = 6;
  float b1_vals[] = { 0.023208076, -0.022940977, -0.010441435, 0.018489465, -0.0059216195, 0.05189114 };
  Tensor1D b1 = tensor_init_1d(b1_cols, b1_vals);

  // Set up 16 filters of size 5x5x6 (for the second convolution)
  int n_f2 = 16;
  int f2_chans = 6;
  int f2_rows = 5;
  int f2_cols = 5;
  float f2_vals[] = { -0.11365458, 0.15414956, -0.011574183, 0.075390056, -0.13096404, 0.10931931, 0.029196842, 0.0012294382, 0.06629667, -0.3260774, 0.0728712, -0.08393764, -0.11753232, -0.23372194, -0.011544129, -0.20146783, -0.049908176, 0.11710407, -0.026846299, 0.030589731, -0.10217993, 0.14150575, -0.016014798, 0.005211315, -0.16803376, -0.09036153, 0.11590254, -0.051317725, 0.05078067, 0.011554102, -0.08284952, -0.21106458, 0.0669751, 0.14371781, -0.017239403, -0.086842686, -0.030140508, 0.06782745, 0.044225175, 0.08733126, -0.032327183, 0.016919823, 0.26063642, -0.14479673, 0.1532527, 0.029387638, 0.00692474, 0.028041637, 0.066111505, -0.090633914, 0.092035666, -0.38860005, 0.09677039, 0.12651822, -0.14192617, 0.15816806, -0.14420743, 0.16206187, -0.07660893, 0.026771884, -0.036604602, 0.044760432, -0.066846035, 0.083819054, 0.0049462123, 0.03163619, -0.16314146, -0.08051269, 0.20684922, -0.123192586, -0.057043962, -0.057889115, 0.16353323, -0.023037005, 0.19317462, 0.024030274, -0.06916122, 0.041238196, -0.0006468082, -0.011542414, -0.09372214, 0.17679125, 0.26595122, 0.25775486, -0.3340011, -0.018090602, -0.1013791, -0.33292755, 0.2439706, -0.18119317, 0.06252647, 0.3165529, 0.13354295, -0.07409043, -0.15633212, 0.23597617, 0.098159954, -0.037402205, -0.2788555, -0.056397866, -0.014216534, 0.04639197, -0.10542859, -0.0145031065, -0.06434166, -0.34494916, -0.03601321, -0.090650834, -0.23755682, -0.3022601, 0.07020255, -0.17673357, 0.0053810426, 0.069154605, 0.023436757, -0.13714051, 0.017912492, -0.044539705, -0.038250297, 0.043149635, -0.10275285, -0.09260228, -0.13039832, -0.09965356, 0.18242195, 0.15916379, 0.12535384, -0.08951117, 0.10486945, 0.1290929, 0.03314868, 0.026445676, -0.004095258, -0.08424762, 0.08746994, 0.10324128, -0.109037384, -0.05765378, -0.10647036, -0.23912832, 0.19887957, 0.068752274, 0.08035713, 0.12873487, -0.07762638, -0.21821168, 0.21094269, -0.36067104, -0.095724516, 0.15083806, -0.4245932, 0.17876269, -0.49752828, 0.1810115, 0.028187703, -0.11454247, -0.02561962, -0.2762444, -0.06723114, -0.114374876, 0.012382798, 0.070736624, -0.05050041, 0.00031361138, 0.12692623, -0.21456209, -0.18453811, -0.11465954, 0.095190465, 0.14865708, 0.39637038, 0.06796562, 0.11830122, 0.04190572, 0.08575508, 0.04030381, -0.06711267, 0.17946124, -0.076175205, 0.2560384, -0.33892044, 0.06615957, -0.15189777, 0.084295414, 0.08483323, -0.08982888, 0.08223191, 0.2228699, 0.014835668, -0.2563819, -0.114616774, 0.03640794, 0.1317824, -0.064713895, -0.21793865, 0.010534298, -0.21720503, 0.08753426, 0.0572786, 0.03819984, -0.09699872, -0.2828232, -0.3590546, -0.026813133, -0.24892783, 0.15397957, 0.0470917, -0.053674895, 0.051525477, -0.002751429, -0.07437688, -0.17314947, -0.012524484, -0.1417318, -0.024199767, -0.09698923, -0.053636853, -0.18077593, -0.11819136, -0.3932708, -0.08025638, 0.01968953, -0.069684714, -0.084570274, 0.12482398, 0.104245916, -0.030471327, -0.080120794, 0.073702276, -0.103192866, -0.100485906, -0.058239073, -0.004919344, -0.13974841, -0.04498312, -0.3236375, -0.02740999, 0.06528242, -0.053709224, -0.021903658, -0.27046517, -0.2068905, 0.07648857, -0.08965847, -0.14205682, 0.15940389, -0.1741999, 0.051306453, -0.54841495, 0.15113173, 0.089002825, -0.14441851, -0.096663654, -0.34679034, -0.06344998, -0.13834257, -0.18024674, 0.13294642, 0.22127536, 0.08538191, 0.11158245, -0.1945522, -0.097191386, -0.11209315, 0.14815366, 0.18355599, -0.0712462, -0.07251985, 0.046751868, 0.32938462, 0.15038702, 0.23131816, 0.09119141, 0.008476546, 0.0033627404, 0.25640547, -0.36815307, 0.10182841, -0.18212771, 0.28187254, -0.011874349, -0.179439, -0.1959883, 0.2234859, 0.023977857, 0.025381435, 0.10135888, 0.112923585, 0.10089174, -0.111857705, 0.0941778, -0.18901844, -0.17628407, 0.07079062, 0.059555016, 0.14813209, -0.037209503, -0.29645061, -0.32628343, -0.34844473, -0.19127974, 0.16983205, -0.18995436, -0.17115869, -0.07945581, -0.0025783558, -0.31852147, -0.11289477, -0.012021178, 0.0056390474, 0.12309059, 0.0068521597, -0.050735824, -0.13450733, -0.14629082, -0.27168435, 0.056888416, 0.17368521, 0.040863533, -0.04175286, 0.08338742, 0.08351217, 0.0040570125, -0.048108328, 0.13463207, -0.07685159, 0.044673614, 0.04826245, 0.15575875, -0.11001945, 0.07255838, -0.10929824, 0.060649112, -0.0010173741, -0.0073852516, -0.029566066, -0.047150623, -0.09234989, -0.2422799, -0.14762424, 0.04135853, 0.17235775, -0.11031428, 0.009612976, -0.5645945, 0.19222973, -0.2876233, 0.050450075, -0.046045225, -0.009110253, -0.07797267, -0.20062388, -0.10438163, 0.12173334, 0.2030591, 0.060920972, 0.16442971, -0.19538276, 0.04352621, 0.008300595, 0.2794061, -0.014646194, -0.028286284, -0.31497043, -0.04118041, 0.07456953, 0.16736338, 0.15133984, 0.15107878, 0.03689785, 0.15710355, -0.0082643535, -0.25782907, 0.19210005, -0.03891401, 0.38907117, -0.07747056, -0.5029175, -0.15841906, -0.016066981, -0.01671613, 0.10306852, 0.051718894, 0.08773938, 0.115477085, -0.055564314, 0.06981806, -0.09075489, -0.09069554, 0.011462418, 0.090039484, 0.050705917, -0.07989798, -0.31959876, 0.06903529, -0.18040077, -0.079027034, -0.050088394, -0.20860642, -0.010158805, -0.028320456, 0.032379016, -0.21711592, -0.116748855, 0.08835567, -0.04194625, 0.089866586, 0.04370785, -0.031402368, -0.16833563, 0.033852253, 0.060507715, -0.099330634, 0.05662233, -0.11319406, -0.11523717, -0.10833777, -0.056865953, -0.06275246, -0.1309233, 0.112063766, -0.03362086, 0.04127075, -0.08410849, 0.11616196, -0.15397422, -0.019388977, -0.06524598, -0.11188478, -0.12523238, -0.06273777, -0.01722829, 0.12182699, 0.07980709, -0.6332986, -0.06788308, 0.052164655, 0.09225911, 0.060154125, -0.07105661, -0.35271463, 0.13235343, -0.28478357, 0.115981266, -0.14959201, -0.03542488, -0.30213717, -0.13889389, -0.042001918, 0.024014547, -0.083972484, -0.07736242, 0.044088487, -0.17619939, 0.25511414, 0.054746483, 0.24173452, 0.047661543, 0.019552032, -0.02137933, 0.038659092, 0.12773134, 0.04187781, 0.19724233, 0.1907749, 0.017732618, -0.115625575, 0.07483529, -0.20721099, 0.21646364, 0.029111242, 0.14056313, 0.07585306, -0.54410636, 0.019235324, -0.22479914, 0.010509363, -0.013927605, 0.065692745, 0.101949446, -0.095275134, -0.05089657, 0.2347585, 0.1513839, -0.014261544, 0.049592473, 0.06671844, -0.055133387, -0.104511686, -0.0805699, 0.04609633, -0.009776581, 0.010486638, -0.26962212, -0.04180172, -0.06256018, 0.08771915, 0.053383127, -0.11963528, 0.042165834, 0.057293676, 0.001999264, 0.120209046, -0.039979614, -0.055546716, -0.2749052, 0.11082214, -0.06993018, -0.046702746, -0.14620033, -0.0006325067, -0.046246853, 0.028211297, 0.15002826, -0.070311114, 0.056956798, 0.047046825, -0.048984155, 0.08265956, 0.12806436, 0.10637482, 0.012542892, 0.17878854, -0.03280527, -0.046227314, -0.051712777, 0.14347662, -0.057484433, -0.063653305, -0.01472023, 0.18267184, 0.2216027, -0.055080432, 0.059008937, -0.32144356, 0.25498435, -0.33468822, -0.0049480894, 0.22879796, -0.00540943, 0.14601408, 0.13680954, -0.14516027, -0.04662913, -0.061644502, -0.12207887, -0.09270808, -0.17268789, 0.0036269494, -0.10056498, -0.06260472, -0.28897795, 0.1630675, -0.074778035, 0.35637426, 0.008210175, -0.18619837, 0.019073866, 0.16633107, -0.14365216, -0.0849524, 0.011830724, 0.38813818, 0.18167858, -0.20980982, 0.07991996, -0.14278977, -0.037471313, 0.21658406, -0.09169043, 0.18019307, 0.12115362, 0.20598488, 0.107549325, -0.27246368, 0.3426668, 0.08209377, 0.02534125, 0.077176616, 0.0580829, -0.016161222, -0.003065301, -0.004033371, 0.018371096, -0.06292214, -0.13686857, -0.21826272, -0.017055446, 0.02011201, -0.27138785, -0.04696671, -0.08184574, 0.06571816, 0.07256809, -0.20130466, 0.10708905, -0.06014267, 0.074145526, 0.017929599, -0.11124962, -0.023309564, -0.4713554, -0.32403785, -0.048304066, -0.032012053, -0.026650362, -0.07281733, -0.13378237, 0.12435933, -0.04395465, -0.067439154, -0.04747855, 0.07491968, 0.049589206, 0.078386016, -0.099871695, 0.019472692, -0.16194722, -0.17848642, 0.026872208, 0.14555287, 0.09574927, 0.11735561, -0.024114711, -0.3323151, -0.10025089, 0.17478669, -0.10225513, -0.082691886, 0.18157832, -0.35319796, 0.2742188, -0.3967132, 0.2513467, -0.16351677, -0.30519614, -0.051887766, -0.3012818, 0.009120876, -0.1729779, 0.078773044, -0.122773215, -0.036997195, -0.16559835, 0.09262576, -0.06752179, -0.05312935, -0.23551226, 0.120380074, -0.13711515, 0.4272954, 0.09371059, -0.09142225, 0.020534689, 0.22046402, -0.14457837, -0.11216072, 0.32403776, 0.2137029, 0.3765385, 0.011316117, 0.30206487, -0.21600743, 0.28725547, 0.17563371, 0.032124642, 0.08586789, 0.3454499, 0.079593144, -0.20602712, -0.32649624, -0.11700377, 0.06911607, 0.07364746, -0.06865386, 0.16129354, 0.023979355, 0.17163555, -0.0019595593, -0.013286125, -0.16452652, -0.2424177, -0.2133232, 0.022646641, 0.108195186, -0.08568481, -0.15265346, 0.06304506, 0.06405812, -0.005914864, -0.16316473, -0.062105816, 0.030431649, 0.015799426, 0.12177666, 0.06375507, -0.11871208, -0.48172453, -0.2603037, -0.32582662, 0.07505002, 0.052737214, -0.1428812, 0.028099472, 0.15449245, -0.1017659, 0.041002795, -0.033342946, -0.037327237, 0.008408906, 0.047266528, -0.15307622, 0.012980584, -0.18497616, -0.05084435, -0.1913911, 0.15783045, 0.13323575, -0.023471238, 0.0039635194, -0.37925813, -0.20950978, -0.21322536, 0.016167244, -0.12466222, 0.07414249, 0.12828226, 0.10778691, -0.6391993, 0.27149764, -0.33117002, -0.38082963, -0.0928792, -0.54520655, -0.039626293, -0.18271652, 0.06472588, -0.15203135, 0.09208359, -0.20103729, 0.0126875155, -0.23896469, -0.08694783, -0.06490358, 0.03862069, -0.3410145, -0.16166039, -0.050471023, -0.17106195, 0.41340703, 0.060020085, 0.07534197, -0.12316781, 0.27297089, -0.022382867, 0.14993963, 0.036434535, 0.26823813, -0.11967226, 0.34862113, 0.14629504, -0.011599985, -0.19609298, 0.2574458, 0.043093313, 0.16697617, -0.34633, -0.07251673, 0.09022598, 0.009940367, 0.019555395, 0.17746958, 0.039416086, 0.031134373, -0.0076791155, 0.08373441, -0.17398535, -0.20784359, 0.08097496, -0.05800534, 0.1331865, 0.11468073, -0.07703396, 0.043487307, 0.02213646, -0.037926763, -0.04198456, -0.06477175, 0.10400154, -0.025592288, 0.17316991, -0.038559772, 0.016803281, -0.49476883, 0.07134546, -0.32855046, 0.086504646, 0.09839899, -0.11981588, -0.064091325, -0.05433375, 0.07367347, 0.08747539, -0.030320285, 0.15796262, -0.06258719, 0.02939937, 0.060516935, 0.14740163, -0.1802978, 0.110866494, -0.22504903, 0.09332664, 0.083314165, 0.006267028, 0.12586229, -0.07515697, -0.09435085, -0.6173306, 0.11530207, -0.030239366, 0.0046597132, 0.27980155, -0.41396156, -0.4303364, 0.19132227, -0.5892619, -0.069829084, -0.032097504, -0.14597447, -0.018016484, -0.0722703, -0.066668816, 0.032889925, 0.12821849, -0.1509982, 0.014966094, -0.113851316, -0.032358166, 0.03981348, 0.36312556, -0.2668016, 0.0915332, -0.3028281, 0.025606832, 0.21608317, -0.00086823956, -0.027543927, 0.09777825, 0.19102298, 0.029728744, 0.0014958078, 0.014177752, 0.25231907, 0.042832524, 0.372305, 0.0015420804, 0.07950496, -0.23912053, 0.08876331, -0.07427301, 0.13632207, -0.14786512, -0.073134065, -0.00999869, -0.18427826, 0.16745998, 0.22319287, 0.06293212, -0.0028915082, 0.045983046, 0.03756892, -0.069389224, -0.038234256, 0.14558226, -0.15292285, 0.03753879, -0.020060582, 0.0813726, -0.016298747, -0.09569794, -0.026879685, 0.0516092, 0.033704024, 0.02047413, -0.088622786, -0.025345923, -0.03340302, 0.05546383, -0.3329925, -0.0577986, -0.14992008, 0.12229984, -0.06350697, -0.011374001, -0.027420966, -0.01740183, -0.05040004, 0.0021032544, 0.038418725, 0.17639631, 0.0023725159, -0.15226093, -0.08904009, 0.07888068, -0.07599912, 0.17645, -0.08033758, -0.043484066, -0.15587606, 0.086966045, -0.012276547, -0.011524382, 0.017324513, -0.4339522, 0.39302087, 0.014002139, 0.023637317, 0.4275278, -0.13439184, -0.40573516, 0.04820776, -0.23637894, 0.14351946, 0.1933697, 0.0064762225, -0.1894932, 0.029035924, -0.060905408, -0.031931225, -0.041806936, -0.25143898, 0.062707596, -0.09221579, 0.1641782, 0.13619812, 0.18235251, -0.20533423, 0.20436554, -0.28044513, 0.0011687498, 0.07505932, 0.035507824, -0.055354625, 0.2977623, 0.014481016, -0.041761905, 0.038094297, -0.020708334, 0.10237033, 0.065646924, 0.29841155, -0.106263965, 0.01166004, 0.09654846, -0.1134062, -0.047439024, -0.14092006, -0.17724611, -0.024011739, -0.0694927, -0.017614456, 0.15866661, 0.017434258, -0.046211727, 0.0857633, -0.18653308, 0.030330027, -0.024218185, 0.06701951, -0.11199818, -0.2416068, 0.078992456, 0.061224435, -0.23952085, 0.035793826, 0.10069214, 0.12566261, -0.02199744, 0.022023268, 0.12546214, 0.018818295, 0.14642468, -0.13954876, -0.16616394, -0.060641002, -0.15329544, -0.07422013, 0.087203756, -0.23642819, -0.04811398, -0.1860688, 0.10161585, 0.11059277, -0.04255906, -0.13432841, 0.07631977, 0.17803153, 0.10525762, -0.07898806, 0.17130801, -0.10349164, 0.03951446, 0.070447624, -0.08287189, -0.22365727, 0.046788905, -0.13909052, -0.17934665, 0.11908598, -0.04989674, 0.27242297, 0.074798845, 0.09525705, 0.017484995, 0.29548493, -0.2562416, -0.60442907, 0.20923716, -0.023719447, 0.044647664, 0.09859416, -0.41896123, 0.22543988, -0.14621475, -0.23356423, -0.13321029, -0.16398658, -0.034920726, -0.17160942, -0.007598676, -0.3889585, 0.16730046, -0.05221197, 0.26308137, -0.0027783255, -0.28139403, -0.013518693, 0.15994556, -0.4246153, -0.27862075, 0.24629782, 0.3053668, 0.1531054, 0.087470055, 0.07363456, -0.18275487, -0.13695794, 0.1970181, -0.0019729892, -0.06322922, 0.048201483, 0.016988339, 0.18281986, -0.038220715, -0.0061446275, -0.13028032, 0.0015877648, 0.16398887, -0.08919982, -0.10797611, 0.14039916, -0.021306189, -0.22460572, -0.032147713, 0.12100086, -0.022917248, -0.13170142, 0.13376348, -0.26972967, -0.050120216, 0.16453262, 0.05127538, 0.07520978, -0.026032653, -0.063322365, -0.03314454, 0.062169515, 0.04446403, -0.085390985, -0.12672058, -0.1074656, -0.32014245, -0.14813602, 0.03695865, -0.06219003, -0.037329946, -0.061887063, 0.17676996, 0.07975472, 0.04087755, -0.11570483, 0.12330911, 0.071976215, 0.07662749, -0.23549628, 0.037138518, 0.031711936, -0.24564147, 0.08448485, 0.13451803, 0.15907611, 0.111473896, 0.06027495, -0.3766805, 0.20437005, -0.1462595, 0.35056624, 0.11944573, 0.19257322, -0.11031403, -0.026851289, -0.31673324, -0.49457827, -0.21743035, -0.1649975, 0.1907689, -0.062677294, -0.45836806, -0.29405993, 0.1659846, -0.17226945, -0.047893073, -0.07718188, 0.017162476, -0.10145344, 0.27708673, -0.45866206, 0.21321772, -0.13043192, -0.006474092, -0.05506319, -0.200664, -0.002477573, 0.11618767, -0.113602646, -0.020079106, 0.30766386, 0.061897706, 0.16075887, 0.20685835, 0.34482744, 0.019605793, -0.15220924, 0.2098031, -0.09371119, 0.08295828, 0.15949848, -0.20819184, -0.37528497, -0.08646774, -0.36331427, -0.16010645, 0.083736226, 0.012817912, 0.16565047, -0.04911318, 0.15537955, 0.06275793, -0.16208614, -0.042469285, 0.23706362, 0.07395623, 0.05586658, 0.16577308, -0.14165516, 0.14662687, 0.18405235, 0.14084667, 0.06754586, -0.13049382, 0.082596235, 0.1471312, -0.07023012, 0.16435166, -0.022294275, -0.12675533, -0.061450634, -0.01523527, 0.008384408, 0.08871789, 0.053733084, -0.043976154, 0.20051695, -0.022369346, -0.07169732, 0.06524538, 0.06021043, -0.07665744, 0.04451978, -0.07666145, 0.016235324, -0.033358786, -0.13187739, 0.045167834, -0.07385098, 0.14229764, 0.08746091, 0.12912871, 0.15924725, -0.4601929, 0.08756041, -0.22520947, 0.31381622, 0.030506987, -0.052085236, 0.06638784, -0.1374631, -0.4638907, 0.01714544, -0.36817393, -0.53526855, 0.15486334, -0.41301018, -0.29073387, -0.32801697, -0.011224202, -0.23085444, -0.015642364, -0.08722239, -0.12810032, -0.113483734, 0.061064303, 0.13524657, 0.030354505, -0.3274767, -0.31635314, 0.07026214, -0.109789915, 0.34844846, -0.06354579, 0.093516275, 0.15175991, 0.10570151, -0.1952713, 0.1389721, 0.11008729, 0.29614362, -0.04546689, 0.06582772, 0.037859973, 0.019912442, -0.28677106, 0.32091263, -0.21248442, -0.008832653, -0.14967214, -0.30818263, -0.007558715, 0.08822121, -0.03472926, 0.18461366, -0.013336462, -0.075750336, 0.026645852, -0.028358512, -0.17817754, 0.20832165, 0.060690813, 0.034380317, -0.0035020835, 0.05093498, 0.18270022, 0.08917013, -0.11087795, -0.029164344, 0.01713172, -0.021819882, -0.013896664, -0.0072274413, 0.052209705, 0.024361024, -0.07969837, -0.13895084, 0.15646762, -0.39145774, 0.17065868, 0.03934985, 0.03374901, 0.045873176, -0.2275916, -0.15507606, 0.1873236, 0.016929107, 0.031967457, -0.062404614, -0.07386719, 0.09997602, 0.016297339, -0.084882185, 0.048571344, -0.3380945, -0.071211904, -0.04925333, 0.1463295, -0.020645069, -0.31223142, 0.06525984, -0.15168305, 0.33055988, 0.13486265, -0.2594007, 0.22754347, -0.19203655, -0.37000135, 0.17018144, -0.3408368, -0.31355053, 0.33055162, -0.29354876, -0.3132006, 0.080041625, 0.025644597, -0.12206381, 0.12951303, -0.14657083, -0.03208401, -0.09657243, 0.11702773, 0.15707536, 0.24202716, -0.2017043, 0.24671905, -0.14578968, -0.021670017, 0.23203297, -0.09335737, 0.081738666, 0.08338396, 0.09561203, -0.2324921, -0.04164028, 0.1978838, 0.06632457, 0.016649714, 0.18324023, -0.14788048, 0.23779738, -0.12769856, 0.3687223, -0.28556907, 0.09161178, -0.30255392, -0.17140986, -0.015740324, 0.108307384, 0.091305666, 0.03719909, -0.018043775, 0.072936006, 0.094856344, 0.032119654, -0.059588768, 0.2668168, -0.030323828, -0.08798798, -0.14742918, -0.019078609, 0.108833864, 0.106549665, -0.09725844, 0.026237002, 0.0041455184, 0.10250238, -0.032495704, -0.059515085, -0.24392034, 0.0592952, 0.11233979, -0.10273962, -0.013420023, -0.29277232, -0.09231006, -0.14733882, 0.13089879, -0.05267817, 0.0404697, -0.099704, 0.12881655, -0.073755674, -0.0808695, 0.013588941, -0.4106268, -0.01402256, 0.044184335, 0.06186942, 0.09037629, -0.12720159, -0.087264836, -0.15119176, 0.14369085, -0.023830786, -0.26252088, 0.03772694, -0.13213947, 0.27921975, 0.24288702, -0.23685019, 0.2551218, -0.16787821, -0.1782386, 0.02348017, -0.22576098, 0.007904076, 0.20127201, -0.109716736, -0.118385114, 0.07902873, 0.13950859, -0.019925235, 0.10679182, -0.1834882, 0.04456688, 0.08924537, 0.0990246, 0.2071562, 0.22700307, -0.10155684, 0.24305551, -0.32003567, -0.08836714, -0.10412783, 0.025848975, 0.11922383, 0.06814053, -0.023464035, -0.18431352, 0.0027620122, 0.1429946, -0.09742217, 0.0611533, 0.21055664, -0.08947685, 0.2981138, 0.16466668, 0.21803087, -0.22045775, -0.019682169, -0.11678512, -0.16807733, -0.3825432, -0.036535468, -0.017737787, -0.17795417, -0.120231286, -0.003527297, -0.5757915, 0.3872796, -0.085324176, 0.18921787, 0.060332917, -0.18403047, 0.201034, -0.04133285, -0.026306441, 0.10106712, -0.07629888, -0.0527417, -0.01588572, -0.061538015, 0.061265066, 0.15390328, 0.028121956, -0.20088802, -0.07934069, 0.15249407, -0.24868613, -0.06411016, 0.02212621, -0.085250646, 0.11894503, -0.1288804, -0.011468566, 0.052661803, 0.09032042, -0.13066655, 0.034954388, 0.16713904, -0.041402724, -0.08883101, -0.042858258, 0.09463012, -0.21551672, -0.055535223, 0.11536093, -0.094364055, 0.0840989, 0.003629739, -0.08683746, 0.10625983, -0.12436412, 0.01735578, -0.016788991, 0.0028774894, 0.100343, -0.07347919, -0.17614055, 0.058105804, 0.09366657, -0.11012411, 0.14087695, -0.0689029, -0.024079503, 0.11647773, 0.038504403, -0.29508084, 0.08660281, -0.059710443, -0.13592437, -0.19574004, -0.03202173, -0.32825974, 0.1365968, 0.13958246, 0.042934224, -0.051701434, -0.08131141, -0.109411865, -0.13014697, -0.205322, -0.027898755, 0.42987865, 0.12780207, -0.03183777, 0.4844667, -0.161997, 0.09255265, -0.0027707464, 0.19370753, 0.10084703, -0.26170763, -0.055241976, -0.09169818, 0.03169178, 0.045495458, -0.34781593, -0.20469911, 0.036169477, 0.120978095, -0.06967797, -0.054415654, 0.0010247598, -0.16427474, 0.10731188, 0.048589956, 0.081143595, 0.20524737, -0.27111414, -0.09273664, -0.089742884, 0.19086279, 0.110276036, -0.041591424, -0.043594494, 0.023031786, 0.024709366, -0.04404591, 0.0753127, 0.028853144, -0.079258084, -0.03622913, 0.013934166, -0.10998919, -0.013205733, 0.15999302, 0.112340085, 0.049333755, 0.12759957, -0.07960992, 0.032957766, 0.05810733, -0.04779382, 0.08026813, -0.071810976, -0.10816547, 0.034292042, 0.0046073482, 0.15915006, 0.099381216, 0.18073776, 0.018259827, 0.08830812, 0.033692617, 0.24982548, -0.06047493, 0.123341896, -0.2035822, -0.033507682, 0.2689198, 0.005070279, -0.019565532, -0.15237506, -0.32448518, 0.024970135, -0.16379291, -0.13237286, 0.13578366, -0.0009879131, -0.17536478, -0.36642838, 0.098819435, -0.24394712, 0.0753722, 0.039401364, -0.16819538, -0.17548797, 0.3314733, -0.0004395421, -0.03188725, 0.09315636, -0.28214297, 0.0350677, 0.15910491, -0.120607905, -0.047872867, 0.2172341, 0.21879862, 0.18610662, 0.10457373, -0.16278732, 0.33361593, -0.0004764511, 0.23693264, -0.30781323, 0.050602533, 0.11244567, -0.23750857, 0.14512421, -0.19231914, -0.1954786, -0.12676279, -0.46464637, -0.10034947, 0.052253213, -0.027176332, -0.20909898, 0.1239782, -0.029596023, -0.15292703, -0.14725003, -0.06330225, 0.1338798, 0.017432854, -0.013928783, -0.30513534, -0.065817215, 0.23525661, -0.0022367558, 0.07212929, 0.025986409, 0.115866356, -0.072584815, 0.027802, -0.004508542, -0.119535305, 0.13140711, -0.039446965, -0.017872488, 0.017549101, -0.06827197, -0.032038942, 0.132936, 0.17700668, 0.15547216, 0.01998338, 0.05403373, 0.056650314, -0.002616818, -0.15076914, 0.056868173, -0.16948614, 0.22479557, 0.055752046, 0.06535641, 0.061129443, 0.0020909489, -0.075405344, 0.12656642, 0.06080182, 0.05241995, -0.20767291, 0.13877705, -0.25764737, 0.1265214, 0.32480565, -0.16748485, -0.081543244, -0.14666022, -0.44764268, 0.044104706, -0.12832128, -0.04288422, 0.10082622, -0.058067337, -0.083711624, -0.49095142, -0.008406489, -0.14830282, 0.11399632, 0.100266345, -0.125523, -0.015526042, 0.20547347, 0.28432977, 0.1643466, 0.080131456, 0.13583767, -0.00062799524, 0.021298943, 0.13300857, -0.08787451, 0.2551727, 0.4022275, -0.014499929, -0.10538673, -0.19177073, 0.21403101, 0.023364166, 0.32283196, -0.49155778, 0.062021475, 0.2579719, -0.31300724, 0.15794411, -0.23900117, -0.05419521, -0.16550644, -0.12914732, -0.068217, 0.14466238, -0.04582586, -0.19895788, 0.03178943, -0.07328156, -0.11350356, -0.38895553, -0.01464065, 0.18617322, 0.052775078, 0.028632335, -0.08225643, 0.048710383, 0.10571197, 0.0012946636, 0.06164385, 0.0777718, 0.024182294, -0.06922823, 0.014246159, 0.13225308, -0.14484207, 0.00774073, -0.09663813, 0.020549525, 0.019930955, -0.12766421, -0.25452778, 0.010428701, 0.17908646, 0.0013041199, -0.085779905, -0.027960943, 0.03211725, 0.021163417, -0.14176553, 0.06471096, -0.34593275, 0.3249179, 0.108617134, 0.035900425, 0.051967833, -0.13463823, -0.21569672, -0.096335955, 0.039274905, -0.12057182, -0.17518476, 0.09938847, -0.25130948, -0.017005036, 0.22074926, -0.2880794, -0.123943314, -0.13290972, -0.02261347, 0.2277648, -0.03156539, 0.031720866, 0.115337566, -0.123472616, 0.10950541, -0.3300986, -0.03556107, -0.14269109, 0.055722706, -0.0149030015, -0.18868636, 0.07870388, 0.06845561, 0.23234057, 0.029186057, 0.101165436, 0.20065048, 0.14535524, 0.065532275, 0.07331315, 0.09290713, 0.24490093, 0.14394036, -0.17784028, -0.26908246, -0.23225896, 0.2214914, -0.0057375785, 0.23418634, -0.29711744, -0.12521346, 0.19988333, -0.087103575, 0.37372017, -0.21280831, 0.016913831, -0.22231919, -0.041745957, -0.01888481, 0.094330855, 0.041669186, -0.16261454, 0.16642731, -0.0047478, 0.01627091, -0.19956462, 0.055917855, 0.16936433, 0.14976744, 0.15629679, -0.15402296, 0.1823621, 0.119244486, 0.034361664, -0.024226876, 0.07759902, 0.070521496, -0.06955283, -0.066234, 0.093592465, -0.20823815, -0.006807642, 0.15137075, -0.020932851, 0.062266905, 0.011294099, -0.23960261, -0.01586033, -0.04078886, -0.08985051, 0.062002853, -0.030738395, 0.08675491, -0.05351843, -0.012236341, 0.06772228, -0.30322683, 0.12424701, 0.1505113, -0.02533621, -0.017885165, -0.03009877, -0.08002044, -0.08826601, 0.024395512, 0.080557235, 0.053788602, 0.06834045, -0.2987004, -0.091532394, 0.25663015, -0.17818177, -0.05812006, -0.16251944, 0.14835611, 0.18497355, -0.046582315, 0.024544474, -0.15651129, -0.055718716, 0.11329806, -0.0684296, 0.14046735, 0.057815444, 0.092176154, -0.13684809, -0.19277819, 0.054059885, -0.011193818, 0.07126152, 0.16162078, 0.032072447, 0.2197837, -0.18107374, 0.0216586, -0.09989548, 0.008216565, 0.12648603, 0.034098137, -0.18399966, -0.2461598, -0.3302206, 0.20374969, -0.13569269, 0.11147503, -0.0012113999, -0.10545664, 0.24050145, 0.13046837, 0.25414702, -0.08784888, 0.045671105, -0.052213605, 0.05188125, -0.37642205, -0.047119826, -0.06607476, -0.17718251, -0.1752794, 0.1057556, -0.3732923, 0.2568431, 0.0022903313, 0.09521881, 0.18482797, -0.17586438, -0.06047233, 0.055312563, -0.2817612, -0.08306673, -0.011932454, 0.030315476, 0.15510677, 0.003539151, -0.08811605, -0.009113744, -0.066710554, 0.122103676, -0.0445898, 0.10206065, 0.018711098, -0.035588793, 0.13158724, -0.16839617, 0.041302606, 0.10035928, 0.0640856, 0.12204444, 0.11042669, -0.12492023, -0.10099563, -0.026080452, 0.082379945, 0.1583032, -0.05640291, 0.13683408, 0.15851562, -0.0042950884, -0.041272484, -0.07140033, -0.021927755, 0.061249796, -0.087342955, -0.027678499, 0.10975829, -0.037996434, 0.06188227, 0.06473386, -0.052323367, 0.09774112, 0.13567936, 0.021719418, -0.044176426, 0.007399606, 0.07196313, -0.1468217, 0.21269526, -0.1283705, -0.21216741, -0.18413897, 0.07880323, 0.1709996, -0.20832106, -0.01414633, -0.1963989, -0.05024656, -0.03842759, -0.020140847, -0.19347538, -0.03879855, 0.121872924, -0.01775765, -0.036332645, 0.093971424, 0.30638444, -0.05720094, -0.3706548, -0.2695542, 0.29929575, -0.17798215, 0.26124907, -0.40627497, 0.02327234, -0.057809267, -0.07401425, -0.12655574, -0.01632556, -0.029389614, 0.14517385, -0.31528732, -0.23178999, 0.09575339, -0.18326107, -0.14442065, 0.048328873, -0.08990569, -0.28995225, 0.20759313, 0.22763747, 0.1405448, -0.003284777, -0.197876, 0.004671824, -0.21623333, -0.2033151, -0.22831376, 0.05595518, -0.0686695, -0.014569226, -0.14775647, -0.07777403, 0.017162345, -0.1379437, 0.15996796, 0.059327047, 0.008454647, 0.07447991, -0.056193873, 0.019833488, -0.09288846, 0.17225754, 0.1976023, 0.12464841, 0.056517493, -0.019617282, 0.029893896, -0.1551575, 0.13487618, -0.042424724, 0.1860088, 0.115263455, 0.029158995, 0.09717976, 0.16646083, -0.05788739, 0.07513382, -0.027466144, 0.052860595, 0.14425366, 0.18907577, 0.033838946, 0.0008804045, -0.011316649, 0.086574934, 0.060972445, 0.02372796, -0.114591405, -0.03239006, -0.096383125, -0.0068473616, -0.0029364869, 0.04348262, 0.1660341, -0.12635761, -0.18409352, -0.121410094, 0.09571608, 0.09686155, -0.20293699, -0.05585871, 0.07325684, 0.3354459, -0.02785147, 0.107795365, 0.023573613, 0.02449122, 0.1161426, -0.04675581, -0.008820138, 0.14736804, 0.42895162, -0.15958822, -0.20130795, -0.23629545, 0.32362127, -0.1579436, 0.34640288, -0.5754023, 0.1354237, 0.0715975, -0.13834809, 0.019888217, -0.11327094, -0.02818949, 0.044075556, 0.123674095, 0.16195221, -0.09018713, -0.14054346, -0.03923919, 0.040370908, -0.19816032, -0.087413095, -0.26596224, 0.22595671, 0.10684194, -0.13733162, 0.1339608, 0.089389846, -0.13536802, -0.01113854, -0.15869883, 0.06642157, -0.029231459, 0.09002182, -0.00488521, -0.017612183, -0.026680997, -0.1089834, 0.08342354, 0.0035926597, 0.107817106, 0.09913779, -0.091498174, -0.043369934, 0.03935749, 0.010378892, 0.15388986, -0.0002166068, 0.012092785, 0.041728944, -0.013780941, -0.121556774, 0.13546768, -0.13490196, 0.117248215, 0.028805431, -0.051363394, -0.056816835, 0.13825093, -0.06674407, 0.11217959, -0.026629774, -0.08960062, 0.07898096, 0.2359151, -0.24975775, -0.24243648, 0.11888469, 0.06451488, 0.057104323, -0.09979211, -0.23823456, 0.036139272, -0.2153292, 0.022360655, -0.23470233, 0.16755906, 0.24437182, -0.13679183, -0.10576615, -0.035479207, 0.1057781, -0.03345784, -0.11512245, -0.02175993, 0.086757846, 0.40635517, -0.01738359, 0.20961098, 0.13674209, 0.12842774, 0.056099202, 0.05240302, 0.20063949, 0.097758874, 0.1898215, -0.18484594, -0.19463082, -0.36922505, 0.21800102, -0.17928159, 0.33981746, -0.2855263, 0.052648235, 0.12699898, 0.008695177, 0.19358794, 0.027554631, 0.0071417103, 0.011134809, 0.29441282, 0.13352346, -0.22548303, -0.11798561, 0.082037605, 0.10832808, -0.21859732, 0.0021329487, -0.5120228, 0.098030254, 0.13810249, -0.046855353, 0.1243846, 0.22920837, 0.1105584, -0.04441467, 0.14351623, 0.040201746, -0.14654404, 0.14089169, -0.07132726, -0.022378983, -0.018198144, -0.15320903, -0.017319521, -0.028877534, 0.11235161, 0.0937507, 0.05834511, -0.069946945, -0.046563722, 0.004750549, 0.13129155, -0.022771196, -0.19079164, 0.082232445, 0.13206999, 0.048960008, -0.048298225, -0.18580742, 0.07971354, -0.071741715, 0.02051926, 0.060875382, 0.027570177, 0.031818863, -0.016250364, -0.18776926, -0.05391537, 0.065016076, 0.12923326, -0.13090923, -0.41088945, 0.124959, -0.041910578, -0.19205037, -0.060965654, -0.12722577, 0.043479513, 0.026023088, 0.17613485, -0.25498685, -0.0738094, 0.112412, -0.13976672, 0.058154527, 0.053684596, 0.016791513, 0.041440703, -0.26746285, 0.08486726, -0.06437867, 0.18176375, 0.04033644, -0.043853328, 0.11272659, -0.062129103, -0.121954575, -0.12041685, 0.13878705, -0.092691116, -0.09802137, -0.4676316, -0.11243217, -0.26181203, 0.1018232, -0.06598414, 0.23644857, -0.16212617, 0.132551, 0.115962, 0.011890745, 0.32097358, 0.1319138, -0.039642364, 0.027045272, 0.26903805, 0.058247626, -0.2851226, -0.010440767, 0.1847385, 0.17612189, -0.23397887, -0.24157688, -0.28094128, 0.11815213, 0.08002426, -0.00213913, 0.11971905, 0.10633054, 0.124814466, 0.08766828, 0.0810047, 0.14377728, -0.20049284, 0.16757739, -0.0010726795, -0.05584863, -0.015773665, -0.3248263, -0.080713876, 0.12433254, 0.029264603, -0.047358036, 0.13418305, -0.077422686, -0.06769689, -0.003906948, 0.14193387, 0.08780254, -0.23763329, 0.050979864, 0.2549113, -0.1050988, -0.02882326, -0.36492926, 0.0719244, -0.008863159, -0.07412234, -0.029118832, 0.08709852, 0.015650222, -0.15321778, -0.17941402, -0.018543169, 0.057521127, -0.08865608, -0.13003218, -0.21265589, 0.21429229, -0.05080749, -0.30587944, -0.23463683, 0.12035548, -0.06255035, 0.22182746, 0.13666518, -0.2926246, -0.011988458, 0.18511821, 0.043743487, 0.22754337, 0.089077726, 0.03158009, -0.03422946, -0.10464809, -0.05424085, 0.0016325488, 0.07084609, -0.02431983, 0.05911633, 0.025023662, -0.04773443, 0.11230846, 0.04450087, -0.034135573, 0.15625562, -0.15807937, -0.37140083, -0.11089561, -0.28350636, -0.00322772, -0.029541768, 0.111427486, -0.07757634, 0.015920652, 0.0925297, 0.14197016, 0.060787804, 0.24893452, 0.074357696, -0.0033807298, 0.29661041 };
  Tensor4D f2 = tensor_init_4d(n_f2, f2_chans, f2_rows, f2_cols, f2_vals);

  // Set up 16 biases (for the second convolution)
  int b2_cols = 16;
  float b2_vals[] = { -0.007034846, -0.0058396645, 0.083375596, 0.090153106, -0.022036517, -0.014517126, -0.082145356, 0.14158385, 0.088544406, 0.02306863, 0.10527239, 0.09165618, 0.064002566, -0.017460488, 0.010190038, 0.048739575 };
  Tensor1D b2 = tensor_init_1d(b2_cols, b2_vals);

  // Set up fully connected layers output shapes
  int fc_0 = 256;
  int fc_1 = 120;
  int fc_2 = 84;
  int fc_3 = 10;

  // Set up fully connected layers filters
  float f_fc1_vals[] = { 0.038587395, -0.17755982, -0.07062525, -0.046422176, -0.04359047, -0.036543056, 0.2664384, 0.09107175, 0.015680395, -0.10641513, 0.077617705, 0.06679613, -0.040109146, 0.025977962, 0.1546374, -0.08176815, 0.18650526, 0.17434978, -0.026203679, 0.092890464, -0.22598785, -0.13914368, -0.034580298, -0.053673964, -0.1497047, 0.107443295, 0.16168226, -0.21535012, -0.04304968, -0.23184144, -0.1540963, 0.26119158, -0.08699563, -0.1186291, 0.054491565, -0.2534469, -0.053795714, -0.08369678, -0.08116975, -0.021105532, 0.010589569, -0.09995365, 0.1200371, -0.053526722, -0.086917065, 0.0658497, -0.14733656, -0.007669998, -0.0065785632, 0.012016805, -0.06471792, -0.19849509, 0.14050266, 0.12605773, 0.06629086, -0.18165095, 0.15326262, -9.342667e-05, 0.041963242, 0.062906265, 0.040502712, -0.025894456, 0.054155715, -0.13895155, 0.06300726, 0.02426791, -0.038722068, -0.009658293, 0.09557413, -0.018096546, -0.23717825, 0.054286305, -0.12443641, -0.039100535, -0.08810938, -0.021630919, 0.01624493, 0.020370713, 0.013014702, 0.14078748, -0.18777639, -0.009452312, 0.09648693, 0.061289653, 0.106737785, 0.05892196, -0.018916667, 0.06433398, -0.069917634, -0.07730477, 0.11600812, 0.13754554, -0.054516573, -0.025838798, 0.10343417, -0.0838985, 0.039088015, -0.07779302, 0.029096872, -0.18545823, -0.13737856, 0.08203778, 0.0052728294, -0.18165714, 0.13010214, 0.18373895, -0.10918093, -0.07833832, -0.11619082, -0.041374438, -0.18622592, -0.044678215, -0.0047577485, -0.039488405, -0.05398485, -0.06471411, 0.06949959, -0.13548152, -0.12881576, 0.020731594, 0.035554275, -0.21472338, -0.03145489, -0.23455004, 0.10483545, 0.15096183, 0.15649904, -0.13799803, 0.00059884205, -0.008785329, -0.07794932, 0.017005952, 0.0008368571, -0.060658343, 0.0790565, -0.100811005, 0.08128732, -0.100273475, -0.089476526, 0.0832117, -0.17947112, -0.11196518, 0.025107874, 0.09362298, -0.09063595, -0.12096636, 0.09799779, 0.1718422, -0.0061214725, -0.10117713, -0.017841686, -0.010158404, -0.006972566, -0.002558056, 0.08925584, -0.10967502, 0.02051245, 0.117446914, -0.016865887, -0.067849375, 0.04536805, -0.13174985, -0.0006750418, -0.029163137, 0.046153862, -0.052727118, -0.10594753, 0.054677676, -0.04692833, -0.042356674, 0.15187919, 0.104361154, 0.09026333, 0.034217484, 0.18969804, 0.07595634, -0.1995758, 0.2137248, -0.13985234, -0.06599659, 0.010561107, -0.10080025, -0.0076505155, 0.009515982, 0.30201548, -0.08179047, -0.13251011, 0.18021928, -0.16165501, -0.15825099, 0.17596169, 0.06479871, 0.013255139, -0.013506063, -0.06489535, 0.07154214, 0.020842887, -0.049098734, -0.23845309, -0.20499423, -0.018793205, -0.05280524, -0.17226826, 0.014964311, -0.031602368, -0.0971129, -0.10480873, -0.0022526346, 0.014376562, 0.058278818, -0.22251825, 0.12391501, 0.007845234, -0.14389995, 0.056772392, -0.02815812, -0.15539058, -0.11514897, 0.07890551, 0.11301441, -0.028213164, 0.024875278, 0.09340502, 0.15592271, 0.007303508, 0.18117581, -0.08576921, -0.047600485, 0.06110991, 0.21796675, -0.23147345, 0.0683164, 0.05724281, 0.12973282, 0.11872713, -0.118732296, 0.048708826, -0.22269143, 0.069783226, -0.13570887, 0.15445739, -0.04305131, 0.022826161, -0.12648016, 0.02283166, -0.0010262392, 0.17487563, -0.01119852, 0.03629258, 0.21021102, 0.0040578004, -0.13492785, -0.13562094, -0.07705942, -0.010819859, 0.041018765, 0.008154712, -0.007082932, 0.10761606, 0.07691643, -0.089485966, -0.036730193, -0.017940685, -0.09982555, 0.11803873, 0.13199486, -0.1464848, 0.018572504, -0.017694322, -0.021964755, 0.1345504, -0.021380438, 0.07012811, 0.012900818, 0.08132799, -0.024663905, 0.092326656, -0.078016415, -0.067279585, 0.055025484, 0.0025474764, 0.13459258, -0.16191335, -0.058535647, -0.09242346, -0.03400302, -0.0009893558, 0.086370915, 0.020872165, -0.09935567, -0.06012655, -0.10047771, -0.10064953, -0.007816629, -0.13186629, -0.09574233, -0.024603648, -0.01404013, 0.14531374, 0.1035408, 0.10686396, 0.11661162, 0.03443033, 0.053706642, -0.10542097, -0.09468877, -0.060447082, -0.05694261, -0.0071539725, -0.09488527, -0.22596647, -0.098129794, 0.032865696, -0.017168764, 0.10187401, -0.016921245, 0.08737468, -0.04384715, 0.08231214, 0.13876235, 0.08182807, 0.06568754, -0.09963098, 0.03199071, 0.15779392, 0.047688372, 0.08341831, -0.020967465, -0.016932994, 0.01399256, 0.08831058, -0.02274063, -0.019581305, 0.108452745, -0.03625113, -0.099338435, 0.14715618, 0.0014889773, 0.13266262, 0.03938202, 0.10066158, -0.0047035487, -0.21084219, -0.24103984, 0.073378295, 0.13733497, -0.14629906, -0.16744758, 0.08458746, -0.021491928, -0.046217922, 0.13912651, 0.14161621, -0.02813438, 0.06000778, 0.08248403, -0.1050334, 0.0029413067, -0.017698374, 0.015723271, -0.16184336, -0.22365896, -0.042480387, 0.08535703, -0.1229642, 0.064754486, -0.19178519, 0.017754523, -0.1560599, -0.1786861, -0.32534346, -0.05581032, 0.061820637, 0.024069807, 0.14718363, -0.0807163, 0.00618285, -0.10966732, 0.006168076, 0.07319841, -0.13523538, -0.14338866, -0.017787267, -0.041484643, -0.08395613, -0.19243903, 0.15478061, 0.012583048, -0.14531812, -0.24171478, 0.09981059, 0.02158183, 0.07794528, -0.13212816, 0.0041558337, 0.105542645, -0.08151227, 0.039700873, -0.052873943, 0.103369035, -0.09023852, -0.08585472, 0.056776304, -0.015725074, 0.032659184, 0.06564288, 0.046184994, -0.19407023, 0.03425804, -0.14095843, -0.014196873, 0.06648078, 0.009100821, 0.13716798, 0.113550246, -0.1339958, -0.28742975, 0.20911418, -0.08470741, -0.06980537, -0.024632141, -0.3288828, -0.0215187, -0.27546105, 0.07226132, -0.07722469, 0.10849444, 0.15982394, -0.030768877, -0.13904479, 0.3792739, 0.04131065, -0.16061881, -0.35621774, -0.078487106, -0.14606234, -0.026868934, 0.018796962, -0.24911617, 0.09436187, -0.23635371, 0.16466752, -0.33919877, -0.012647671, 0.054792035, -0.12738173, 0.06764817, -0.0036227924, 0.01286313, -0.064018235, 0.1135735, 0.10715159, -0.28120574, -0.13042763, 0.064405955, 0.18289073, 0.00020517234, -0.26324064, -0.097036175, 0.04979526, 0.10436401, 0.013157276, 0.21073005, 0.026450522, 0.3024764, 0.1250937, 0.02263918, -0.10809787, -0.079570524, 0.04909698, -0.23605303, 0.07628683, 0.021070264, 0.06413743, 0.10530263, -0.11989483, 0.018545108, -0.20427287, -0.07272164, -0.16663879, -0.15882742, -0.14261472, -0.029115867, -0.18459113, -0.06713956, 0.18936744, -0.18538229, -0.08375508, 0.01428849, -0.016506108, -0.013759123, -0.02676423, 0.04698758, -0.15719451, 0.10651825, 0.045609333, 0.00040323657, 0.0045016543, -0.017679706, 0.010290525, 0.04956079, -0.055659726, -0.076682165, 0.014297581, -0.18745683, -0.1347243, 0.013491733, 0.13647208, -0.15929545, -0.20632437, -0.096033715, -0.10359385, 0.0817137, -0.099208, 0.12516586, 0.16385989, -0.04080843, -0.081592575, 0.057626124, 0.09099664, 0.009939575, -0.14454864, 0.062032327, -0.07604122, -0.16810124, 0.07880091, -0.10802633, -0.1889057, -0.054245126, -0.056552246, 0.1058906, 0.070856065, 0.090424865, -0.1280327, 0.024540184, -0.026386362, -0.0792283, -0.12163691, -0.100471936, -0.07549202, -0.045723706, -0.07783936, -0.04744386, -0.17253889, -0.025059612, -0.10267134, -0.151087, 0.054758266, -0.2127733, 0.06325438, -0.01740537, 0.05926184, 0.03557489, 0.024987409, 0.11788051, -0.07512113, 0.09582996, -0.19593899, 0.13717811, -0.15867181, -0.13897645, 0.026311778, -0.10842567, 0.043398075, -0.04048214, 0.029232902, 0.051389594, -0.21733592, -0.13957393, 0.09729355, -0.21010372, 0.032346036, 0.03755215, -0.0006938452, 0.06755719, -0.0730138, -0.010637225, -0.22031091, -0.13409549, -0.020212566, 0.005956577, 0.09442468, 0.20068395, 0.116579525, 0.017750185, 0.10478091, 0.119167194, -0.0056790146, 0.064319484, -0.05155307, -0.12939917, -0.14876458, -0.031767577, 0.13630986, 0.1268006, -0.14492992, -0.12808017, -0.105746865, 0.0012515872, 0.05155296, 0.004262545, -0.239924, 0.1305738, -0.28658402, -0.03363415, 0.19369984, 0.18524908, 0.07701288, 0.03600663, -0.025348166, -0.09928383, -0.171098, -0.1290718, 0.0065946765, 0.15695795, 0.12987381, 0.1842386, -0.1613114, -0.08286176, -0.14467473, -0.014192945, 0.03818242, 0.15614507, 0.034477945, -0.11234353, -0.12235817, -0.10307643, -0.0668748, -0.034367576, -0.18221109, 0.060642973, -0.32119152, 0.075039186, -0.049561236, 0.06778304, 0.043685302, -0.038743515, 0.11385303, 0.035998177, -0.05919704, -0.10850029, 0.002508627, 0.10585532, 0.051426373, 0.0234732, -0.026753379, -0.0067224787, -0.21710607, -0.0601149, -0.10816991, -0.03750037, -0.08113289, 0.026215402, 0.15661651, 0.0477209, -0.0686531, 0.054889698, 0.03206482, -0.030595094, -0.026670767, 0.14954075, -0.18787642, -0.066322744, -0.13521358, 0.041758306, -0.015839962, -0.057624336, 0.039983682, -0.22389427, -0.043162078, 0.011197724, 0.44873637, -0.13956565, -0.04672523, 0.06948786, -0.096774414, 0.010361742, -0.22528, 0.033750534, -0.123736374, -0.121067725, 0.06832021, 0.13760898, 0.045026325, 0.1330056, -0.07153517, -0.050142515, -0.124509074, 0.017147105, -0.026924092, -0.10623429, -0.012697983, 0.058072135, -0.045550205, -0.12710409, 0.059266757, -0.09830676, -0.25909683, -0.062214527, -0.114064604, -0.024861906, 0.13456428, 0.10906525, 0.005720787, 0.07457829, -0.14097168, 0.058401383, -0.07596159, -0.07113679, 0.08586988, -0.252508, 0.13785538, -0.0024694365, 0.113428764, 0.019492568, 0.04733892, -0.041805916, -0.043578975, -0.020937249, -0.07076653, -0.27763462, -0.077853166, -0.2591521, -0.2543163, 0.1842635, 0.1786629, -0.15722135, 0.07707906, -0.05728122, 0.2172844, 0.18613797, -0.09370575, -0.00023153733, 0.25803366, -0.119270265, 0.12079912, -0.15626155, -0.09197673, -0.03495384, -0.13287617, 0.1948374, -0.039914772, 0.1579618, -0.09721298, 0.33621737, -0.27956763, 0.08824247, -0.33384678, -0.06509532, -0.30421636, 0.08317855, 0.30097657, 0.07405852, -0.024428133, -0.09865149, -0.07934218, -0.022380568, 0.18126099, -0.06347436, -0.08791383, -0.076186925, 0.18653731, -0.20934734, 0.09530629, -0.06583969, 0.32002157, -0.014829335, 0.12671976, 0.21259373, 0.036758065, 0.17171563, 0.16666074, -0.06276442, 0.09365963, 0.011177215, -0.12860812, -0.33184573, 0.094770595, -0.16895714, 0.036709934, -0.06598553, -0.00129865, -0.10033871, -0.05713429, -0.15567611, 0.012676102, -0.15668538, 0.049214248, -0.0070884787, 0.19223148, -0.19318593, 0.0999006, -0.042950034, -0.24537449, 0.17345832, 0.18346079, 0.104182236, 0.1935177, 0.1737281, 0.07340199, 0.13950695, 0.13479252, -0.12723532, 0.3699446, 0.20060512, 0.0736498, 0.03182107, 0.06338421, -0.01296934, -0.068918884, -0.307243, 0.114942335, -0.09325205, 0.19096813, -0.21024188, -0.058068603, -0.1286274, -0.24823876, -0.013082854, 0.09624361, 0.08180041, -0.02745378, -0.2690335, -0.24879432, -0.16098046, 0.13712357, 0.0018649361, -0.16477308, -0.09067852, -0.27205154, -0.0952629, 0.25110662, 0.24540712, -0.06498334, 0.044486955, 0.1604501, -0.09342903, 0.25843334, 0.114543386, -0.02822416, -0.035447188, -0.07695878, -0.14599006, -0.09771872, -0.3514377, -0.10796495, 0.41069964, -0.037642237, -0.18984649, -0.021765998, -0.06671698, -0.00495661, -0.09310775, 0.076269545, 0.08521568, -0.103209674, -0.0020694528, -0.014492853, 0.055293858, -0.03238, 0.08001389, -0.113853425, -0.04825806, -0.08128469, 0.009135222, 0.10699835, 0.028254887, -0.20484391, -0.024061024, -0.10460115, 0.18110842, -0.030606145, -0.030977186, 0.10693258, 0.1469802, -0.15775914, -0.042393364, 0.22056662, -0.099671766, 0.18359318, -0.0798081, 0.059421685, 0.055204686, -0.06399015, -0.022532435, -0.06581526, 0.14545311, 0.13916406, 0.07248578, 0.13422753, -0.059993323, -0.1376643, -0.17590487, 0.30591124, 0.055605516, -0.08971659, 0.11010308, 0.119849004, -0.0612256, 0.09409119, -0.052813396, -0.16328251, -0.11056069, 0.060963117, -0.16200252, -0.17108028, -0.020221984, -0.17838368, 0.17859769, 0.011499922, -0.031957548, -0.037549812, -0.025006343, 0.030179325, 0.12564997, 0.056943294, -0.061410103, 0.012730785, -0.22342893, 0.0774639, 0.022300873, 0.13063733, 0.122814655, -0.009147167, 0.029498225, 0.010477238, 0.077611975, -0.02631624, -0.052828226, -0.03328518, 0.12247268, -0.0036275932, -0.0018983287, -0.16522573, -0.08538572, -0.026008267, 0.042829774, -0.12029131, -0.05090254, -0.07678674, -0.011351485, 0.038533922, -0.09111943, -0.17214502, 0.14109308, 0.05297544, 0.11211515, -0.14268818, 0.092931956, 0.0048612515, -0.21024229, -0.016299805, -0.03905966, 0.14312974, 0.005108686, -0.046452105, -0.16551502, -0.19574367, -0.029950825, -0.12003106, -0.082732625, 0.14904605, -0.04829007, 0.10762303, -0.03667884, -0.08498481, 0.09164753, -0.09357023, -0.1971823, 0.07641173, 0.097795404, -0.12984192, -0.10532306, -0.16417767, -0.1862414, -0.22902517, -0.08368238, 0.081643514, 0.14254719, -0.022336157, -0.18280338, -0.081142806, 0.02593785, -0.111047246, 0.21473877, -0.17309202, -0.014636585, 0.1151607, -0.0027463005, 0.16116071, 0.09515033, 0.21044217, -0.0015586152, 0.010684643, 0.0964531, -0.26582, -0.1003035, 0.090151265, -0.14056285, -0.1579128, -0.06411346, -0.02601868, -0.17961816, 0.030773843, 0.010654718, -0.06200058, -0.015996566, 0.40059882, 0.056532312, 0.10139147, 0.12205328, -0.06395572, -0.03953246, -0.012637235, 0.14139125, -0.11161024, 0.12143027, 0.028919011, -0.046206344, -0.18279774, -0.104119375, 0.0741224, 0.008672251, 0.38899133, 0.008454952, 0.10982888, -0.03940819, -0.060978, 0.18843646, 0.0065603186, -0.35360575, -0.1646674, 0.15176354, 0.04924556, -0.023342445, 0.070595965, -0.041792337, 0.22364879, -0.025968729, -0.034622535, 0.2786966, 0.25064227, -0.0053016036, 0.0016521859, -0.14081903, 0.09498047, -0.028133832, 0.12043937, -0.10128657, 0.07675427, 0.15210079, 0.111126356, 0.11885564, -0.12289227, -0.030581092, -0.14468111, -0.095307484, 0.1776041, 0.19040295, 0.10194203, -0.23021933, -0.053509, -0.18008018, -0.18363288, 0.03354102, 0.3404624, 0.01949677, -0.2799363, 0.10267726, -0.08835774, 0.22637016, -0.16117232, 0.12937509, -0.08155944, -0.042838648, 0.10890203, 0.05047555, 0.05741525, -0.18838447, -0.11824467, 0.11697877, -0.06240578, 0.030281879, -0.053293627, -0.11132847, 0.03239583, 0.14502022, 0.065894514, 0.07867662, 0.14795654, 0.061989024, 0.025665559, 0.090689525, 0.02851555, 0.042405088, 0.07072832, 0.06224427, -0.21263286, -0.12200291, 0.06552812, 0.0047141667, -0.14372037, -0.11102289, -0.033237368, -0.042426556, -0.07275105, -0.048256468, 0.08288181, 0.056750312, -0.18269771, -0.07377706, -0.059495684, -0.028777506, -0.04099953, 0.115803435, -0.08932212, -0.051264826, 0.109699376, 0.08214934, -0.17627656, -0.05739972, 0.09236681, 0.011870013, -0.0013345868, -0.03159123, -0.046994396, -0.12113388, -0.158185, -0.14168021, 0.017082168, 0.09413665, 0.06171245, -0.05857699, 0.05497881, -0.18416889, -0.21106648, 0.12557133, 0.15077159, 0.12525782, -0.16021281, -0.017924855, -0.11497823, 0.062448565, -0.16034898, 0.08261986, -0.027347883, 0.10220338, 0.16364965, -0.06690697, 0.084647894, -0.13821241, 0.20806284, -0.23059091, 0.12513763, -0.100317314, -0.042501032, 0.06926518, -0.0071778893, -0.12760422, -0.07867812, -0.018462075, -0.0026520586, -0.07411639, 0.019148704, -0.041293412, -0.045019276, -0.12485859, -0.09201065, -0.1244365, 0.0971382, -0.19609897, 0.13367684, 0.08896112, 0.11958294, 0.06578359, -0.06753635, 0.057887755, 0.06099125, 0.08973366, 0.17321849, 0.07941219, 0.05061229, -0.14820574, 0.027710138, -0.05445146, -0.05019222, -0.00017480922, -0.09475069, -0.030541563, 0.050811324, 0.06457517, 0.052886825, 0.12164875, 0.13744073, 0.19483733, -0.026103389, -0.07455303, 0.047698278, -0.0037515538, 0.13540788, 0.02262976, -0.18694915, -0.054098148, -0.018758392, 0.09679874, -0.14011234, 0.161547, -0.08625488, -0.121385455, -0.093804255, 0.09870018, 0.036832396, 0.084905885, -0.089091495, 0.03176961, 0.12088055, 0.017646449, 0.030303562, 0.14630187, -0.13374756, 0.18437631, -0.1303099, -0.10414535, 0.07037945, -0.029010057, 0.12767066, -0.03334883, -0.002294765, 0.09083453, -0.114822775, 0.091619425, 0.098555766, -0.115461744, 0.055601154, -0.022380445, -0.04794357, 0.054353856, 0.12150349, -0.031134658, -0.092454165, 0.042969614, 0.07417672, -0.23665766, -0.08212641, 0.028106702, -0.075801276, -0.09186194, 0.07579814, -0.031638116, -0.022857547, 0.004155506, -0.21838215, 0.19014658, -0.027086329, 0.068124995, -0.25239477, -0.11564587, -0.0076557565, 0.06583461, 0.13991807, -0.14032687, 0.17709376, -0.12227867, 0.25259492, -0.14722218, -0.05052233, -0.11991959, -0.07826235, 0.15172885, 0.07039384, -0.45381415, -0.061814435, 0.11527122, -0.0036377872, -0.0051473845, 0.0002155469, 0.007117796, -0.034296356, 0.1427544, 0.02843086, 0.17604776, -0.05487492, 0.12020626, 0.055200066, 0.04396855, -0.045099743, 0.04126165, 0.06558866, -0.19057876, -0.03283272, 0.0407106, 0.08019439, 0.031398542, 0.18922608, 0.080693595, -0.072777696, -0.066554084, 0.18620896, 0.023520065, 0.07147453, -0.07499758, 0.057025593, -0.18400803, -0.0026870407, 0.042531807, -0.038406983, -0.13449733, 0.088022254, 0.03722922, -0.19906509, 0.10735506, -0.023635935, 0.037380107, -0.106275424, 0.06679818, -0.025236033, -0.054861173, 0.20611878, -0.03657832, 0.07541805, 0.14926791, 0.09467823, 0.17329141, 0.019152155, -0.19811027, 0.067351855, 0.26365247, -0.03330317, -0.06096699, -0.018236788, 0.0507109, -0.12289618, -0.020829145, 0.06460664, -0.008548361, 0.052264914, 0.1120908, -0.19865564, -0.054859456, -0.07862772, -0.20604306, -0.06337133, -0.19407009, -0.12421101, 0.21051672, 0.041643657, -0.07124186, 0.023808073, 0.07013081, -0.041576687, -0.101590835, -0.03690473, -0.12857416, 0.009350626, 0.107609175, -0.042642195, -0.10317891, -0.2038591, 0.103205465, 0.1325901, -0.005901643, 0.09574182, -0.032939684, 0.04776541, -0.10187554, -0.05948295, 0.0011099989, 0.099953376, -0.036026653, 0.031678174, 0.09934396, -0.30472192, 0.17237122, -0.127763, 0.0643329, 0.18196435, 0.1366718, 0.15735792, 0.00473529, -0.12834364, 0.25389647, -0.11141408, 0.042370215, 0.012591396, 0.13907032, 0.0018690176, 0.06458556, 0.1209209, -0.06747383, -0.17212117, -0.043795466, 0.2649806, -0.25222492, 0.1346457, -0.1937089, 0.06355408, -0.12327949, 0.14660658, -0.27906638, -0.032094583, -0.042174175, 0.29538298, 0.05486191, -0.11858966, -0.027954081, -0.06475199, -0.007814349, 0.05235421, -0.06644031, 0.1458368, 0.024164418, 0.051036544, 0.1338852, 0.025110262, 0.12299256, 0.04589751, 0.027163578, -0.054285504, -0.020724991, 0.12453504, 0.22493254, 0.27344638, 0.021355862, 0.07810905, 0.017913627, 0.12297174, -0.19583823, -0.022859622, -0.0201035, 0.19349153, -0.049484633, -0.03971241, -0.12238077, 0.06537784, -0.03571394, -0.019251566, -0.12876505, -0.01895973, -0.1277977, 0.044432517, 0.012359026, -0.22190286, -0.3044456, -0.107465446, 0.09223333, 0.004381347, -0.13434257, -0.09434242, -0.06707338, 0.0275235, -0.030051013, -0.05936952, 0.09457377, 0.057605878, 0.043053914, 0.12050089, -0.14164868, -0.1692722, 0.0031739278, 0.002111891, 0.124822825, -0.09442176, 0.2347447, -0.0010510319, 0.03609607, -0.074881755, -0.129545, -0.12993555, -0.10204879, -0.20060277, -0.039639607, -0.13701063, -0.12584591, -0.07371746, -0.03132803, 0.019488242, 0.026189474, 0.1013488, -0.044134896, 0.08305379, -0.051483285, -0.02925381, -0.14785416, -0.08090102, 0.023937492, -0.028426157, -0.030113712, -0.19139731, -0.0065741655, -0.08608739, 0.039304268, 0.13657278, 0.06304417, 0.056647383, -0.065579146, -0.06609449, -0.43280825, 0.049344197, -0.062276613, 0.08006669, -0.10535065, -0.0008462579, 0.30349952, -0.17083655, 0.1533443, 0.0960421, -0.16038707, 0.03852163, -0.095890984, -0.044132262, 0.10858519, 0.20851785, -0.07251418, -0.07911056, 0.012105814, 0.085580036, -0.010013542, -0.06545729, -0.07893555, 0.021172892, -0.22581862, 0.1118277, -0.18277274, 0.10734508, 0.16904731, 0.067778856, -0.03249556, -0.009382561, 0.033217575, -0.054057542, -0.28719705, 0.084211946, -0.039400294, 0.050721727, -0.1070522, 0.21610925, 0.100876346, -0.226764, -0.25103527, 0.10421197, 0.08135663, 0.07954099, 0.12889011, -0.06441599, -0.07764624, 0.059944212, -0.0430964, 0.06352669, 0.04534755, 0.029176133, 0.025950303, 0.24425575, 0.17599031, -0.057094377, 0.11918198, -0.08244596, -0.03836303, 0.11377739, 0.0914232, 0.058336936, -0.048463814, -0.06505355, -0.054109037, 0.17424442, -0.10395747, -0.14193296, 0.37224603, -0.04242701, -0.08085776, -0.24975182, 0.0037622377, 0.057041835, 0.052191626, -0.07510169, -0.30609414, -0.41067386, 0.009971162, 0.35825628, -0.045791574, -0.118060745, -0.051166438, -0.06804901, -0.052883804, -0.014971174, -0.04691984, 0.07092653, 0.0043713297, -0.37979758, -0.17229222, 0.08510335, -0.09843463, 0.29286322, 0.040041823, -0.03613648, 0.30362567, -0.36070788, -0.08706679, 0.12521036, -0.19516015, 0.0067157475, -0.17574564, 0.0061286143, 0.22704999, 0.048819065, 0.12178613, -0.2465573, -0.13022995, 0.25033835, 0.12553623, 0.029464675, 0.089718446, -0.277007, 0.07441461, -0.00303482, -0.014696675, -0.18966116, 0.23033597, -0.04864887, 0.010882987, 0.17594668, 0.22189526, 0.0063885013, -0.013682735, 0.34912258, -0.3884057, -0.0104447715, -0.071530305, -0.02555291, 0.34670213, -0.2416649, -0.4338367, 0.13118948, 0.05439355, -0.07933681, 0.3792641, 0.083063304, -0.29316488, 0.012303863, 0.16338855, -0.10762034, 0.40873903, 0.067617424, 0.31827652, -0.073405966, 0.12467602, -0.014427172, -0.060123146, 0.18834439, -0.052002233, 0.32593164, 0.1699985, -0.06478428, -0.0011590295, -0.18774353, -0.12562174, -0.16257137, -0.41195878, 0.015552051, 0.3038128, -0.008761889, -0.32691568, 0.20055227, 0.066940844, -0.29326648, 0.271335, 0.088955894, -0.12234676, -0.1507328, 0.051525265, -0.3731561, 0.27818495, -0.2950385, 0.047995567, -0.16959628, -0.14251788, -0.20313428, 0.03120653, -0.23050895, -0.38963526, 0.044055626, -0.008844673, -0.09221308, -0.103840515, 0.0052839774, 0.16585557, 0.1418607, -0.050917286, -0.060535777, 0.054782413, 0.09702127, 0.118383154, -0.06990881, 0.105832495, 0.023241807, 0.21639128, 0.07731064, -0.107402496, -0.15966916, -0.04981154, 0.058339752, 0.17815612, 0.008716848, -0.066247776, -0.1411821, -0.101297, -0.15774146, -0.06637273, 0.0834753, 0.095906295, -0.059248433, 0.13252896, 0.08295432, -0.13699064, 0.038431328, 0.09836878, -0.07897283, -0.08981471, 0.1091107, 0.039228097, -0.16152504, -0.029644037, -0.13378185, -0.18703696, -0.10173195, -0.10279331, 0.016662475, 0.12198193, 0.05333949, 0.11733462, 0.14041977, 0.061078925, 0.08577014, 0.037174214, 0.05431676, 0.055817105, -0.078712866, -0.08282278, -0.016825851, -0.12409014, -0.06903885, -0.06352806, 0.10504315, 0.0740857, 0.0043768734, 0.107205845, 0.11492377, 0.044493586, 0.08986692, -0.19119392, -0.034314413, -0.06896416, 0.038360123, -0.04415789, -0.16345683, -0.033621255, -0.1543658, 0.052838705, -0.00024938874, 0.1161204, -0.13183255, 0.06575797, -0.05617518, -0.010173431, 0.09030128, 0.1138144, -0.13753754, 0.022624554, -0.008886333, -0.038234174, 0.0010023249, -0.21177839, -0.06508413, -0.029030839, 0.0975761, 0.016502907, 0.056006406, 0.13369612, 0.063736714, -0.094754785, 0.10985999, -0.13124412, -0.0411272, -0.06870574, -0.16395807, -0.00017600218, -0.14780498, -0.009011477, 0.1657391, 0.06776336, 0.1924802, -0.033303455, 0.04464538, 0.09344444, 0.06528988, -0.12005633, 0.09574729, 0.08393432, 0.060609322, 0.07818601, 0.10659899, 0.06345615, -0.18356025, -0.09089974, -0.12956756, 0.2098358, -0.10509001, -0.018915828, -0.07365707, -0.011514508, 0.12427472, -0.006430383, -0.13999245, -0.070291564, 0.02232962, -0.043818153, -0.103873454, 0.12750156, 0.07748484, 0.15936294, 0.07360721, 0.23348235, 0.026624357, 0.17042546, -0.15708141, -0.03280506, -0.030065848, -0.023831079, -0.20346417, 0.042270627, -0.27871108, -0.019804448, 0.1554302, 0.0020837772, 0.017053196, 0.06266536, -0.15913361, -0.052224755, 0.13266103, -0.095237434, 0.08600495, -0.032213148, 0.061767016, -0.19983082, -0.15095724, -0.15174901, 0.1345553, -0.03868803, 0.08733558, -0.01775591, 0.033485424, 0.07446988, -0.043671004, -0.07165973, -0.12747945, -0.11890264, -0.2552026, -0.13899934, -0.16501433, -0.06472654, 0.22305848, 0.10303686, 0.18426685, -0.024849396, 0.16052568, -0.20149167, -0.028347913, -0.0027071123, -0.030552503, 0.10356734, 0.08722782, -0.51463985, 0.12031599, -0.023973525, -0.098024264, 0.2119619, -0.063980326, 0.1284315, -0.09568986, 0.21499161, 0.1218238, 0.15635668, -0.17249735, -0.049796395, -0.06859169, 0.05948071, -0.0008818057, -0.03226494, 0.036433887, 0.100090325, -0.13714808, -0.13380907, -0.06448623, -0.1259879, 0.07853816, -0.07062987, 0.020183275, 0.14721625, -0.007413539, 0.04204014, -0.21053773, 0.07983896, -0.14998323, -0.20752758, -0.18574478, -0.077637, 0.03890466, 0.1021654, -0.13457821, -0.1229617, -0.22258668, 0.147371, 0.048926998, 0.09643219, -0.01751155, 0.04345619, 0.048019364, 0.04479725, -0.05475454, -0.08115619, 0.11198936, 0.09220191, -0.07959311, -0.16120705, 0.16590446, 0.0018056327, 0.08500835, 0.20503, -0.12941244, 0.15188147, -0.0909941, 0.08974023, 0.011183952, -0.050322756, 0.071787916, -0.07933344, -0.15864265, 0.13508286, -0.091189966, -0.044228766, 0.031916652, 0.10797506, 0.07470746, -0.11164757, 0.012606261, -0.26006582, 0.12949544, -0.020417068, 0.061854284, 0.12117486, 0.31549224, 0.11617629, -0.10999732, -0.061353866, -0.045521114, 0.016779236, 0.06443801, 0.07158024, 0.06250128, -0.061710455, 0.07674122, -0.031160604, -0.08155489, -0.009578672, 0.012261861, 0.004682736, 0.18750218, -0.17267516, -0.04009372, -0.1467811, -0.1653974, 0.012432908, -0.07390185, 0.10203961, -0.250639, -0.06940648, -0.008562962, -0.10707955, 0.09669781, -0.08014313, 0.032938443, 0.09800329, 0.055115175, -0.1072842, 0.167044, -0.3659385, 0.075903915, -0.14251879, -0.05177887, 0.11282413, -0.007558582, -0.12305899, -0.22734988, 0.14449866, -0.058360815, 0.124709964, -0.04100613, 0.035239495, -0.20346303, 0.25631374, 0.04522428, 0.18342142, -0.052935053, 0.15451555, -0.14631094, 0.11810904, 0.03313388, -0.009411051, -0.05561563, -0.06772529, 0.10719229, 0.02841494, -0.1393534, 0.05197778, 0.066840135, 0.13608757, -0.1468659, 0.04948591, 0.06508493, -0.08855093, -0.12509063, -0.114694715, -0.17294456, 0.12897128, -0.2032298, -0.13977467, -0.010923891, -0.022645136, -0.027649418, -0.04524484, 0.0067359847, 0.04644598, -0.22358072, 0.10494205, -0.025692249, -0.09716477, -0.0049127503, -0.049651366, -0.122837946, -0.07033672, 0.23359643, 0.05146549, -0.24059606, -0.20338918, -0.25612825, 0.046520986, 0.042591397, -0.024147749, -0.14760709, -0.029302051, 0.09446756, -0.08894288, 0.0073163332, -0.124231055, -0.06521608, 0.022319576, 0.001947111, 0.0030744195, 0.07007686, -0.15111814, -0.13075416, -0.05404494, -0.042567145, -0.049496684, -0.11546118, -0.10327402, -0.08200201, 0.10863209, -0.24350919, -0.024989842, -0.09541459, 0.044122163, -0.036531918, -0.13459505, 0.06670566, 0.11281599, -0.06309224, -0.09447587, 0.22533622, -0.06955117, 0.10060711, -0.14627957, -0.040088397, -0.0032435039, 0.012176039, 0.0070857694, 0.05906546, 0.0062316186, -0.019793604, -0.16592094, 0.013996584, 0.010045381, 0.13876244, 0.0647846, 0.05161836, 0.14365098, 0.1435888, -0.07666637, 0.04954515, -0.11856083, 0.117755264, -0.079257004, -0.08269097, -0.14867394, -0.20598295, -0.019248957, -0.12787788, 0.04075263, -0.042721327, -0.05156941, -0.024083145, -0.06194294, -0.034167156, -0.05070703, -0.009812873, 0.14803366, 0.07536495, 0.09470175, -0.09238305, -0.14666311, 0.011128244, -0.21878275, 0.15088198, -0.15055467, -0.12019177, 0.045438476, 0.11259987, 0.019844363, 0.014248719, 0.014065888, -0.1280343, -0.24041197, 0.02142684, -0.17353949, -0.1673304, 0.095354624, -0.05885802, 0.099144466, 0.06255537, -0.1705174, -0.09621418, 0.09711557, 0.11834255, -0.064840436, -0.09075438, 0.15992498, 0.18619147, 0.054019373, -0.14164278, -0.14627871, 0.18644324, -0.083806604, -0.02160564, -0.04500459, 0.24469805, 0.069229, -0.16466568, 0.055595655, -0.093066275, -0.09335542, -0.07128763, 0.003946049, 0.07870192, -0.03064786, 0.25237527, -0.08298326, 0.1295536, -0.0029617054, -0.14935938, 0.10931337, 0.042460557, 0.017106941, 0.05697568, -0.025391383, 0.118840046, 0.22658777, -0.14811103, 0.11826851, 0.02105128, 0.048889123, -0.113125436, -0.13299885, -0.08994199, -0.08792022, -0.08153825, -0.19512299, -0.09931553, -0.08886754, -0.053207226, 0.088370495, 0.29390442, 0.08000435, 0.08100628, -0.003701059, -0.07698869, 0.07710039, -0.07150126, -0.09071266, -0.08514245, -0.08501344, -0.20211321, 0.0030917649, -0.04814883, 0.11900615, 0.08766346, 0.08002206, -0.19799815, -0.109120935, 0.07716775, 0.0625514, 0.048223972, 0.07647086, -0.058835443, 0.15576844, -0.025012372, 0.12848304, 0.19513667, 0.12584418, 0.018999396, 0.0016506759, 0.09256176, -0.039261352, -0.07989457, 0.02772966, 0.112700775, 0.08546593, -0.13103448, -0.05275183, 0.11072799, -0.018562615, -0.10246928, -0.029113073, 0.18727498, -0.028274389, -0.093520805, -0.017806139, -0.009571908, 0.09027503, -0.02523641, 0.017859546, -0.005119001, 0.085597545, -0.12632939, 0.16953142, -0.009658795, 0.09465817, 0.11792022, -0.0951818, 0.06709638, -0.09222043, 0.16536808, 0.046896253, -0.07102455, -0.06187889, -0.08781733, 0.01044012, -0.083765976, 0.047213305, 0.077837564, -0.020177042, -0.085953586, -0.17067143, 0.061214373, 0.01785828, -0.12182473, 0.16045591, 0.026816119, -0.16785963, -0.09317306, 0.036016945, -0.0058035296, 0.06587913, 0.020387586, 0.008344042, 0.028219853, -0.081817485, -0.11530757, 0.09096818, -0.07353169, 0.04491466, -0.050177813, -0.055097695, -0.2477949, -0.056904074, -0.28739238, -0.07435284, -0.009230972, 0.109731995, 0.062936716, 0.058175668, 0.105207905, -0.060583252, -0.085693, 0.04919843, 0.10555874, 0.07329896, 0.024927577, 0.1737366, -0.13925475, -0.104126185, 0.045776375, 0.00017582081, -0.08681803, 0.108754985, -0.053294122, -0.12896149, -0.1450998, 0.002414456, -0.17676729, 0.08172879, -0.259375, -0.014555048, 0.22940621, 0.060640875, -0.118836515, 0.07440693, -0.09539405, -0.13179317, 0.09917896, -0.022940125, 0.020803273, 0.027118625, 0.073630795, -0.027384188, -0.011530732, -0.08621464, -0.06103702, -0.120564386, -0.012190461, 0.06812993, -0.13142341, 0.053754862, 0.076563016, 0.010879119, 0.2968396, 0.031328715, 0.012388373, -0.31792656, 0.03972304, -0.09412254, 0.15660512, -0.051946405, -0.18398848, -0.038174838, -0.023248788, 0.050803065, -0.04390858, 0.061696537, -0.12594378, -0.07264068, -0.13525964, 0.13163476, 0.014245874, -0.07741706, -0.22393401, 0.012621983, 0.14590147, -0.03133516, 0.067537285, -0.18703058, -0.009345681, -0.19604196, -0.0153219085, -0.03536178, 0.12633091, 0.05983356, -0.016463326, 0.08071885, 0.08118313, -0.0352944, -0.040371977, -0.4050012, 0.009691105, -0.2934371, 0.0061705965, 0.05397361, -0.10395143, 0.06801102, -0.047633924, -0.1257181, -0.15176477, 0.12176113, 0.11267261, -0.045201037, 0.08223473, 0.23342657, 0.07986183, 0.13145548, 0.023808662, 0.04088817, 0.13712172, -0.09161379, 0.1461859, -0.08116673, 0.23751149, 0.1474063, 0.02511566, -0.08898576, -0.13344447, 0.1342485, 0.008630658, -0.0009612783, 0.037093714, 0.006672605, -0.08423326, -0.06456842, 0.14645976, 0.11987005, 0.08141077, -0.03584871, -0.06754397, -0.14520246, -0.00180487, -0.09390127, -0.21459204, -0.11981483, -0.014519922, -0.09278282, 0.14414312, -0.018411087, -0.077886365, 0.007044458, -0.05926861, -0.015778357, -0.081248686, 0.050773002, 0.10406247, -0.016829807, 0.051786553, -0.008064988, 0.045007683, 0.12766987, 0.07177704, 0.0255014, -0.08835615, 0.030728472, 0.1490603, -0.106798135, 0.17657864, 0.013332103, -0.022015583, -0.16702141, 0.032571852, 0.07102206, 0.06401345, -0.104222246, 0.2103132, -0.06087539, -0.16242234, -0.2567171, 0.015714608, 0.098304816, 0.09610634, -0.15304722, 0.011520207, -0.020771671, -0.1662072, -0.07722711, -0.06740315, -0.1304724, -0.07572362, -0.020803588, 0.10330665, 0.08528101, -0.04833641, -0.010858927, -0.012281867, -0.07779095, -0.11877718, -0.19317906, 0.022917254, 0.09438957, 0.09374341, 0.12203876, 0.14989421, 0.033971783, 0.0767454, 0.12359965, -0.07207644, 0.07680685, 0.017565005, 0.10127089, -0.0012821804, -0.02914049, 0.083299905, 0.059843753, -0.12155274, 0.03244199, 0.13663322, -0.17245178, -0.010446487, -0.17498234, -0.123564355, -0.17996393, 0.033626296, 0.06409911, -0.13052279, 0.034496482, -0.060408242, -0.13456753, 0.05587763, -0.005090299, 0.107588954, -0.073806494, 0.020172697, 0.1101965, -0.07953404, 0.06644616, -0.019722017, 0.077869, 0.046547163, -0.12196153, -0.17125434, 0.027489353, 0.20948002, 0.18926075, 0.012668934, -0.023724303, -0.105644464, -0.061043214, -0.10669326, -0.010289522, -0.1401959, -0.10952499, -0.22934628, 0.011951929, -0.0005580309, 0.05841182, 0.05336635, 0.09156108, -0.097799145, -0.1689822, 0.022725519, -0.0641307, 0.044998333, -0.039068438, -0.037172563, 0.20829962, 0.00923138, 0.009919733, -0.12388948, 0.090799674, 0.09244094, -0.08079195, -0.07776106, -0.19907092, 0.20376147, -0.09252305, -0.015118173, 0.113530405, -0.06497198, -0.112083405, -0.1675836, 0.03887818, 0.069714144, 0.06311066, -0.031102398, 0.008893015, 0.04286375, -0.008026068, 0.02589058, -0.0031510054, 0.016242791, -0.011969757, -0.12178201, -0.027196776, 0.09311261, -0.16058795, 0.008256845, 0.057744734, 0.034823295, 0.092270695, 0.057368446, 0.08757224, -0.037491675, 0.034686256, 0.01769335, 0.01168549, 0.18930086, -0.07374195, 0.21921034, 0.09170028, -0.119828895, -0.016117679, -0.034703203, -0.09883883, 0.013588013, -0.20498747, -0.021961324, -0.12837967, 0.027173424, 0.00038320932, 0.0133738555, 0.085762024, -0.10819702, 0.040105447, -0.08806635, 0.06356652, -0.073983155, -0.024550114, -0.027623137, -0.072825514, 0.063100465, 0.040574398, -0.18458, 0.044768058, -0.00423855, 0.05736604, -0.12595607, -0.19047138, -0.110864386, -0.13483313, -0.098076284, 0.011615794, -0.014777062, 0.055115297, 0.03514726, 0.027037261, 0.07950594, -0.16512874, 0.03579037, -0.14259197, 0.038754668, 0.03278694, -0.07860558, 0.14643987, -0.13350043, 0.1479808, 0.07277068, 0.030084448, -0.05579081, -0.20250389, -0.009066172, 0.15284477, 0.07033729, 0.030914847, -0.11093759, -0.13563381, -0.06374297, 0.1402192, 0.13700779, 0.08997074, -0.19836581, -0.08392929, 0.03338159, 0.2342639, 0.09698825, -0.15562859, -0.14123702, 0.0510491, 0.0469726, 0.12346775, 0.063479364, -0.02341472, 0.3429111, 0.114626266, 0.21045749, -0.0133986, 0.17512845, 0.33104914, -0.0596584, -0.14317462, -0.113308705, 0.07185429, -0.16222215, 0.009660318, -0.1556123, 0.07906153, -0.15448333, 0.056978673, 0.0042406847, 0.24497813, 0.16437222, 0.000321843, 0.018300662, 0.061318144, -0.13959327, 0.011951411, -0.0416265, 0.096862815, -0.15801586, 0.06745751, 0.081443526, -0.111013174, -0.13115239, -0.096077695, 0.018012121, 0.021294482, -0.05709487, -0.03986605, -0.029690903, -0.029728355, 0.1354521, -0.04520414, 0.17519085, 0.0051347264, -0.045234445, -0.38495502, -0.21274373, -0.01664896, -0.04647628, -0.048295286, 0.10978984, -0.053182073, 0.18074909, 0.07511998, 0.06104551, -0.05389394, 0.108271234, -0.03923951, 0.11979304, -0.36043873, 0.20376994, 0.24772671, -0.016739776, 0.12934121, -0.05549968, -0.031136217, -0.14258872, -0.18871237, 0.017863126, -0.008513927, 0.20045409, -0.24651825, -0.056504298, 0.14254381, 0.024699174, -0.12593505, 0.23236082, -0.16968751, 0.11355603, -0.1751687, 0.14237492, -0.2655855, 0.22094236, -0.03529625, -0.117955185, -0.010665677, -0.088858694, -0.16475493, -0.10822351, 0.038330648, -0.059087697, -0.10048846, 0.23933128, -0.29664502, 0.11883336, 0.06305127, -0.06781646, 0.0032964565, 0.039109193, 0.080996685, 0.15869132, -0.0061098356, -0.105767906, 0.035674345, 0.17371443, 0.07809776, 0.06388551, 0.14482759, 0.1295289, 0.19499043, -0.09910953, 0.102088965, 0.096278735, 0.015779547, -0.12197106, 0.1897485, 0.0084127495, -0.08102162, -0.011062329, -0.07893466, 0.013943482, -0.03446524, 0.03469694, 0.25178698, 0.0886361, 0.022397831, -0.05161097, 0.02624803, -0.0029659893, -0.025698291, 0.114048935, 0.090372816, -0.04059548, -0.18656082, 0.055879246, 0.0767616, 0.012727552, 0.14057203, -0.030445186, 0.052212503, -0.1875596, 0.030401243, -0.11615517, 0.05928231, 0.03759338, -0.03900432, -0.08878825, 0.07385121, -0.0043880716, -0.07166401, 0.101383775, -0.041318774, -0.06941249, -0.08860996, 0.0052958415, 0.16636541, 0.030496832, 0.19397694, 0.037169546, -0.06129676, 0.010635825, 0.114916585, -0.026321648, -0.0048806136, 0.17803985, 0.09147521, 0.2839151, -0.041815493, -0.07180924, -0.02007882, -0.2927854, 0.019522987, -0.07574995, -0.13221335, -0.05217623, 0.034310363, 0.03762261, -0.023131855, -0.12137905, 0.047498118, -0.065563, -0.14231066, -0.06507923, -0.21371447, 0.062696025, 0.028346932, 0.10145819, -0.3241705, 0.05452515, -0.2024048, 0.16756225, 0.08412663, -0.11683276, -0.26407358, 0.08476509, -0.024617568, -0.1470683, -0.0055205175, -0.030895429, 0.111288294, 0.1467905, 0.17763567, -0.095452204, -0.033618167, -0.0111033, -0.16038632, -0.14645608, -0.063225135, -0.055231053, -0.075495824, 0.08851926, -0.025874998, -0.0020010627, 0.09240952, -0.03982536, -0.2374726, -0.013458074, 0.10969725, 0.1318179, -0.027521834, 0.30279607, -0.10663267, 0.26639137, 0.0629429, -0.10667166, -0.034981634, -0.25702393, 0.09976996, -0.07120039, 0.17879745, 0.09834707, 0.17764929, 0.11080935, -0.2677755, -0.26250935, 0.26559713, 0.013916806, -0.26041195, -0.24536543, -0.08544145, -0.051500157, -0.11209968, -0.007615026, -0.27373463, -0.24109626, 0.19518836, 0.075559676, -0.106299005, -0.026113112, -0.26590753, -0.120788515, -0.20490256, 0.017213743, 0.046539925, 0.018468667, -0.2648238, -0.07289841, -0.07772275, 0.103268914, -0.24582492, 0.29489836, -0.07377672, -0.052475836, 0.1938575, -0.40319437, -0.032790154, 0.119021446, -0.1415147, 0.18669932, -0.15413629, 0.17116402, 0.027306195, -0.07661412, -0.021076072, -0.124822386, 0.019640177, 0.103582054, 0.05742961, 0.1079386, 0.048949465, -0.16421023, -0.04353387, -0.29519084, 0.16270646, -0.109480344, 0.35427287, -0.005197241, 0.10658914, -0.041357238, 0.28507525, -0.12016452, 0.12002517, 0.32653213, -0.052136015, 0.022058232, 0.1290939, 0.01881831, 0.23128724, -0.066836424, -0.33675656, -0.030897269, 0.13445939, 0.08938991, 0.20048323, 0.14018965, -0.23408408, 0.1462958, 0.07774992, 0.012364161, 0.12016573, 0.35244194, 0.21758592, -0.15759534, 0.053876612, -0.03766012, -0.06654709, 0.08499925, -0.001254007, 0.17139503, 0.24830054, 0.0869104, 0.25333866, -0.32281008, -0.002119392, 0.0017537528, -0.21722232, 0.011245294, 0.2590951, 0.1082959, -0.09787674, 0.09176472, -0.13222764, -0.19693358, 0.1998007, 0.3160972, -0.20307407, -0.31543624, 0.08192813, 0.00076769665, 0.050145276, -0.19055553, 0.08217142, -0.23193523, 0.010400632, 0.034197737, -0.12033883, -0.2536155, -0.2177719, -0.059167814, 0.11151516, -0.055305585, 0.03579063, -0.03671422, -0.018725215, 0.1863069, -0.042463403, -0.09741457, 0.104906075, 0.18348056, -0.0741213, -0.060935196, -0.13051021, -0.04151164, -0.072835095, 0.19595014, 0.063871555, -0.046472408, -0.07557163, 0.024949688, -0.08484546, 0.03815819, -0.12192622, -0.056208443, -0.09071075, 0.14930582, -0.02718716, -0.09395844, 0.029900983, 0.03640874, 0.018741887, -0.11182254, -0.047768474, 0.09773216, 0.021006456, 0.06570802, -0.047646284, 0.036121696, 0.1740753, 0.05248277, -0.14469667, 0.02928868, -0.26980522, 0.019253856, -0.039110735, 0.14619486, 0.014413727, -0.0022801205, -0.20153055, -0.09717435, -0.04063478, -0.059554655, -0.21778755, 0.17983824, -0.08689485, -0.0367629, -0.075940706, 0.14937887, 0.02105599, -0.0022363097, -0.0036150848, -0.13980462, -0.054204386, -0.18639822, 0.02277981, -0.008247605, 0.10113737, 0.11714582, -0.12282319, 0.008161575, 0.032735854, 0.06994436, -0.032347508, 0.019143458, -0.06420104, 0.12151315, -0.0048631607, 0.03571823, -0.18849623, 0.124003194, -0.007885306, 0.03406152, -0.080386244, 0.027863814, 0.113004774, -0.09376249, 0.013589205, -0.010533816, 0.043948416, -0.13968515, -0.11700304, 0.09258234, -0.15071002, 0.11639528, -0.06930759, 0.121057905, 0.1698214, -0.0299655, 0.04976113, 0.01804186, 0.10116082, 0.06587827, -0.06550932, 0.022810508, -0.06899585, 0.106580935, -0.09773422, 0.057957064, 0.059262108, 0.2362084, 0.0077761835, 0.029088264, 0.10140326, 0.11935076, 0.09427489, 0.14020798, -0.14588083, 0.12280942, 0.067406446, 0.09193584, 0.22958574, 0.014016653, -0.014764492, -0.074484475, -0.0941703, -0.072737515, 0.030295521, -0.05031813, -0.09158676, 0.016189404, -0.030634271, 0.032499745, 0.07163454, 0.028960656, -0.05985727, -0.09364783, -0.0044328407, 0.2081282, 0.13418818, -0.09330517, -0.17912455, 0.03892886, 0.04382485, -0.08136548, 0.14471844, -0.071386516, 0.074042946, -0.06784049, 0.1320074, 0.098480605, -0.04174258, 0.073266834, -0.109122135, 0.013394176, -0.1303051, -0.20543297, -0.066733025, 0.0073617212, -0.044273756, -0.057080533, 0.030192379, -0.044337142, 0.009874233, 0.10362418, -0.08383561, -0.13569582, -0.023146346, 0.04387948, 0.22509336, 0.05618306, 0.000107001164, -0.012135377, 0.056674123, 0.02747892, 0.0051072836, 0.15221234, -0.017979199, -0.07569932, -0.079027236, -0.12534134, -0.098246805, 0.1491152, -0.12181593, 0.25172994, 0.07225983, -0.029003069, 0.098366044, 0.023240395, 0.17497328, -0.09245566, -0.1221497, 0.027429955, 0.18939832, -0.1100792, 0.08091489, -0.039280966, -0.016659046, 0.21677773, -0.092929766, -0.0997492, 0.071819924, 0.00853249, 0.016171942, -0.15564643, -0.23158383, -0.08639659, 0.07490644, 0.00064657885, 0.1027827, 0.13410026, 0.03516895, -0.08629744, -0.029020678, -0.09612538, -0.012576547, -0.15640393, 0.06631376, 0.01971933, 0.11036552, 0.25505024, -0.10390077, 0.12523097, -0.16790256, -0.10355555, -0.074560046, 0.05970824, -0.018289126, -0.06779263, -0.03027084, -0.046825033, 0.1011442, -0.0061905244, -0.10613965, -0.17695272, 0.041220296, 0.02838031, -0.021675099, 0.0068306453, -0.098443024, 0.14866978, 0.23841237, -0.07076176, -0.07326544, 0.081245795, 0.07716347, -0.05062355, 0.2769235, 0.05734689, -0.13777433, -0.26493, -0.09413747, -0.0658883, 0.049658947, 0.10572107, -0.14205138, 0.16410613, 0.008385096, -0.1438413, 0.017508198, -0.1260963, 0.012145217, 0.017076412, -0.25005493, -0.11386811, 0.02848859, -0.18016559, 0.09528067, -0.039821062, 0.102717206, 0.08207359, -0.04923141, -0.20117535, 0.03883691, 0.052144304, 0.18795963, 0.29926562, -0.004083749, 0.043799322, 0.17401741, -0.09470814, -0.043008722, -0.15409952, -0.046187002, -0.06889937, 0.10180193, 0.008622858, 0.21944767, -0.024983414, 0.112443276, 0.08121462, 0.002706098, -0.16223007, 0.16709073, 0.0081297, 0.048681945, 0.060704768, 0.080894426, 0.21063536, 0.07224662, -0.09715674, 0.08780002, -0.2518794, -0.031610664, 0.0774514, -0.14359075, -0.035679363, -0.2026175, 0.12665766, -0.1228881, -0.2765753, 0.16035937, 0.17621742, -0.23790896, -0.24393336, -0.024501165, -0.09158024, -0.06930144, 0.024253398, -0.22598255, 0.0010608822, -0.12674488, 0.048370883, -0.0679332, -0.257076, -0.06694333, 0.08895918, 0.12088524, -0.15906432, -0.17869005, 0.055688303, 0.18517861, 0.16474044, -0.022650713, -0.01639805, 0.017687298, -0.009469877, -0.12721768, 0.09041505, -0.10982669, -0.079028286, 0.23346291, 0.30819446, 0.11678115, -0.038565364, -0.06581416, -0.23452699, 0.052501507, -0.07218823, -0.03047119, 0.010926455, -0.08462044, 0.024476774, -0.038650014, 0.029505014, -0.09427866, -0.17296948, 0.010224468, -0.13241453, -0.13753536, 0.0071727573, 0.00035002897, -0.18027155, -0.0039834636, -0.27527744, -0.08851446, 0.12326888, -0.23611912, -0.14713234, 0.02216159, 0.1143258, -0.014502425, -0.090257704, -0.13340206, 0.12855066, -0.0071986066, -0.06707915, 0.07677485, -0.056500115, 0.08854161, -0.18189687, -0.02839933, -0.0010851515, 0.13445313, -0.038240794, -0.008516375, -0.11441261, 0.09979466, 0.05193114, 0.1569279, -0.2643864, 0.17206259, 0.13416868, -0.040613793, 0.0756102, -0.011746349, 0.11652162, 0.061887383, 0.059786167, 0.043415423, 0.14003801, -0.043602854, -0.070561096, -0.11519863, -0.08353617, -0.02340347, 0.034659903, 0.01517549, -0.0159202, 0.0057644728, 0.0026239592, 0.10917386, 0.27504689, 0.10680644, 0.08604863, 0.050081242, -0.2626699, 0.013814454, -0.13237321, -0.12895188, -0.0023748998, 0.12646222, 0.005000009, -0.080743775, -0.03891581, 0.14881405, 0.009674395, -0.093159035, 0.07928619, -0.10972323, 0.045757394, 0.10281945, -0.02354924, -0.038754933, -0.037153065, -0.20350401, 0.10256336, -0.04202997, 0.14365034, -0.19612849, -0.18291508, -0.18134525, 0.015595687, -0.06528307, 0.25158927, -0.0040370966, 0.0032167956, 0.10306035, 0.010646207, 0.042385533, -0.07450738, -0.3796636, 0.09603633, -0.12756874, 0.034998816, 0.07598654, -0.12043004, -0.084332146, -0.11127574, -0.02503666, 0.015225204, 0.016662555, 0.025881402, 0.12500124, 0.14736097, 0.13018034, 0.15990289, -0.16723898, 0.054831076, 0.05940418, 0.24424443, -0.11799342, 0.013005403, -0.08045651, 0.128836, 0.05542354, -0.23140764, -0.17842469, 0.08466726, -0.06533259, -0.07019056, 0.3985164, -0.14576064, 0.31076214, 0.13484587, -0.0004692565, -0.28748906, 0.38146615, 0.06396038, 0.08873075, -0.45398942, -0.06276666, -0.040221002, 0.071840934, 0.062090687, 0.08364446, -0.23138733, 0.1421122, 0.026958596, 0.26919174, -0.075810365, 0.006225844, 0.1037477, -0.3202513, 0.040760335, -0.3476992, 0.07679959, 0.2659334, -0.18468766, 0.18247168, 0.30350792, -0.036069296, 0.066169746, -0.006844347, -0.011264059, 0.06794673, -0.108793505, -0.1250873, 0.014512859, 0.07621191, 0.063512266, -0.009545906, 0.2745141, 0.22809486, -0.08200425, -0.051637325, 0.1094498, -0.1392424, 0.10245101, 0.002280029, 0.13024406, -0.098279946, 0.06133308, 0.23788661, -0.046592627, -0.073316805, 0.027556488, 0.19686113, 0.14975362, 0.21185902, -0.13003235, 0.13308333, -0.07050211, 0.064454086, 0.1693088, -0.46903694, -0.099482544, 0.06326496, -0.049036108, 0.2692111, -0.1811967, 0.025806729, -0.03382221, -0.051258374, -0.13139218, -0.050292864, -0.024159089, -0.359233, -0.041167468, 0.025162317, -0.09479609, 0.17012456, 0.12679173, 0.089578345, -0.5045702, 0.20804797, 0.03844309, 0.0059541794, -0.023458298, -0.14119917, 0.28415272, 0.31277955, 0.0029211473, 0.27550718, -0.25303143, 0.10583408, -0.18313581, -0.12669742, 0.15703835, 0.192954, -0.1744463, -0.20538862, 0.14757419, 0.058712468, -0.36158058, 0.4163393, 0.098198526, -0.14165226, -0.11194111, -0.089981, -0.012662526, 0.08750113, 0.056252692, -0.022350691, 0.027311485, 0.06566359, -0.2698209, -0.043074112, -0.17714006, -0.288714, -0.08058353, 0.010302618, -0.13569883, -0.06397631, -0.18587138, -0.06164189, 0.10704753, 0.11300209, -0.102818646, 0.052444305, 0.114728615, 0.10690412, -0.04448616, 0.049046185, -0.057247896, 0.088939406, 0.061565414, -0.0057017556, -0.07999873, -0.09526524, -0.05254895, -0.104964145, 0.07701886, -0.03740269, -0.07567915, -0.027699202, -0.22394983, 0.11296462, 0.0039662463, -0.005351545, -0.07810163, 0.105720356, -0.018105198, 0.02503425, -0.00077746465, -0.076560736, -0.05281924, -0.03086093, 0.05864878, -0.003685236, -0.21361955, -0.1289548, -0.08073342, -0.21682125, -0.13710275, -0.059916593, -0.21684651, -0.038984325, 0.037977908, 0.08855683, -0.03738589, 0.003475763, -0.059394453, 0.14853446, 0.020366222, 0.13838175, -0.059286054, -0.006301525, 0.025115047, -0.041972958, 0.047971647, 0.04039229, 0.03118423, 0.0065879864, -0.07628542, 0.03270155, -0.029795842, 0.13663523, 0.08878142, -0.006757823, 0.04392655, 0.043851756, 0.107344076, -0.09266152, 0.017718539, -0.07342547, 0.094461404, 0.042024523, 0.16140872, -0.19290873, 0.048511267, 0.027725052, -0.02148533, 0.091895364, 0.11439179, -0.0041540596, 0.10269959, -0.05739519, -0.1723378, -0.054765116, -0.15645099, -0.07772246, -0.0060755275, -0.02695356, 0.044519477, -0.00906042, -0.039414957, 0.02990144, -0.06071774, 0.021322945, -0.0036256714, 0.11569542, -0.009346512, -0.034709286, 0.030348504, 0.012365036, -0.041431416, -0.013271224, 0.056795254, -0.026018841, 0.028983956, -0.06669871, -0.0071662017, -0.06235003, -0.005321263, 0.046093468, -0.055642627, -0.1378619, 0.11266907, 0.0803675, -0.006979298, 0.102438815, 0.093241505, 0.035466194, 0.063378304, -0.0067356923, 0.13396819, 0.017479077, 0.06783862, 0.05114342, 0.039702114, 0.0660467, -0.130156, -0.083998784, 0.075873405, 0.07969399, -0.13928337, -0.04108423, -0.025907429, 0.1385456, 0.03362802, -0.12559584, -0.06965599, 0.08955804, 0.025166104, 0.14692387, -0.060897138, 0.1142481, -0.09509431, 0.08498179, 0.06141384, 0.020173779, -0.07089418, -0.11048876, 0.036497053, 0.048022095, 0.0067580612, 0.05671334, 0.08171633, -0.14093374, -0.12383557, -0.17228457, -0.13507812, -0.14131963, 0.04054146, -0.087020546, -0.010783699, -0.041022588, -0.0023316375, 0.040414773, 0.06765132, 0.025461132, 0.08360883, -0.00060647004, 0.15453544, 0.014812699, -0.008188259, 0.059203655, 0.073286854, -0.027461382, 0.09242605, 0.1275495, 0.19973207, -0.025633799, 0.10467385, -0.037943166, 0.049891714, -0.06061257, -0.13421103, 0.14627378, 0.10223633, -0.2596595, -0.15359505, 0.17595515, -0.11857282, 0.0978661, -0.20618603, -0.10798363, -0.04245673, -0.0026139342, -0.123373255, -0.03840087, -0.1426103, 0.09858619, -0.10391184, -0.09496368, -0.080691725, -0.045725748, -0.11819249, -0.003372135, 0.08804368, 0.010512653, -0.19500037, 0.06591999, -0.008310333, 0.10401414, -0.16427428, 0.161582, 0.0548798, 0.1924805, -0.09947518, -0.11629295, -0.009910829, 0.080359556, -0.19116676, -0.1216771, -0.08197344, -0.16132328, 0.078870505, 0.020768499, -0.018215075, 0.108833924, -0.07180668, -0.08434766, -0.053695, -0.040385447, -0.042091213, 0.05553321, 0.11270945, -0.060887486, -0.032822225, -0.025788326, 0.0054395753, 0.14698853, 0.1401124, 0.016993867, 0.039598186, 0.13363287, 0.039631933, 0.07059125, 0.08244569, -0.053517316, 0.028641904, -0.11108752, 0.07813842, 0.14528503, 0.09432291, -0.002545436, -0.13669801, 0.08170259, 0.015116764, 0.16576985, 0.031324025, 0.01324454, 0.017586084, -0.12432175, 0.21333851, -0.097393, 0.08919368, 0.049933817, 0.114298046, -0.11432507, -0.054885406, -0.011513994, -0.08398554, 0.06786407, 0.1538331, -0.094739325, -0.03394154, -0.09496796, -0.029200483, -0.10309809, 0.05778268, 0.03729287, -0.105050035, 0.0043324567, 0.02225264, -0.12891358, -0.11626207, -0.060445547, -0.10106539, -0.10948613, -0.0570239, -0.043879926, -0.17577696, -0.095554195, 0.05006291, -0.014058538, 0.065151714, -0.15230031, -0.0887468, -0.14007206, 0.0045061647, 0.21594524, -0.014779751, -0.038902674, 0.12105928, 0.15221123, -0.2016199, -0.20883875, 0.13402922, -0.037133932, -0.037556097, 0.0042827856, 0.12719494, -0.13048539, -0.21243335, 0.0065029324, -0.13549566, 0.15331392, -0.09386412, 0.059149202, -0.13439521, 0.029511595, -0.01567537, -0.14334098, 0.094535194, -0.0452813, -0.05217882, -0.009037238, 0.014672526, 0.08816804, -0.15286785, 0.063264474, -0.04882598, 0.07066614, -0.03911733, 0.13879558, -0.047013316, -0.021516316, -0.14856273, -0.21795538, -0.13544267, 0.051491704, -0.06404976, -0.04399316, -0.05485221, 0.056705818, 0.07451191, -0.07355579, 0.0051746713, 0.027695665, 0.124235705, 0.03608011, -0.044223823, 0.033028588, 0.07842567, 0.026358414, 0.16162485, 0.053370565, -0.050433427, 0.07489778, -0.12744844, -0.094417416, -0.0037786416, 0.059574626, 0.1422728, -0.04087335, -0.052650273, -0.060322303, 0.11106234, 0.014026831, -0.058455717, -0.009591233, -0.004800565, 0.0040037045, -0.004945526, -0.010191573, 0.04219228, 0.025355034, -0.03476316, 0.007083244, -0.045650017, 0.114472434, 0.08433912, -0.1337705, -0.13238874, 0.024248175, 0.040467616, 0.0716774, -0.18478754, -0.080450624, -0.01582511, 0.05124626, 0.050762065, 0.0679148, 0.08984899, 0.0069448925, -0.008388353, 0.020652954, 0.13487166, -0.08162871, -0.08393845, -0.06908539, -0.16281156, -0.13508867, 0.09624565, 0.01680245, -0.07973343, -0.11909116, -0.14681531, -0.17420305, -0.008293973, -0.050633416, 0.11313354, -0.21727075, -0.0325999, -0.36202282, -0.052455973, 0.018527275, 0.12680368, -0.044725142, 0.013092455, 0.09482192, 0.025210252, 0.01577494, 0.012200771, -0.1625753, -0.0740713, -0.053683158, 0.097510345, -0.039961178, -0.06154684, 0.058632765, -0.14968613, 0.13320982, 0.05868996, 0.19704674, 0.014382484, -0.08851397, 0.15419555, -0.041091762, -0.08391379, -0.21049625, -0.020563439, 0.005384113, -0.121277876, -0.023426725, -0.057395723, -0.022514286, -0.02445352, 0.016044216, 0.022171186, -0.03741873, 0.07690318, 0.19623068, -0.13319953, -0.07971592, -0.16211925, -0.22754353, -0.027697496, -0.089397594, 0.029688414, 0.107995614, -0.05663559, -0.045233704, -0.11921988, 0.10617952, -0.019914526, -0.13146555, -0.0031112963, -0.14521182, 0.108053066, -0.11505608, 0.21891819, -0.021787878, 0.10515577, -0.028973239, 0.10537345, 0.2095678, -0.030816035, 0.015404, -0.24057406, 0.13909455, 0.03342683, 0.03877347, 0.069095, 0.09051117, -0.054649543, -0.087627836, -0.011104526, 0.05884331, 0.0069244904, -0.004930223, -0.05405918, 0.0041396697, -0.024370363, 0.124387175, -0.06923117, -0.060018644, 0.02676345, -0.036593888, -0.13895112, 0.052757986, 0.006784241, 0.037314635, 0.10365835, -0.052461587, -0.11163994, -0.005466389, 0.022820273, 0.032511503, -0.19732611, -0.065780975, 0.10541628, 0.055306196, -0.0051413258, -0.09763653, 0.045438115, -0.07423398, -0.08135531, 0.016085489, -0.19004034, -0.03327058, -0.15277334, -0.15387052, 0.057946153, -0.09467505, 0.09768292, 0.017787587, 0.012922036, 0.020552965, 0.009882616, 0.11395719, -0.025479613, 0.032456025, 0.029353365, 0.09111634, 0.022269748, 0.046375915, 0.06263512, 0.1234567, -0.116485454, -0.0041758846, -0.097434655, -0.050290424, -0.062937655, -0.12015506, 0.06453373, 0.00036769226, -0.121058084, 0.006066565, 0.15233351, -0.17616498, -0.11402021, -0.06849035, -0.15576133, 0.03994817, -0.106024705, 0.05037009, 0.0030475173, -0.020532146, -0.0025412743, 0.17422101, -0.083867, -0.010912405, -0.121775374, 0.015947089, -0.081983626, -0.062235896, -0.070135504, 0.17039573, 0.13286768, 0.09175244, -0.10455834, -0.022487238, -0.15808591, -0.11488834, 0.058228362, -0.12351151, -0.016600199, -0.082067035, 0.13084711, -0.107421026, 0.08001777, 0.14537011, -0.15833469, 0.053227894, -0.09428473, 0.0039162817, 0.052278798, 0.028220477, 0.15062225, 0.10971443, -0.006126758, 0.15629388, -0.06067328, -0.01648511, -0.20002241, 0.09126795, -0.051030554, -0.025526034, -0.14252397, -0.21079877, -0.13359936, -0.029719409, 0.108872116, -0.15355094, -0.0017205898, 0.13498655, -0.0007079999, 0.04658835, -0.17611349, -0.11393862, 0.16511203, 0.056711335, 0.17365324, 0.110424735, 0.14143282, -0.07688536, -0.04154577, -0.08701727, 0.016962526, 0.14300758, -0.0051335585, 0.06852446, -0.06824726, 0.13364363, -0.08998849, 0.14656281, -0.22013175, -0.06129094, 0.20593841, 0.003669941, -0.11973355, 0.14017096, -0.04143461, -0.108490996, 0.23616676, 0.07177876, -0.026667688, -0.06334867, -0.077880934, -0.14429656, 0.03988301, -0.031705037, 0.14980406, 0.008770426, -0.039422616, 0.045703813, -0.17933196, -0.08782751, 0.1139739, -0.1405025, 0.036977455, -0.04533647, -0.032738805, -0.3355854, -0.042114086, 0.012554578, 0.06400434, 0.12920174, 0.114667974, -0.025107224, -0.04052325, -0.12538551, -0.09520645, 0.057530366, -0.120102055, -0.21290898, 0.09315965, 0.046940424, 0.16451763, 0.15822595, -0.06531408, 0.07183437, -0.0065737804, 0.096024886, 0.0069856984, -0.17174861, -0.060472142, -0.09153343, -0.008957495, 0.10376387, 0.017077811, -0.10174008, -0.019380178, -0.09047015, 0.116192326, -0.099212304, -0.21155751, -0.29827148, 0.046289098, -0.09149388, 0.08362122, 0.22750156, 0.012421275, 0.0049695326, -0.08383313, -0.17752017, -0.06583167, -0.101594, 0.12649104, 0.015845798, -0.022919724, -0.062458754, -0.0014277707, -0.02579744, 0.11500105, -0.016481189, 0.040298093, -0.009538702, 0.047811773, 0.07896902, 0.15741168, 0.02990442, -0.09369473, 0.07044233, 0.17552048, -0.0035308427, 0.025437234, 0.10159907, 0.14569128, -0.017629778, -0.12546611, -0.12767261, 0.0793816, 0.12181357, -0.12729035, -0.06505519, 0.1337249, 0.042393092, -0.04958555, -0.103745185, 0.03168613, -0.13194081, 0.0795857, 0.04569816, -0.036348682, 0.15441647, -0.119356394, 0.02227657, 0.096043915, -0.13703309, -0.102385126, -0.045617633, -0.14129958, -0.048286818, 0.094049625, -0.041929044, -0.08161264, -0.0764616, 0.18176027, -0.036587033, -0.022385841, 0.1790414, -0.111146584, 0.048012, 0.16918221, -0.052710056, -0.010337529, 0.06745226, 0.17490989, 0.02292063, 0.055833664, 0.013491489, 0.10865787, -0.041542787, -0.05145427, -0.11040454, -0.07938325, 0.113978684, 0.09711228, 0.040718384, 0.07439996, -0.20013765, 0.01150789, -0.113856435, -0.04743633, 0.12156405, -0.08185121, 0.07107244, -0.04428117, 0.1630679, -0.035713207, -0.009717587, -0.040913578, 0.12834746, -0.059880786, -0.17997955, -0.07590967, 0.008597503, 0.04683694, 0.18660864, -0.1669298, 0.007413444, 0.04736338, 0.14333257, 0.029657707, -0.1351199, 0.052896768, 0.16321574, 0.0025421167, 0.058601115, -0.007603162, 0.07161546, -0.015729267, -0.06322041, 0.15721656, 0.029176734, 0.08824944, -0.19597217, -0.0075996537, 0.006150717, 0.09124903, 0.1608489, -0.08322023, 0.008775567, 0.054597113, 0.038708303, -0.0695, 0.20903865, -0.04986092, -0.2353456, -0.032691766, -0.10360644, -0.010112817, 0.08069008, -0.117784075, -0.028866565, 0.06443281, -0.13355741, -0.021282341, -0.03490484, 0.029651333, -0.047146525, 0.005712451, -0.14031109, 0.037445772, -0.040377118, -0.09980102, 0.0203374, -0.08199929, -0.07533227, -0.14272289, 0.07847461, 0.043648712, -0.038726635, 0.0683515, -0.07250652, 0.017991059, -0.12797882, 0.047669973, 0.05494166, 0.035996377, 0.0026330417, 0.16983522, 0.070527606, -0.013225123, -0.0687857, -0.05471611, 0.07866603, -0.12708339, -0.09557721, -0.082675785, -0.031290807, -0.0024605358, -0.06695772, 0.06318836, 0.093902215, -0.003618399, 0.04292603, -0.17807135, 0.016701551, -0.004931028, -0.039242182, 0.097842894, 0.027200675, -0.07163981, 0.0013170083, -0.114438705, -0.070791155, 0.037790656, 0.055588458, -0.03340555, -0.0019121845, -0.0640433, -0.05355042, -0.102843456, -0.020514783, -0.11470286, -0.13846622, -0.012270938, 0.04219303, 0.15959458, 0.000782485, 0.20370084, -0.1889781, 0.051074713, -0.035281964, -0.036011647, -0.07767533, 0.012955249, 0.05970573, -0.047384903, 0.10611311, 0.07963913, -0.079505056, 0.10589206, -0.28277066, -0.07469852, 0.115830205, 0.062445473, -0.15841778, 0.032155875, -0.020047419, 0.055643488, 0.102851495, -0.06547218, 0.042929754, -0.007994441, -0.0974764, -0.015432346, -0.10398042, 0.0029675288, -0.11231256, -0.10127196, -0.068274416, 0.068177745, -0.10805614, -0.010484676, -0.037934385, -0.060446914, -0.14995447, 0.062259763, -0.06671734, 0.065203436, -0.10045831, -0.10234255, -0.1953622, -0.14381535, 0.035843797, -0.07470256, -0.012886733, 0.07427786, -0.01676103, -0.018072095, 0.031326704, 0.10182643, -0.05479403, -0.04522203, -0.1258479, 0.13316095, -0.083263814, 0.16276608, 0.12673159, 0.1123662, 0.09026234, -0.07315516, 0.13398059, 0.024394065, 0.18711495, 0.17401785, -0.03565019, 0.06436294, 0.028423341, -0.098446384, -0.14994095, -0.099304885, 0.15306719, -0.03925854, -0.10232536, 