#include <algorithm>
#include <iostream>
#include <vector>
#include "../tensor_utils.hpp"
#include "../profiling_utils.hpp"

void run_model(int batch_size, std::vector<int> profile_indices) {
  // Structure of data used for profiling
  ProfilingData pd;

  // Variable used to check if a layer need profiling
  bool need_to_profile_layer = false;

  if (!profile_indices.empty()) {
    // Initialize profiling
    pd = profiling_init();
    profiling_print_header();
  }

  // Set up one input tensor
  int t1_chans = 1;
  int t1_rows = 28;
  int t1_cols = 28;
  float t1_vals[] = {
    0,   0,   0,   0,   0,   0,   0,   0,   0,   0,   0,   0,   0,   0,   0,   0,   0,   0,   0,   0,   0,   0,   0,   0,   0,   0,   0,   0,
    0,   0,   0,   0,   0,   0,   0,   0,   0,   0,   0,   0,   0,   0,   0,   0,   0,   0,   0,   0,   0,   0,   0,   0,   0,   0,   0,   0,
    0,   0,   0,   0,   0,   0,   0,   0,   0,   0,   0,   0,   0,   0,   0,   0,   0,   0,   0,   0,   0,   0,   0,   0,   0,   0,   0,   0,
    0,   0,   0,   0,   0,   0,   0,   0,   0,   0,   0,   0,   0,   0,   0,   0,   0,   0,   0,   0,   0,   0,   0,   0,   0,   0,   0,   0,
    0,   0,   0,   0,   0,   0,   0,   0,   0,   0,   0,   0,   0,   0,   0,   0,   0,   0,   0,   0,   0,   0,   0,   0,   0,   0,   0,   0,
    0,   0,   0,   0,   0,   0,   0,   0,   0,   0,   8,  38, 137, 146, 232, 254, 255, 255, 197, 109,   0,   0,   0,   0,   0,   0,   0,   0,
    0,   0,   0,   0,   0,   0,   0,   0,   0,  87, 107, 253, 253, 253, 253, 253, 253, 253, 253, 188,   0,   0,   0,   0,   0,   0,   0,   0,
    0,   0,   0,   0,   0,   0,   0,   0, 120, 237, 253, 253, 253, 248, 209, 139, 139, 230, 253, 188,   0,   0,   0,   0,   0,   0,   0,   0,
    0,   0,   0,   0,   0,   0,   0,   0, 112, 229, 210, 128,  96,   0,   0,   0,   0, 117, 253, 188,   0,   0,   0,   0,   0,   0,   0,   0,
    0,   0,   0,   0,   0,   0,   0,   0,   0, 28,   0,   0,   0,   0,   0,   0,   45, 241, 245,  82,   0,   0,   0,   0,   0,   0,   0,   0,
    0,   0,   0,   0,   0,   0,   0,   0,   0,   0,   0,   0,   0,   0,   0,   0,  60, 253, 125,   0,   0,   0,   0,   0,   0,   0,   0,   0,
    0,   0,   0,   0,   0,   0,   0,   0,   0,   0,   0,   0,   0,  32, 134, 148,  98, 127,   4,   0,   0,   0,   0,   0,   0,   0,   0,   0,
    0,   0,   0,   0,   0,   0,   0,   0,   0,   0,   0,   0,   7, 201, 253, 200,  59,  12,   0,   0,   0,   0,   0,   0,   0,   0,   0,   0,
    0,   0,   0,   0,   0,   0,   0,   0,   0,   0,   0,   0, 122, 246, 253, 223,   0,   0,   0,   0,   0,   0,   0,   0,   0,   0,   0,   0,
    0,   0,   0,   0,   0,   0,   0,   0,   0,   0,   0,   0, 233, 253, 253, 236,  55,  11,   0,   0,   0,   0,   0,   0,   0,   0,   0,   0,
    0,   0,   0,   0,   0,   0,   0,   0,   0,   0,   0,   0, 233, 253, 253, 253, 253, 210,  48,   0,   0,   0,   0,   0,   0,   0,   0,   0,
    0,   0,   0,   0,   0,   0,   0,   0,   0,   0,   0,   0,  68, 193, 185, 243, 253, 253, 173,   0,   0,   0,   0,   0,   0,   0,   0,   0,
    0,   0,   0,   0,   0,   0,   0,   0,   0,   0,   0,   0,   0,   0,   0,  59, 253, 253, 226,   0,   0,   0,   0,   0,   0,   0,   0,   0,
    0,   0,   0,   0,   0,   0,   0,   0,   0,   0,   0,   0,   0,   0,   0,  22, 253, 253, 226,   0,   0,   0,   0,   0,   0,   0,   0,   0,
    0,   0,   0,   0,   0,   0,   0,   0,   0,   0,   0,   0,   0,   0,  10,  93, 253, 253, 123,   0,   0,   0,   0,   0,   0,   0,   0,   0,
    0,   0,   0,   0,   0,   0,   0,   0,   0,   0,   0,   0,   0,  14, 180, 253, 253, 228,  42,   0,   0,   0,   0,   0,   0,   0,   0,   0,
    0,   0,   0,   0,   0,   0,   0,   0,   0,   0,   0,   0,  95, 181, 253, 253, 253,  66,   0,   0,   0,   0,   0,   0,   0,   0,   0,   0,
    0,   0,   0,   0,   0,   0,   0,   6,  33,  33, 100, 178, 253, 253, 253, 241,  88,   1,   0,   0,   0,   0,   0,   0,   0,   0,   0,   0,
    0,   0,   0,   0,   0,   0,   0,  32, 236, 253, 253, 253, 253, 253, 228, 122,   0,   0,   0,   0,   0,   0,   0,   0,   0,   0,   0,   0,
    0,   0,   0,   0,   0,   0,   0,   0, 143, 253, 253, 253, 154,  76,  24,   0,   0,   0,   0,   0,   0,   0,   0,   0,   0,   0,   0,   0,
    0,   0,   0,   0,   0,   0,   0,   0,   0,   0,   0,   0,   0,   0,   0,   0,   0,   0,   0,   0,   0,   0,   0,   0,   0,   0,   0,   0,
    0,   0,   0,   0,   0,   0,   0,   0,   0,   0,   0,   0,   0,   0,   0,   0,   0,   0,   0,   0,   0,   0,   0,   0,   0,   0,   0,   0,
    0,   0,   0,   0,   0,   0,   0,   0,   0,   0,   0,   0,   0,   0,   0,   0,   0,   0,   0,   0,   0,   0,   0,   0,   0,   0,   0,   0
  };
  for (int i = 0; i < t1_chans * t1_rows * t1_cols; i++) {
    t1_vals[i] = t1_vals[i] / 255; // Normalize values between 0 and 1
  }
  Tensor3D t1 = tensor_init_3d(t1_chans, t1_rows, t1_cols, t1_vals);

  // Set up input batch
  float batch_vals[batch_size * t1_rows * t1_cols];
  for (int i = 0; i < batch_size; ++i) {
    for (int j = 0; j < t1_rows * t1_cols; ++j) {
      batch_vals[i * t1_rows * t1_cols + j] = t1_vals[j];
    }
  }
  Tensor4D batch = tensor_init_4d(batch_size, t1_chans, t1_rows, t1_cols, batch_vals);
  tensor_delete_3d(t1, t1_chans, t1_rows);

  // Set up 6 filters of size 5x5x1 (for the first convolution)
  int n_f1 = 6;
  int f1_chans = 1;
  int f1_rows = 5;
  int f1_cols = 5;
  float f1_vals[] = { 0.17108083, -0.090589315, -0.037598178, 0.055243168, -0.18062958, 0.17856693, -0.07291381, 0.17234245, 0.006025884, 0.06440893, -0.4429168, 0.08164439, -0.17131494, 0.19379127, 0.045159087, -0.027493918, -0.23578222, 0.3281208, -0.056748495, -0.29952058, 0.094897665, 0.12097811, -0.23934105, 0.0891684, -0.18619418, -0.44263926, -0.168737, 0.07186295, 0.11752375, 0.08611133, -0.09720833, 0.012041635, -0.04104049, 0.052731026, -0.4815136, 0.28415945, 0.35095346, -0.08018991, 0.11299928, -0.0811454, -0.211876, 0.17314577, 0.3266961, 0.20680597, 0.1878169, 0.19459657, -0.048309766, -0.022456508, 0.22943836, 0.17515975, 0.33474636, 0.25411472, 0.31766596, 0.20161816, 0.21515106, -0.20221865, 0.01814077, -0.14347161, 0.1544548, 0.13233677, 0.06405941, -0.010002329, -0.17646182, 0.002819762, -0.115997724, -0.07375939, 0.019599257, -0.1344448, -0.08017215, 0.16538574, 0.28927654, 0.0026634352, 0.29332513, 0.20463118, 0.014496056, 0.211782, 0.37491837, 0.03570135, 0.25879216, 0.39003292, 0.16009665, 0.073958196, 0.29148898, -0.11507168, 0.06716991, 0.19225456, 0.03172928, -0.2516304, -0.041338515, 0.17595583, -0.059978798, 0.0016823041, -0.24678323, 0.006251876, 0.09779743, -0.30758142, -0.21724768, 0.09695445, -0.036215983, 0.14331813, 0.24879685, -0.35388935, -0.16082123, 0.1431187, 0.18322788, 0.24132688, 0.21832332, -0.15046518, -0.13187404, -0.011218684, 0.16431576, -0.09776508, -0.12687337, -0.2534372, 0.091204144, -0.02859693, -0.07390243, -0.32961956, -0.09202164, -0.23803249, -0.3127726, 0.099050686, -0.28687844, 0.17447677, 0.28567252, -0.2199125, -0.16424416, 0.070391424, 0.09195068, 0.010777954, 0.19177486, -0.09300098, -0.28438368, -0.2253546, -0.045239717, 0.12943679, -0.10130539, -0.15583245, -0.3528824, -0.014675476, 0.29656187, -0.21407847, -0.30129737, -0.023026744, -0.19834773, 0.19399819, 0.07617227, -0.42062977, -0.00568105, 0.033862513 };
  Tensor4D f1 = tensor_init_4d(n_f1, f1_chans, f1_rows, f1_cols, f1_vals);
  
  // Set up 6 biases (for the first convolution)
  int b1_cols = 6;
  float b1_vals[] = { -0.016883224, -0.105121866, -0.08436947, -0.06604562, -0.044769723, 0.018538406 };
  Tensor1D b1 = tensor_init_1d(b1_cols, b1_vals);

  // Set up 16 filters of size 5x5x6 (for the second convolution)
  int n_f2 = 16;
  int f2_chans = 6;
  int f2_rows = 5;
  int f2_cols = 5;
  float f2_vals[] = { 0.08849922, -0.06707151, -0.09543743, -0.04035915, -0.16444278, -0.05090418, 0.038029972, 0.0047867848, 0.19830829, 0.1429706, 0.007844283, -0.2471829, -0.31812936, -0.25881276, -0.011294661, 0.08363412, -0.081287414, 0.08025259, -0.06448855, 0.10900155, -0.16327436, 0.058983926, -0.17416143, -0.04407192, 0.030397134, 0.15319768, -0.17259361, 0.10045404, -0.015479176, 0.15118934, 0.096928984, 0.051710512, 0.053014625, 0.020612359, 0.11152124, -0.048333623, 0.06335059, 0.06518335, -0.21567416, 0.055151783, -0.08629136, 0.077896684, -0.05045998, -0.033753328, 0.18438417, 0.22941835, 0.12399273, -0.097404554, -0.0080995895, -0.20414715, 0.0771789, -0.0038582524, -0.12980324, 0.17693222, -0.17447232, -0.06390955, -0.121498786, -0.075274, -0.102305144, 0.09515744, 0.052221984, 0.02640966, -0.109193616, -0.08629056, 0.15514377, -0.047171313, 0.14723907, 0.11643028, -0.074657075, 0.10080928, -0.14860769, -0.077820085, 0.08656245, 0.08703586, -0.005502732, -0.03481426, 0.19175363, 0.022332096, -0.22340514, -0.112207696, -0.0650117, 0.011631811, -0.06991058, -0.07287644, -0.073969, -0.22195499, 0.049359955, -0.037315667, 0.14363332, 0.014067403, 0.02724557, -0.23055762, -0.056517147, -0.2249417, -0.045364104, 0.18109483, -0.03452097, -0.048561297, -0.02541061, 0.06054468, -0.25267613, 0.029773217, -0.009699977, 0.029150581, 0.07024051, 0.02559808, -0.011398405, -0.22028014, -0.11660638, 0.04033938, -0.053164147, 0.004244912, -0.10174245, -0.029683908, 0.07609433, 0.05878909, -0.049137563, -0.13704376, -0.025668688, -0.09425551, -0.044479858, -0.07306025, 0.13319309, -0.20054702, -0.033163153, 0.008652853, 0.20317034, -0.09401254, -0.107002, 0.099621825, 0.16982472, 0.00954918, -0.029624814, -0.043845292, -0.18606293, -0.029622149, -0.07200062, -0.10896156, -0.05567593, 0.000908559, 0.08662118, 0.029654214, 0.109569415, -0.10489013, -0.048588622, -0.090608, 0.088979155, -0.09090442, 0.0679776, 0.1355825, -0.2704303, -0.06485262, 0.07076168, 0.13402356, -0.19858086, -0.07043871, -0.027472498, 0.043857086, 0.016484333, -0.023249917, -0.066176414, 0.07572451, 0.07609188, 0.10358869, 0.041742392, 0.13061924, -0.37798014, -0.00816246, 0.14984573, -0.021116644, 0.14828695, 0.06717504, -0.11713757, 0.12055143, -0.06388374, -0.1441083, 0.021570982, 0.06610311, -0.079266205, 0.06635575, -0.17237799, -0.04017162, 0.10459601, -0.04332629, 0.04137038, -0.09764694, 0.09531955, -0.16485406, -0.19237603, 0.07347057, -0.039903514, 0.109384865, -0.17072539, -0.07615498, 0.05174736, 0.17503713, -0.20597443, 0.034020197, 0.08435088, 0.15199444, -0.1966852, -0.16295823, 0.06924708, -0.22399193, -0.2162788, 0.15493119, -0.029156007, -0.13271141, -0.24594763, 0.019285876, -0.072851904, 0.0012580449, -0.07373615, 0.045059312, 0.018354265, -0.045799706, -0.14221989, 0.002311369, 0.0028123327, -0.040143143, 0.0662883, 0.00954278, 0.0019119545, 0.0654126, -0.15898189, 0.11444735, 0.067511015, 0.009932085, -0.005732716, 0.06062484, 0.005194931, -0.19916642, 0.06686024, -0.032828633, 0.10291765, -0.24774069, 0.059299685, -0.13709545, -0.07331511, 0.096564606, -0.13552509, 0.1044901, 0.14891437, -0.069032796, -0.008650006, -0.037934083, -0.1257903, -0.12179675, 0.109275594, -0.1618036, 0.05436096, 0.013029849, -0.001738312, 0.108086504, 0.01976799, 0.04080918, -0.12079718, 0.13016906, -0.10573854, -0.08496281, -0.0040235263, -0.099800654, -0.08753657, 0.041695185, 0.059909254, 0.04669549, 0.1213418, 0.11064294, -0.086410016, 0.07154502, 0.08660261, 0.20049965, 0.01615, -0.021843955, -0.1114395, 0.0878657, -0.11674037, -0.049338724, 0.10668401, -0.06923478, -0.017159812, -0.017173918, -0.040402766, 0.07997712, -0.25581676, 0.052539956, 0.016140424, -0.18906036, -0.226035, -0.13284317, 0.051686354, 0.031853955, -0.1226948, 0.079415776, 0.20016824, 0.06456066, -0.12071155, 0.0057957, -0.13395162, -0.030961636, -0.1856409, 0.2147422, 0.20203501, 0.10375397, -0.25743866, -0.004044508, 0.086338915, 0.013681676, 0.12873615, -0.15270554, -0.029500453, -0.17804657, 0.13213095, 0.058097575, 0.2645517, -0.11979116, 0.031237084, 0.051459074, 0.10192919, 0.054220658, -0.1434891, 0.05792885, -0.048204165, 0.054089483, 0.24368711, -0.03400105, 0.07069951, -0.21188627, 0.11950524, -0.095622, 0.101914726, -0.06209818, 0.08134037, 0.07663767, 0.026770959, 0.11190689, 0.034127735, 0.10962105, -0.07547063, -0.030480234, 0.045567624, -0.17510107, -0.11684805, -0.061067104, 0.1468712, 0.027818687, 0.016821569, -0.19422205, -0.07835433, -0.08404847, 0.09714308, 0.16596842, 0.10914896, 0.06814921, 0.0439531, -0.16271982, -0.10198047, -0.28919703, 0.15722106, 0.044258174, 0.061183967, 0.08991564, 0.13975696, -0.013490851, -0.062085826, -0.054277528, 0.07035286, 0.09874149, -0.0004250449, -0.13599324, 0.025532862, 0.039044492, 0.100641795, 0.12507364, 0.17099586, 0.11607376, -0.16762166, -0.21713105, -0.15772016, 0.08976597, -0.14195026, 0.10244429, 0.003842311, -0.22808707, 0.017132545, -0.022748634, 0.036954053, -0.21062209, -0.10155804, -0.2119974, 0.18979216, 0.06944282, 0.04117325, 0.24911723, -0.11842458, -0.026387747, -0.23186909, 0.074419655, 0.12598959, 0.087194055, -0.10335627, -0.057696722, -0.06393079, 0.023520762, 0.0070918053, -0.174133, -0.098611385, -0.050836634, 0.08970829, 0.13521408, 0.19093932, 0.1724558, 0.10841053, -0.064866155, 0.04280944, -0.021486027, -0.034062818, -0.1183739, -0.21470253, -0.0072957096, 0.2314011, 0.07243089, -0.08999058, -0.06537705, -0.0596261, 0.012882255, 0.065735325, 0.09207232, -0.051421963, 0.053096596, 0.028380705, -0.12715182, 0.04289745, 0.10408974, -0.1343006, -0.07661375, 0.24218357, -0.03423476, 0.1074184, -0.08666907, -0.03814175, 0.0713678, 0.26295558, -0.08071095, -0.07651317, -0.022230785, -0.08247027, 0.21042709, 0.0016056206, 0.021945344, 0.13454744, -0.043112557, 0.20208518, -0.05929457, 0.17012732, 0.008418102, 0.17812042, 0.25452235, 0.059168864, -0.092841715, -0.06794189, -0.033834532, -0.0865351, 0.04760361, -0.09502234, 0.006040483, 0.087814026, -0.20948467, -0.27445433, -0.1140299, 0.2021032, -0.06456598, -0.0027782829, -0.16937244, -0.22294618, 0.035900697, -0.06732408, 0.018084448, 0.048319187, 0.10062096, 0.054843023, 0.09617859, 0.100346096, -0.010684196, 0.018730683, -0.3076452, -0.12113966, 0.25996387, -0.06705134, 0.007577988, 0.1181988, 0.06570996, 0.0072541833, -0.20823546, 0.14488105, -0.1095118, 0.014741382, 0.0015924923, -0.04412479, 0.022649666, -0.045500726, 0.1026778, -0.030724354, 0.21275352, -0.020781469, -0.04701326, -0.14635772, 0.2609464, -0.058490872, 0.016561778, -0.07544126, -0.04379909, -0.044573065, 0.1219002, 0.007843705, -0.019500775, 0.09278274, 0.16129407, -0.29894316, 0.122196265, -0.057992127, -0.043535545, -0.010307951, 0.14287558, 0.112666965, 0.24191499, -0.100411765, -0.19411662, -0.07723721, -0.19387247, 0.07566947, -0.025214655, 0.10181521, 0.155814, -0.23501389, -0.016794428, 0.040325157, -0.058066998, 0.043441996, -0.011569664, -0.03582477, 0.14769624, -0.20121945, -0.030356735, 0.10228334, -0.028522374, -0.05051487, 0.29587168, 0.08314767, 0.10576978, -0.20673059, 0.07772987, 0.11568554, -0.08114378, -0.0954428, -0.07949901, -0.1737544, -0.051261343, -0.13231725, -0.12477487, 0.011382352, 0.20835418, 0.013221197, 0.036764298, 0.03236585, -0.22872928, 0.020819196, -0.015551229, 0.08840076, -0.012821376, 0.050627884, 0.050094355, -0.11336562, 0.07376721, -0.014433069, -0.046887632, 0.21289873, -0.10699852, 0.13456668, -0.0011286208, -0.1504098, -0.31710708, 0.038127862, -0.0035221716, -0.19131461, 0.09325107, -0.096116036, -0.22583988, -0.15198828, 0.15073244, 0.2749489, -0.2720845, 0.033368584, -0.04603364, -0.026907569, -0.08769597, -0.03474513, 0.023672909, -0.4101768, 0.061980013, -0.05506157, 0.034689236, -0.12573582, 0.03057833, 0.0058591072, 0.11459445, -0.049155846, 0.08282217, -0.058193147, 0.05667352, 0.10007134, -0.011782595, -0.019528655, -0.027243434, -0.31878504, 0.12554705, 0.011942333, 0.0526772, -0.02363237, 0.14105283, 0.13711165, -0.0611746, -0.09529819, -0.0416382, -0.25410065, 0.025484892, -0.042201735, -0.06361452, 0.08118395, -0.007989787, -0.23535335, -0.055477403, -0.024453156, -0.088018894, -0.020398349, -0.05745384, -0.09654219, 0.07633492, 0.004690676, -0.020580336, -0.13896792, -0.087261796, -0.06229863, -0.0074463165, 0.0011084548, -0.010824991, -0.18793622, -0.018844236, 0.030157557, 0.051557377, 0.027412793, -0.14570758, -0.1544056, -0.071957245, -0.038092017, 0.12578395, 0.08973539, 0.06962461, 0.04719568, 0.080106094, -0.14121597, -0.19214188, 0.04879518, -0.117986046, -0.062759496, 0.058165647, -0.115835175, -0.41385326, -0.19096099, 0.066000275, 0.08531944, -0.17662063, 0.12973735, -0.13140076, 0.15716271, -0.1339601, -0.2657469, -0.21010032, 0.24374235, -0.18743241, -0.338952, 0.19877051, -0.25223163, -0.20780434, -0.024896009, 0.14418544, 0.1546447, -0.037642933, -0.08965934, 0.0132806385, 0.06337503, 0.026256656, -0.16827977, -0.29088658, -0.35764024, 0.06014279, -0.08179637, 0.07013316, 0.09786886, -0.1879119, 0.049923096, -0.05208257, -0.12454093, 0.019300228, -0.010290342, -0.029124277, 0.011535582, -0.062644236, -0.062631615, -0.19259298, -0.14957748, -0.013962805, 0.029226962, -0.048852693, 0.060207523, -0.20964552, 0.10704358, 0.04906124, 0.066100314, -0.06504272, -0.046814557, 0.22469002, 0.10829202, -0.026594821, -0.07330449, -0.13848588, -0.3909682, 0.060996864, 0.083601154, 0.043773066, 0.08700875, 0.0755875, 0.09724124, -0.021993006, -0.1115519, 0.16502254, 0.1174474, 0.064558715, -0.027649503, -0.112792484, -0.31615052, -0.28571054, -0.33106893, -0.00426966, 0.031627636, 0.15642713, 0.2397254, -0.012304036, 0.123054326, -0.43296537, -0.10695591, 0.3597614, 0.05120429, -0.14920117, 0.09006968, -0.047864076, 0.019235667, -0.14471772, 0.17318405, -0.23996438, 0.04893751, 0.065628506, -0.14546356, -0.400213, -0.113816395, 0.030181969, 0.20438495, -0.15020658, -0.21815601, 0.006549121, 0.08994244, 0.0058127423, -0.24165188, -0.33238488, 0.21367306, 0.1418185, -0.07500206, 0.35897723, -0.14181733, -0.16452001, -0.028239017, 0.11464028, -0.046230227, 0.16067599, -0.10022569, 0.070198886, -0.06011008, 0.19659331, -0.017912984, -0.07801668, -0.28677398, 0.017181031, -0.0039406666, 0.039768513, 0.10449766, -0.1779776, 0.045942593, 0.016693724, 0.047384635, -0.09198241, 0.037045795, -0.19388415, -0.037884977, -0.008276526, 0.18756476, 0.07748446, -0.08100829, -0.08741674, 0.104835324, 0.06174266, 0.021294087, -0.10771541, -0.07916278, 0.007714876, 0.121021174, -0.17966661, -0.16774932, -0.0141036995, -0.12693311, 0.12739103, 0.11175509, 0.0042016907, -0.18110614, -0.0062699285, 0.008726155, 0.033772588, 0.13180494, -0.09819643, 0.15439014, -0.10300749, -0.061093215, -0.048328638, -0.0901464, 0.057484645, -0.09089372, 0.084660664, -0.03148948, -0.10097972, -0.35632163, 0.07407679, 0.049343865, 0.30686462, 0.06347611, 0.050303344, 0.12781689, -0.031778958, -0.13780889, 0.03368171, -0.16387554, 0.03910504, 0.19957435, -0.21605293, 0.062224057, -0.14866686, 0.038858514, -0.004643495, -0.19928905, 0.08111162, -0.0526187, -0.09625196, -0.0975822, 0.09899544, 0.13241467, 0.062154148, 0.0008529447, -0.048093963, 0.023646401, -0.10176139, -0.21854213, -0.37868604, 0.1535689, 0.1906605, -0.035573877, 0.32396808, -0.21155693, 0.09489271, -0.06825611, 0.013407902, -0.34516212, -0.110350244, -0.041077074, -0.104562074, 0.04541368, 0.08404192, 0.10493257, 0.039552364, -0.27723864, 0.006181755, 0.098854646, 0.20191385, 0.17008552, 0.1461797, 0.062102806, -0.060357627, -0.07306801, -0.025543425, -0.18010134, -0.15720583, 0.038687814, -0.0733602, 0.13617559, 0.05359079, -0.18876715, 0.017757012, -0.16507693, 0.009837484, -0.018190596, 0.15243065, -0.07550247, 0.01678305, 0.058897175, -0.148711, -0.09837679, -0.0736106, -0.11718759, 0.10655121, 0.16021946, 0.09271251, -0.22292791, -0.09712006, -0.002612227, -0.049900148, 0.2600293, -0.1251783, 0.10279788, -0.09928957, 0.021449724, -0.11698394, 0.06286579, -0.06057012, -0.11255104, 0.18618414, -0.039239105, 0.088523865, -0.1827562, -0.009448238, 0.20053616, -0.029705793, -0.18648537, -0.06799758, 0.073703006, -0.19360681, -0.13328172, -0.28012145, -0.06497268, 0.07197685, -0.066465154, -0.21625637, -0.27569878, -0.17190418, 0.22246762, 0.23069575, 0.059933577, 0.3016402, -0.10715465, 0.20638002, -0.060194913, 0.11358548, -0.14980419, -0.008005037, -0.17402144, -0.33265045, -0.010337434, -0.08356917, 0.12031066, -0.2016256, 0.34431, 0.023644391, 0.042579986, 0.033155113, 0.017440239, -0.005303203, 0.21968679, -0.1052797, -0.25961122, -0.02264338, 0.106387146, 0.10314273, -0.075773224, -0.041894488, -0.015553018, 0.17888954, 0.20313367, -0.012702477, 0.042928718, -0.19420992, -0.04714537, 0.119880155, 0.12385945, 0.14104304, -0.16164695, -0.08969094, -0.23103537, 0.025663424, -0.10140036, -0.056131214, 0.095214516, 0.1685447, -0.119161345, 0.10279791, 0.031759564, -0.03620907, -0.07093723, 0.10589382, 0.015311037, 0.23463383, 0.016990233, 0.076769315, -0.19548498, -0.09942001, 0.036117073, -0.18345705, 0.05749823, 0.1978212, -0.035484046, -0.14596039, -0.10254162, 0.008176462, 0.04777465, -0.10383426, -0.13758536, -0.0012068506, -0.17118981, -0.08824207, 0.1257772, -0.066756785, -0.21177906, -0.13422774, -0.009707238, 0.033289667, 0.15793617, 0.0725824, -0.12100899, -0.038078982, -0.0056275674, -0.34739646, -0.09600059, -0.21675922, -0.07748362, 0.107777886, -0.06280081, -0.08649138, 0.1550133, -0.19253735, 0.12561302, 0.018866824, 0.19410342, 0.120169826, 0.076106444, -0.013654275, -0.01483403, 0.11438545, 0.18805802, -0.09384222, -0.073268786, 0.103817865, -0.16385582, -0.19883728, 0.02171473, -0.22247945, 0.056411397, -0.3225273, -0.002289887, 0.112596154, -0.16075556, -0.027042046, -0.09416323, 0.1343621, 0.3137776, 0.04576813, -0.14139044, 0.10952343, 0.18354726, 0.07159, -0.14054179, 0.09616067, -0.16649708, -0.049505457, 0.05913824, 0.24240035, -0.12675989, 0.014003411, -0.04307046, 0.2284919, -0.052397735, 0.08537491, -0.06460321, -0.13829824, -0.11895804, 0.055656347, -0.09390944, -0.025385357, -0.117554046, -0.12683415, -0.11344206, 0.2424627, 0.017875172, 0.038173765, 0.057847425, 0.18072799, -0.017324403, -0.06805321, -0.1565707, -0.026310984, -0.16203476, 0.23616458, -0.08641739, -0.09076019, 0.016752793, 0.09825944, -0.06321794, 0.0068123057, -0.12915465, -0.10947392, 0.14345658, 0.07093175, -0.013755051, 0.055570453, -0.12581846, 0.16173086, 0.15816312, 0.03738845, -0.039314047, 0.055190604, -0.08030699, 0.0704301, 0.04458776, -0.29116875, -0.08899072, -0.031180698, 0.25266296, -0.33742577, -0.01548243, -0.39097935, -0.052325256, 0.08498259, -0.0030008834, -0.13411617, 0.09499959, -0.25055444, 0.026993558, -0.33473438, -0.27670923, 0.09848739, 0.0015831793, -0.10448546, -0.012055696, -0.01049185, 0.11799121, -0.11462487, 0.034106474, -0.12087555, 0.09828498, 0.13407801, -0.18523413, -0.1306301, -0.21141452, -0.15096214, 0.04376719, -0.15837203, -0.015174228, 0.017317949, -0.17887498, 0.10359438, 0.24764046, -0.0027633193, -0.0221401, 0.03348352, 0.19835359, 0.085476264, -0.013087902, 0.11731286, -0.10048225, -0.30332953, -0.055416286, 0.3184473, 0.088107884, -0.19722348, -0.14442454, 0.06954754, -0.058143795, -0.12410459, 0.024466263, -0.024519438, 0.019638088, -0.07657064, 0.034073487, -0.015005569, -0.100903854, -0.046901815, -0.12576249, 0.07142449, 0.089916706, -0.026690641, 0.063290924, 0.024684068, 0.11540133, -0.18702692, 0.0023250624, -0.121177584, 0.008891126, 0.11107915, -0.16230747, -0.012496536, -0.23298489, -0.22612292, -0.18677388, 0.08340904, -0.09573894, -0.014686249, 0.017654583, -0.041041642, 0.14628679, -0.02781643, -0.10845366, -0.13167274, 0.021752926, 0.11242551, -0.08172131, 0.33253348, -0.20082596, -0.23545712, 0.08314207, -0.1582041, 0.00059337786, -0.0065159397, -0.00045966898, -0.20493725, 0.09036976, -0.056863412, 0.08526963, 0.01298985, 0.03661021, -0.028529087, -0.037500814, -0.29467553, -0.013863952, -0.17922893, -0.38741052, -0.34085885, -0.112117164, -0.021306295, -0.16016735, 0.07348678, 0.20061846, -0.004604462, 0.017905122, 0.010827359, 0.06267534, 0.05818652, -0.22531241, 0.1442962, -0.23155096, -0.15961598, 0.100204445, -0.32588476, -0.13663656, 0.08336735, -0.17932841, 0.062238976, 0.04955022, 0.093487404, -0.09757298, 0.10107596, 0.08062902, -0.08108145, 0.059017822, 0.066388436, -0.0070697237, 0.026112119, -0.15333332, -0.15707678, -0.03769431, -0.18214965, 0.025856536, -0.06995383, -0.09091382, -0.034771845, -0.012735836, -0.17906089, -0.012047751, -0.15894657, -0.03135159, 0.073221765, 0.14090508, 0.2007149, -0.14555168, -0.13915983, 0.12310293, -0.11884717, 0.056142185, -0.30261528, 0.015889179, -0.16121666, 0.08631771, -0.027530205, -0.03302212, -0.1122414, -0.07231925, -0.06759992, 0.0028124386, -0.036206536, -0.19915332, 0.16091967, 0.001485687, -0.1594715, 0.03703525, -0.13978256, 0.06707332, -0.134324, -0.04479825, -0.21411051, -0.002327892, -0.21165349, 0.019249244, 0.25486705, -0.14079793, -0.0009302858, 0.048205983, -0.104966335, -0.09712021, -0.049057193, -0.13839841, 0.17706658, 0.090377584, 0.05041207, 0.089159384, -0.10487309, -0.11900327, 0.06562266, -0.09345291, -0.0066190246, -0.21030349, -0.082596175, -0.32791334, -0.35389838, -0.25071907, 0.04693533, 0.0012386879, 0.07297661, 0.039250158, 0.053982284, -0.05418969, 0.14538787, 0.035743672, 0.102927364, -0.14798428, 0.14755835, -0.1697795, -0.11439367, 0.17370327, -0.14442143, -0.058851983, -0.039208785, 0.05101667, -0.1276724, 0.10476402, -0.100399196, -0.021048676, 0.15649015, 0.03515039, -0.16763695, 0.08176565, 0.014754704, 0.057895977, 0.06544975, -0.09648683, -0.03495227, -0.03606031, 0.07252735, 0.074611, 0.07422763, -0.06570186, -0.14011112, -0.08056125, -0.1390479, -0.050655838, -0.075571224, 0.074301004, 0.051750872, -0.04077009, -0.0030915176, -0.02418291, -0.0075027714, -0.019456774, 0.052990623, -0.12783018, 0.04779325, -0.031550527, -0.21389978, -0.011804894, -0.18627732, -0.16254485, -0.06667152, -0.072842546, -0.070065975, -0.024276908, 0.11107665, -0.06974798, 0.101241, -0.078974366, -0.027429136, 0.030449161, -0.00070973084, 0.09674575, -0.14657259, -0.010573266, -0.05531788, 0.11141498, 0.0057094544, -0.06949215, -0.17769064, -0.12211712, 0.24041823, 0.075721316, 0.06061436, 0.09426169, 0.025727969, -0.28916916, 0.030574385, 0.0917053, -0.08679104, -0.11492894, -0.03896874, -0.14945969, 0.03916367, -0.047461808, 0.115571104, -0.37746498, -0.20599388, -0.07643798, -0.07763727, -0.23706916, 0.18352018, -0.011578201, 0.07682252, 0.16716227, -0.06994335, -0.027623963, -0.04647716, 0.065175295, -0.32854456, 0.08650731, -0.02462665, 0.16077901, -0.13147724, 0.07723144, -0.11255221, -0.028830905, 0.15151778, 0.08510777, -0.07528146, 0.10917083, 0.006163469, 0.009529281, -0.1346675, 0.14388143, 0.018701214, -0.18638457, -0.0055246744, -0.0049085403, 0.024569761, 0.15624502, -0.10956107, -0.0007496679, 0.012236625, -0.13371965, -0.01404994, -0.005328122, 0.05873951, 0.09066687, -0.068562225, 0.0423709, 0.11149955, -0.16911632, -0.04998419, 0.031118026, 0.047839902, 0.1788138, -0.10740982, -0.1150195, -0.061611705, -0.1581429, -0.019373106, -0.032992065, -0.00301026, 0.013308607, 0.08699208, 0.08009681, 0.07577548, -0.10676303, -0.105197996, -0.054290146, 0.18218344, 0.04673575, -0.1472421, 0.053881843, -0.04449611, 0.09447882, 0.062267087, -0.027736433, 0.057242375, -0.057466287, -0.03270534, 0.026218059, 0.04246389, -0.054437257, -0.008255462, 0.015077806, 0.05656659, 0.06513388, -0.077524215, 0.14983325, -0.010799404, 0.101038694, -0.03224595, -0.18817212, -0.114691935, 0.0060122306, -0.0826101, -0.036267724, -0.2811943, 0.083448745, -0.030829055, 0.060905896, -0.14466329, 0.23168702, 0.070041604, -0.0011268379, 0.10596601, 0.030098582, 0.05268994, 0.1691245, -0.18107875, -0.15080036, -0.08476348, -0.11782139, -0.20335083, -0.11252052, -0.086712636, 0.01636855, -0.1628808, 0.15254039, 0.008540475, 0.060363363, 0.019108323, 0.14541674, 0.043192647, 0.23242165, 0.09385518, -0.023678137, -0.036321063, 0.030093256, -0.03901637, -0.12951842, -0.020021155, -0.014154756, -0.17422584, 0.20591255, 0.13538685, 0.12099221, 0.0829137, 0.012153634, 0.09954135, -0.099833585, 0.073315166, 0.11224107, 0.042543203, 0.09690937, 0.05505561, 0.0052738306, -0.037440173, -0.14366744, -0.20604588, 0.12124985, 0.10387406, 0.04968165, -0.033130113, 0.13358514, 0.10251488, -0.00492338, -0.054546446, -0.11888152, 0.035777178, 0.10716537, 0.14746918, -0.17447923, 0.12824187, -0.13220388, -0.046354238, 0.029364575, -0.029443553, -0.121315435, -0.083810836, 0.056294437, 0.15925314, -0.14034095, 0.052035913, -0.033734553, -0.13865884, 0.2542686, 0.10924698, -0.088277124, 0.18447103, 0.043081664, -0.26159555, 0.07602748, -0.07027152, -0.1727091, 0.00836142, 0.026620397, -0.1613436, -0.08825826, -0.12840316, 0.07619615, -0.16663726, -0.2010535, -0.19823404, 0.051424, -0.031709306, -0.035258416, -0.06706127, 0.07753791, 0.0067826286, 0.09350777, 0.005123738, 0.1500155, 0.014380219, 0.14740027, -0.0015311863, -0.15190724, -0.06970158, -0.18023169, -0.09460919, -0.00024620147, -0.06260881, -0.14607824, -0.34550664, 0.106796816, 0.042524174, 0.18530342, 0.17334743, 0.065708585, 0.0876828, 0.2185093, 0.103705674, 0.10510159, 0.16798092, 0.16725396, 0.021876356, -0.05290862, 0.050299365, -0.16564833, -0.10873964, 0.090793796, 0.19291353, 0.14102761, 0.009795921, -0.08733663, 0.15196826, -0.16341524, -0.021739675, -0.01801899, 0.029121924, -0.092944436, -0.33369082, 0.015006382, -0.0671597, -0.03379696, -0.034306612, 0.057182416, 0.15070911, -0.049095627, -0.053963363, 0.009211317, 0.11755202, -0.14513084, -0.18612927, -0.101395056, -0.06823421, 0.11755927, 0.002219204, 0.05222019, -0.04390054, -0.22034745, -0.03732803, 0.014805255, -0.04162838, -0.29662904, -0.15753788, 0.0030537753, 0.014464875, 0.016259791, -0.011931388, 0.038832556, -0.20196578, 0.09101994, -0.12413238, 0.20965274, -0.00024742092, -0.016277587, 0.014141309, -0.061476044, -0.3803396, -0.25913772, -0.12397539, -0.13009717, -0.091261044, 0.033779938, 0.049534958, 0.21250321, -0.21129243, -0.0941291, 0.08740953, -0.093573995, -0.017367803, -0.1774058, -0.055640597, 0.067046165, 0.030461593, 0.06923222, -0.018254112, -0.0818933, 0.08906839, 0.24801895, 0.06354269, 0.007953961, 0.031734794, 0.0197421, -0.017534696, 0.045405082, -0.013519535, -0.03221964, -0.2852734, 0.16243814, 0.03247149, 0.24867569, 0.06840918, 0.008997894, -0.11926254, 0.12144576, 0.055336323, -0.07272688, 0.31728944, 0.18701851, -0.0835476, -0.078969315, -0.087155186, 0.0378246, 0.1571251, 0.005726311, 0.115154326, 0.21022351, -0.009649433, -1.8900726e-05, -0.124455154, -0.1406086, -0.121346585, 0.0037904084, 0.067018695, -0.06434199, -0.1417627, -0.011042771, -0.06891141, 0.0423546, 0.1629945, 0.13509542, 0.16748561, 0.022599233, -0.015346079, 0.10532267, -0.13487978, -0.06907207, -0.08438161, -0.1557533, -0.13200696, 0.095044896, -0.2144608, -0.08930631, -0.07209698, 0.05701625, 0.014336733, -0.099088304, 0.06746287, -0.17405406, 0.013733294, 0.08216091, -0.094072655, -0.048694067, -0.0029152804, 0.0069094272, -0.011324553, -0.015687939, -0.07350689, 0.1973393, -0.30408555, -0.0092925895, 0.16504216, 0.027351566, -0.16421923, -0.30120406, 0.0035496252, -0.42163453, -0.05002157, -0.060072035, -0.110152654, 0.14707963, 0.08433066, -0.12781659, 0.13071506, -0.0044959267, -0.011598386, -0.058475647, -0.1751754, 0.114522494, -0.102268904, 0.06502156, -0.140819, 0.031009443, 0.09615119, 0.06555348, -0.042622242, 0.061533038, 0.03678894, 0.15816917, 0.042327434, 0.0065173693, 0.052973825, 0.036264926, -0.16321824, 0.020722479, 0.073355354, 0.23187828, 0.032421686, -0.02609534, -0.157147, -0.10552488, -0.031369988, -0.0586425, 0.18324366, 0.109521545, -0.055040892, -0.008275362, -0.063930325, 0.05614134, -0.027203295, 0.032625977, -0.08623828, 0.11172715, -0.13500012, -0.07227395, -0.091659546, -0.25732812, -0.11601171, -0.12593186, -0.13978778, -0.09310666, -0.14798556, 0.09009061, -0.08612029, -0.09755399, 0.021976972, 0.0011070144, -0.2760816, 0.07796473, -0.13314767, -0.0017644638, 0.13794546, -0.14319918, -0.15703955, -0.16335344, -0.15759867, -0.026640661, -0.10147709, 0.09989386, 0.0035374362, 0.022875387, 0.042183455, -0.063933626, 0.0018111902, 0.025291596, -0.036900725, -0.060550254, 0.045043457, -0.10293415, -0.20457496, -0.12281632, -0.122236595, -0.07370075, 0.0737603, -0.108816326, 0.1346431, 0.012736738, 0.11551696, 0.005323599, 0.13909616, -0.0016483294, 0.06262237, -0.015674202, -0.08546872, -0.19082603, -0.05024599, -0.003006229, -0.0826705, -0.025547482, 0.046083022, 0.08460245, 0.022161886, -0.106960244, -0.16818267, -0.027087938, -0.011594636, -0.095854156, -0.070428155, 0.0136484895, 0.003964874, 0.001034216, 0.13651685, -0.0458305, 0.08500096, 0.09804027, -0.08741329, -0.2884052, -0.031176172, 0.06442771, -0.0942613, -0.055289343, -0.15195473, -0.13962175, 0.0481129, -0.05373062, 0.11940747, -0.05576606, 0.08220127, 0.13316026, -0.0007555435, 0.09205178, 0.0035045533, -0.1621681, -0.18744986, 0.0775534, -0.05788455, 0.065412834, -0.1883098, -0.23707138, 0.08225146, -0.2155537, -0.14725845, 0.12974639, 0.10350143, -0.005998799, 0.14685014, 0.15261401, 0.13154651, -0.05967785, 0.045978047, 0.0055173584, 0.013617644, 0.058264196, -0.02106103, -0.10644239, -0.0027396018, -0.14037465, -0.10633257, 0.039637465, 0.090561174, -0.08127095, 0.05344228, 0.15737182, 0.07332422, -0.075390115, -0.0063899914, -0.021355534, 0.06252726, 0.03362455, 0.01706877, 0.035259336, 0.06876749, -0.11491436, -0.07023039, -0.039585274, 0.061614722, 0.07900616, 0.05997784, 0.039292242, 0.10324863, -0.09949106, -0.16269664, 0.075103655, -0.0022258216, 0.023590328, 0.13794133, 0.12649892, -0.098618, 0.032152534, 0.026581842, -0.07000321, -0.1104156, 0.011809114, -0.14236876, 0.13957791, -0.19669244, -0.17536914, -0.07992884, -0.03695475, -0.14457881, 0.070418775, 0.0031764507, 0.0008142202, -0.096868075, -0.048277564, 0.1371023, 0.006562345, 0.14792502, 0.120569386, -0.026075833, 0.12510857, -0.15392679, -0.2201828, 0.01871456, 0.11063102, -0.13808149, 0.0044828365, -0.08406473, -0.02717872, 0.034343768, -0.24233608, 0.019150183, -0.033135332, 0.15325965, 0.24304962, 0.0729863, -0.037313875, -0.04960176, -0.17331494, 0.11048183, 0.129258, 0.027671061, 0.28739452, 0.12518093, -0.012892661, 0.10870959, 0.07684375, -0.0029644088, -0.15361798, 0.016455943, -0.07169627, 0.17560294, 0.14234751, -0.053569976, -0.02446044, 0.06036403, -0.032541472, -0.15278964, 0.17099606, 0.040367555, 0.0046183136, 0.044536475, -0.027037451, -0.13592647, -0.23497434, -0.09543043, -0.04670575, 0.12051039, 0.044299394, 0.063746095, -0.052776083, -0.13445686, 0.019050255, -0.07429537, 0.030802367, 0.012058385, -0.059138246, 0.05756684, -0.0723414, 0.04035865, -0.0806936, -0.080516316, 0.010491862, -0.016435597, 0.01758271, -0.11909169, 0.05438811, -0.11262834, 0.042857397, -0.062414266, 0.13627104, 0.1745823, 0.12063686, -0.09673011, -0.067989394, 0.08257409, -0.025829146, -0.23446304, -0.04379992, -0.026316041, 0.14770046, -0.16712883, -0.13656221, -0.06654968, 0.09422053, 0.0033382599, -0.07156881, 0.10607021, 0.043740414, -0.11755074, -0.09259055, 0.20381865, -0.09796937, 0.041006688, 0.2500621, -0.046424944, 0.14662917, -0.15978284, 0.04055574, -0.021908544, -0.031324167, -0.2449444, 0.015283378, -0.02908366, 0.101806425, 0.0035875544, -0.07270935, 0.017294308, 0.038566083, 0.033674233, 0.15583302, 0.13144043, 0.16201127, -0.055898353, -0.12454034, 0.10463958, 0.08998596, -0.033468377, 0.23972446, 0.14542161, 0.080105886, 0.09513236, 0.09304231, 0.0054657096, -0.22030778, -0.18966879, -0.015229887, 0.1425714, 0.06076452, -0.19131269, -0.08293211, -0.008569185, -0.118761785, -0.005214945, 0.032572124, 0.10617872, 0.020799803, -0.018097468, 0.03154093, -0.13049333, -0.25350326, -0.20469838, 0.093117885, 0.08068179, -0.026989894, -0.08199192, 0.049165893, -0.13478428, 0.019177122, 0.07417391, 0.19608599, 0.12612358, -0.14353946, -0.07829306, -0.20257387, 0.022686172, -0.013307596, -0.18138982, 0.046969403, -0.01607514, 0.009858302, -0.2320438, 0.09610058, -0.19393207, 0.065638945, 0.13307802, -0.0052940855, -0.15857185, -0.18904595, -0.016335033, -0.24968734, -0.19524631, -0.036069725, -0.21633027, 0.06251389, 0.0657934, 0.049568824, -0.15398808, -0.15911792, -0.14600478, -0.12717368, -0.05197266, -0.028474584, 0.1806116, 0.11360763, -0.07757755, -0.031726923, 0.16164784, 0.026439868, 0.13129368, 0.22175802, -0.034887183, 0.10677425, -0.12809764, 0.06116328, 0.09854866, -0.044644244, -0.013162414, 0.042412266, 0.040195756, 0.10671378, -0.015317098, 0.03614772, -0.1364783, -0.27173227, -0.10505846, -0.023212092, 0.15551347, 0.00954634, -0.12499022, -0.06777277, -0.009573624, 0.1323373, 0.17469905, 0.09792681, 0.11811969, 0.16825278, 0.039102666, 0.05894219, -0.19982065, -0.2890022, -0.12843342, -0.13193789, 0.01162582, 0.047392152, -0.05259328, -0.06496522, 0.06405602, 0.07420003, 0.14978954, 0.10866684, 0.146715, -0.083276376, -0.090078235, 0.02347947, -0.00042428903, -0.15499084, -0.19462124, -0.068051025, 0.022175327, 0.08536756, -0.11328244, 0.05842804, 0.038965102, 0.14441702, 0.0995449, 0.1140589, 0.11575867, -0.12281224, 0.08925854, -0.19269924, -0.054719914, -0.2937966, -0.21655458, -0.122317046, -0.03122894, -0.057424475, 0.1281508, -0.16177447, 0.13270728, 0.24932624, 0.12758729, 0.05632861, -0.34285638, -0.3389352, -0.009580089, -0.13281097, -0.02747031, -0.14592183, -0.14255355, -0.08849535, 0.08560307, 0.11306627, -0.094930604, 0.016958173, 0.020707903, -0.046512645, -0.20712271, 0.012259367, 0.015795719, 0.20131326, -0.10976217, -0.037443925, -0.02808786, 0.025482114, 0.103966944, 0.06554001, 0.12906799, 0.24154498, -0.09919009, 0.02972076, -0.009012357, 0.16381589, -0.029208198, 0.01637103, 0.100607, 0.30609187, -0.07506084, -0.0039813938, -0.11674914, -0.39466503, -0.039911967, -0.20626557, 0.036797047, 0.22879015, 0.080138534, 0.064477295, -0.0054996163, -0.014786742, 0.15007314, 0.060947407, -0.032758676, 0.16575289, -0.02150432, 0.043582242, -0.112935774, -0.2647545, -0.056164324, -0.08887369, 0.07258995, 0.0047535496, -0.058782347, -0.024185136, 0.003173026, -0.06603392, 0.013121606, 0.06197758, -0.13681018, 0.064859055, -0.009963702, -0.05679065, 0.07451258, -0.1905435, -0.11900971, -0.12293725, -0.058688935, 0.016632956, 0.04742354, -0.06690666, 0.07335149, -0.09116188, -0.025371911, 0.07209582, -0.006152721, -0.07578461, 0.035514466, -0.0102047045, 0.10818405, -0.26571697, -0.23484863, -0.1525298, 0.0671983, -0.15152194, -0.007629506, -0.15594567, 0.081987806, 0.01769864, -0.24211682, 0.09628997, -0.022391818, -0.34672764, -0.01969761, 0.05260162, 0.03612871, -0.13612413, -0.01511802, -0.16642697, 0.03312619, 0.059264474, 0.02417439, 0.07847436, 0.059229564, 0.13702343, -0.044305377, -0.0073351073, -0.024041852, 0.22844909, -0.038601708, -0.039935395, -0.10105236, -0.36736324, -0.030734768, -0.028493535, -0.03409833 };
  Tensor4D f2 = tensor_init_4d(n_f2, f2_chans, f2_rows, f2_cols, f2_vals);

  // Set up 16 biases (for the second convolution)
  int b2_cols = 16;
  float b2_vals[] = { -0.114460625, 0.016806383, -0.09917909, -0.14412495, -0.013187969, 0.07412982, 0.087796345, -0.08126808, -0.058977943, -0.0952522, -0.023954887, -0.034184806, 0.10201651, 0.014962704, -0.09761327, -0.13586366 };
  Tensor1D b2 = tensor_init_1d(b2_cols, b2_vals);

  // Set up fully connected layers output shapes
  int fc_0 = 256;
  int fc_1 = 120;
  int fc_2 = 84;
  int fc_3 = 10;

  // Set up fully connected layers filters
  float f_fc1_vals[] = { 0.121662036, -0.021132028, -0.15207544, -0.11960918, 0.10655726, -0.08022029, -0.06281012, -0.0018139135, -0.041279517, -0.053295206, 0.0054438314, 0.13309222, 0.094345674, -0.08582817, 0.011968294, -0.1314828, -0.14598653, 0.07176376, 0.0007998322, -0.21406938, -0.15288784, -0.1463063, -0.05359634, 0.002441853, -0.21040404, 0.03551795, 0.043631334, 0.061038632, 0.037035666, 0.04409179, -0.006477442, 0.17081782, 0.0006647676, 0.084257364, 0.10063613, -0.09053474, 0.035987675, 0.12655792, -0.21451025, -0.16546865, -0.007464817, -0.21177079, 0.0975148, 0.059492126, -0.11720141, 0.09669575, -0.23696338, 0.12949365, -0.017820187, -0.02306759, 0.099376105, 0.13212492, -0.044303164, 0.123136684, -0.020875009, -0.06933068, 0.0055828122, 0.03200457, -0.027693853, 0.038903363, -0.017556736, -0.06745876, -0.022829926, 0.13200511, -0.071677335, -0.17876136, -0.10449549, 0.006419441, -0.16885316, 0.14299677, 0.009111319, 0.108752765, 0.14579508, 0.049770094, 0.039349545, 0.19711833, -0.017089386, 0.07169457, 0.034227274, -0.09540404, -0.064801835, 0.06770047, 0.09269389, -0.08412372, -0.19680728, -0.060118906, -0.16144252, -0.095819026, -0.06585014, 0.12927324, -0.030343292, 0.02532167, -0.12735137, -0.0028945168, 0.051161695, 0.09820726, 0.03308184, 0.06456827, -0.009380358, -0.117008805, 0.08406961, 0.19397222, 0.027850237, -0.028015135, -0.06760364, -0.044543404, -0.22436494, -0.06121208, -0.10847322, 0.17038752, -0.07136198, 0.071575575, 0.061762206, 0.0070023043, 0.08414539, -0.12984875, 0.030585421, -0.04729889, -0.1014218, 0.011569695, -0.05770549, 0.40476692, -0.09159547, -0.033200637, 0.12102758, -0.069380835, 0.08067957, -0.02284148, -0.07949921, -0.0252366, 0.13496141, 0.027389573, 0.1646312, 0.15180385, -0.2356999, 0.15455997, -0.048739538, 0.023684682, -0.012227668, 0.07246693, -0.07487094, 0.15944302, 0.15530993, 0.04273674, -0.15324067, -0.14856344, 0.27353418, -0.16330501, -0.019684687, -0.255455, -0.21938808, -0.028365897, -0.20652242, 0.17513439, 0.10571204, 0.018201968, -0.057350267, -0.07610473, -0.22093718, 0.12911701, -0.058986697, 0.11183203, 0.00042198118, -0.014438409, 0.03863636, 0.012679842, 0.23251614, 0.056566406, -0.07316094, 0.24358876, 0.15526953, 0.048571713, -0.30524248, 0.0656477, -0.004284622, 0.01874549, 0.34565222, -0.02903038, 0.07825634, -0.09977795, -0.045727264, 0.1294424, -0.056755643, 0.05268635, -0.22160842, 0.012448741, 0.09850358, -0.0264014, 0.17646913, -0.12135167, 0.0021037075, -0.01648752, -0.36357352, -0.122545876, 0.17084299, -0.09133367, -0.09096383, -0.122232266, -0.06236163, -0.097702086, -0.20034426, 0.23220974, 0.04312582, 0.0103591895, 0.14554624, 0.053891763, -0.014357781, -0.18501188, -0.023589779, 0.09502089, -0.06318552, 0.27000338, -0.11132436, -0.12830321, -0.1032969, -0.0991461, 0.19746664, 0.07358025, -0.003052245, 0.12162448, -0.24688667, 0.21859144, -0.028769808, -0.12478824, -0.058545373, 0.22369061, -0.13052261, 0.18626222, 0.033138286, 0.17306992, 0.0020720144, -0.078270204, 0.090317115, -0.012947853, -0.103490554, 0.08224142, -0.04747842, 0.010989515, 0.028799461, -0.04698066, -0.10891627, 0.07105646, 0.057696782, -0.048499648, -0.17965402, 0.08870777, 0.0072400905, 0.033902053, 0.15393567, -0.024617393, 0.05865587, -0.120033465, 0.07235692, -0.005524239, -0.09121288, 0.035216894, 0.09947117, 0.033719424, -0.056541193, -0.14380321, 0.054896384, -0.0021929955, 0.15425715, 0.04481507, -0.030215029, 0.006524903, -0.00093995954, -0.05180013, 0.031933106, -0.2270808, 0.07519751, 0.048297435, -0.16796863, -0.021538507, -0.063059315, 0.02271135, 0.068977624, 0.06423622, -0.15275614, -0.05111442, 0.027879674, 0.09488684, -0.014180478, -0.014562795, 0.0925625, 0.18143614, -0.09061829, 0.12993616, 0.08437807, -0.038229506, -0.08509991, -0.069933645, 0.1273636, -0.12811473, -0.11501099, -0.05684956, 0.08848049, 0.022624621, 0.027066184, 0.028799746, 0.0012449883, -0.019791365, 0.10469985, 0.035295784, 0.035946816, 0.11757273, -0.066622496, 0.11127336, 0.028433703, 0.06632005, -0.0010562069, 0.006988802, -0.0045587257, 0.21287726, 0.02829327, -0.14406173, 0.081908695, 0.22293645, -0.15398215, 0.0053515187, -0.074494585, 0.013192732, 0.07714175, -0.13472721, 0.011302628, 0.09171296, -0.024618482, -0.08785487, -0.06845747, -0.051222537, -0.07774898, -0.013335679, 0.01811447, -0.08233581, -0.1320489, 0.2297159, 0.13121124, -0.17943431, -0.2225046, 0.092442885, 0.03124686, -0.2340574, 0.21302651, -0.05943812, -0.06787157, -0.17366156, 0.034165896, -0.048640464, -0.015717328, 0.09473175, -0.04930198, -0.06715073, 0.15211862, 0.009033682, -0.022561388, 0.06027715, 0.10877165, -0.04323725, 0.07514689, 0.09732808, 0.15530409, 0.0460708, 0.10578289, -0.08949275, 0.094440326, 0.053924274, 0.025694156, 0.014283062, 0.022324137, -0.20067844, 0.05159653, 0.037640676, -0.3685447, -0.14676526, -0.14119786, -0.059469692, 0.06642924, 0.06683595, 0.09229325, -0.18962361, -0.17029147, -0.07606983, 0.14975092, -0.17174907, 0.0012950504, -0.04290359, -0.08123186, 0.18731505, -0.077610075, 0.17701581, 0.091936626, 0.27353436, -0.0134277465, -0.015166388, 0.0055622524, -0.11154328, 0.119493574, 0.03680913, -0.046080444, 0.073837265, 0.0069845347, -0.2026621, 0.065352954, -0.008106808, 0.10708143, 0.20982231, 0.024044286, 0.22468275, 0.12593523, 0.053351104, 0.016390955, -0.032559335, -0.11656333, -0.14422464, -0.12652482, 0.18287206, 0.058554966, 0.01580528, -0.13481668, 0.21695468, 0.015072552, -0.092081614, 0.11575938, 0.11296095, 0.019360624, -0.20718394, 0.09118246, 0.009174255, -0.0014401774, -0.14114343, 0.075433485, 0.0719516, 0.03389364, -0.095107965, -0.021485684, -0.09355196, 0.1190253, -0.025805153, 0.06492288, -0.0008218582, -0.0014545611, -0.020692995, -0.0064745676, -0.1623141, -0.05908114, -0.0864127, -0.009164709, 0.05196779, -0.035282902, 0.08653455, -0.086771116, -0.073022105, -0.032182213, 0.081396066, 0.009225777, 0.07979121, 0.120572954, -0.10832601, -0.08429925, 0.047228415, -0.15696728, 0.022088123, -0.053807214, -0.10246136, -0.040437046, -0.10724397, -0.119782835, -0.084023304, -0.048580147, -0.078216195, 0.016209716, 0.072431155, 0.07410633, 0.16487226, -0.016400442, 0.08265553, 0.078215115, -0.07431612, 0.012458673, 0.14683291, 0.028436461, 0.010086815, -0.27177846, -0.014947787, 0.16050941, 0.010866288, -0.12594551, 0.034191027, 0.03731827, -0.007845653, 0.0054115183, 0.15699539, 0.11901398, 0.25580338, 0.12071501, 0.16583759, -0.022612482, 0.0032863047, -0.0445141, -0.13723262, -0.11440321, 0.11198967, 0.08858209, -0.013649564, -0.08604939, -0.04734814, -0.17385991, 0.08973073, 0.1449546, -0.20460203, 0.040130083, -0.104327604, -0.011331741, -0.001939301, 0.043733537, 0.058418073, -0.08354832, -0.10131035, 0.09693342, 0.17001496, -0.037097387, 0.11391781, 0.01620021, 0.03189822, 0.045881413, -0.12565568, 0.017255582, -0.090510145, -0.12529564, -0.065365195, -0.10830308, 0.1333642, 0.057381492, 0.1124308, -0.02044828, 0.13370441, -0.089509025, 0.094165124, 0.07105982, -0.11267297, -0.13981467, -0.0032530471, 0.0001457663, -0.10722369, -0.11946685, -0.0011397025, -0.049284395, -0.098069854, 0.16757756, -0.032360997, -0.03591234, 0.0048446134, -0.21138306, -0.07659591, 0.018077994, 0.105809525, 0.041900426, 0.030658117, -0.05741583, -0.11099617, -0.0770123, 0.079569675, 0.13835295, 0.1290336, 0.10235305, 0.011156849, -0.14700645, -0.02035361, -0.016882338, -0.11315034, 0.042046092, 0.04794393, 0.07814019, -0.08364264, 0.11750452, -0.05179257, -0.06757698, -0.08837634, -0.07167491, -0.05761418, -0.17303066, -0.07606407, -0.019905193, 0.012921075, -0.12431654, -0.07197997, -0.0023855101, -0.047381584, -0.013353758, 0.004555652, -0.08541947, 0.015348676, 0.07297461, 0.07928169, 0.13618395, -0.022659639, -0.20274657, -0.10717291, 0.010497269, -0.022272427, -0.11437171, 0.173424, -0.10002554, -0.11065325, 0.06734916, -0.17834416, 0.08458157, -0.05866006, -0.13907565, -0.061349176, 0.24607982, -0.044859894, -0.09557969, 0.17107874, 0.0034978616, -0.038876466, -0.3227472, 0.16465043, 0.079890706, -0.3351543, 0.11342559, -0.11345906, 0.021502992, -0.09585582, 0.11164316, -0.22302742, -0.1393887, 0.09875417, 0.11816385, 0.10218008, -0.14235574, 0.09107533, 0.16924545, 0.0677864, 0.19739923, 0.09644501, 0.061286654, -0.18160042, -0.03879094, 0.00479297, -0.069989264, 0.010497849, 0.1426972, 0.083472304, 0.140594, 0.09446272, 0.16956712, 0.2821654, 0.02771603, -0.13995543, 0.1826942, -0.02875553, 0.15944357, -0.10301623, -0.075623855, 0.18467222, 0.14067379, 0.10470089, 0.13718301, 0.054510683, -0.11609924, 0.16194995, 0.1651608, -0.031095574, 0.070425615, -0.07068866, 0.027738769, 0.03975332, 0.18719403, -0.4439121, -0.09576898, 0.24337387, -0.29063827, -0.31143433, -0.093876794, -0.0023090588, -0.13478014, 0.068351425, 0.047779508, -0.104342945, -0.10790099, -0.053496234, 0.020526022, 0.013687741, -0.10598225, 0.0444838, 0.15104645, 0.0036288882, 0.020285543, -0.02008689, -0.14318092, 0.13553028, -0.12624694, -0.110105194, 0.026445955, -0.034516092, 0.06909475, 0.16257292, -0.041346975, 0.091808304, -0.36301488, -0.10888808, 0.019615695, 0.018175183, -0.048844445, -0.06778734, -0.10160001, 0.027227007, 0.1359725, -0.00930644, -0.056041267, -0.005089087, 0.014299039, 0.033306416, -0.07646588, 0.049383394, -0.13086261, -0.016045533, -0.03465544, -0.040241044, 0.21395843, -0.039710607, -0.043285273, 0.0035145208, 0.052529212, -0.1329126, 0.09259664, -0.029937582, 0.05660146, 0.17078772, -0.16983981, 0.048917893, 0.09519301, -0.18616839, -0.074548535, -0.1060262, -0.092061445, 0.066301726, -0.1112635, 0.077406056, -0.061684772, -0.11912362, -0.056877237, 0.028089082, -0.16770372, 0.14960435, -0.23197328, -0.07262482, -0.035504114, -0.051020663, 0.15661068, -0.03689434, -0.24788383, 0.0035818354, -0.0866606, -0.14811508, 0.027616842, 0.11582446, -0.09900567, -0.05379276, 0.077367455, -0.12513746, 0.13135535, -0.056426644, -0.102753736, -0.014730037, 0.03067393, -0.012124427, -0.06861446, -0.015260878, 0.0108471755, 0.01567373, -0.08579756, 0.07875645, 0.06478329, -0.083751306, 0.05762282, 0.029001404, 0.004706522, -0.065892525, 0.04630591, -0.031038938, -0.10362246, 0.059679907, 0.19925073, 0.11380768, -0.14624667, 0.114428, -0.14535256, 0.21508697, 0.2532463, -0.14408208, 0.06898673, 0.0032257987, -0.2233453, 0.13355088, -0.18921892, 0.122998625, 0.03922961, -0.04716343, -0.0049754647, 0.24493836, -0.17734595, -0.10202143, 0.06427335, 0.083471864, -0.028292447, -0.36300412, -0.112785555, 0.055460706, -0.05528285, -0.14258446, -0.090167925, 0.053721227, -0.31868827, -0.0020606273, -0.0063039125, 0.003338909, -0.13911813, -0.09531034, 0.08138257, 0.1390863, 0.11808091, 0.05902715, 0.09003285, 0.044512954, 0.2089823, -0.03920112, -0.13770902, 0.133565, -0.10781947, -0.054996587, 0.03044868, 0.113352455, -0.07351508, -0.05532591, 0.19532737, 0.058355387, 0.019529635, 0.1172797, 0.12665778, -0.19163574, -0.012231827, 0.0832536, 0.2645248, -0.08907517, -0.07711072, 0.16336253, -0.0495237, -0.09543964, -0.09094301, 0.14512828, 0.06438598, 0.1689528, -0.20852847, -0.050938107, -0.1282857, -0.29887235, 0.073007, -0.116298236, -0.11258206, 0.018123047, -0.06471069, 0.12965104, 0.1383886, -0.17424627, -0.011832602, -0.31129408, 0.20135875, -0.27713495, -0.34561324, 7.3899486e-05, -0.028630223, 0.13606574, -0.0048017767, 0.08127672, 0.02350734, 0.008429455, -0.13371383, 0.045429043, -0.077357545, -0.07180728, -0.051535156, -0.14403744, -0.095487595, -0.08802774, 0.026029414, 0.10542161, -0.053312823, -0.05384098, -0.031972818, -0.107724786, -0.042446204, 0.041247625, -0.06026482, -0.26410866, -0.22066449, 0.14504674, 0.056742016, 0.0015158548, 0.035704024, 0.12227482, -0.1628497, -0.18525009, -0.27628955, 0.20981759, 0.017832743, -0.043907847, -0.11382179, 0.019449085, 0.06178697, 0.11293427, 0.003847334, -0.120360196, 0.22141983, 0.18179654, 0.11878966, -0.020901892, 0.009517199, 0.024457345, -0.078061074, 0.05818095, 0.026781581, -0.053566255, -0.008173717, -0.27879924, -0.21474053, -0.12033896, -0.088892445, -0.0067969514, 0.28019398, 0.033394817, -0.10040876, -0.113808595, -0.088023126, -0.0051709716, 0.07675635, -0.029252322, 0.020058177, -0.13573389, 0.012937002, 0.006154669, 0.009006282, -0.09129786, -0.02017728, 0.25799596, -0.2362176, 0.20282824, 0.065073974, 0.20089081, 0.1067419, -0.024496485, -0.28789923, -0.11262318, 0.03611492, -0.060575392, 0.07332751, 0.034628928, 0.06956998, 0.06885236, -0.009695801, -0.046762593, -0.094970606, -0.055921294, 0.07345625, -0.07651186, -0.065096065, 0.06729677, -0.12258766, -0.20515355, 0.089213915, 0.04920291, -0.011823647, -0.17436908, 0.07500851, -0.12629807, -0.14196764, 0.0108731855, -0.045750402, -0.30694342, -0.05829343, -0.02122503, 0.11288496, -0.13821447, 0.12281221, -0.06330646, -0.084278665, -0.058413487, -0.11107702, 0.074552536, 0.063608095, 0.181173, 0.04851319, 0.17568925, 0.11739639, -0.047440838, -0.022646561, -0.104340464, 0.13206168, -0.06592628, 0.04501435, 0.0014324832, 0.14965203, 0.11200239, -0.02316086, 0.05963001, -0.23391117, 0.06655856, 0.1054253, 0.029813437, -0.16886736, -0.057828072, -0.031722773, 0.17333294, 0.012119866, 0.069408, 0.02940209, 0.11718423, 0.030312924, 0.18579902, -0.13569365, -0.06843843, -0.0040561724, 0.07075859, 0.021138381, -0.009630087, -0.038859315, -0.050369635, -0.12948787, -0.049686093, 0.0804831, 0.03553683, 0.15671496, -0.12519978, -0.08388775, 0.03701532, 0.08816966, 0.08987778, -0.024732394, 0.04246329, 0.0007832494, -0.3215386, -0.007045701, -0.07022174, -0.013701504, -0.15199517, 0.12302861, 0.13572009, 0.022863707, -0.050442617, 0.133178, -0.0883969, 0.04072171, -0.00921295, 0.17612587, -0.03373289, 0.06752404, -0.052075233, 0.18404816, -0.036002886, -0.12435233, -0.060200028, 0.01569413, 0.08069497, -0.018995347, -0.09175319, -0.17538968, 0.075087264, 0.03627299, -0.0035337654, 0.038570337, 0.031195119, -0.061936494, -0.087098755, -0.020971475, -0.016231129, 0.10499191, -0.10413173, -0.046030093, 0.14525151, 0.10048176, 0.11369617, 0.04464798, -0.09475581, -0.0065216087, 0.12623928, 0.0850339, 0.008648684, 0.17636469, -0.05006979, 0.14295037, -0.23356652, 0.052508347, -0.2829354, -0.1953072, -0.08348227, 0.012150134, -0.09966376, 0.02734093, -0.20425162, 0.057097163, -0.10738565, 0.016324006, -0.23976527, 0.03137813, 0.117926694, 0.06305105, 0.17495102, 0.045200296, -0.054993957, 0.03516542, 0.106792755, 0.079013705, -0.10291659, -0.015789263, 0.0712347, -0.050901756, 0.0076606357, -0.09262224, 0.0043095658, -0.0027744684, -0.081859075, 0.016113995, -0.23892964, 0.11101394, 0.0750622, -0.1832316, -0.06576181, 0.07826614, -0.03594994, -0.08381367, -0.11750109, 0.05601116, 0.011561606, 0.104584076, -0.0677193, 0.1511264, -0.2327241, -0.11848591, 0.22297375, 0.068477996, -0.15024982, 0.020330597, -0.015966034, -0.110917374, -0.24011418, -0.2680763, 0.21086283, -0.15129042, 0.008589901, 0.23302822, 0.095613435, 0.08002302, 0.24282736, -0.07462368, -0.030736396, 0.13984282, -0.12084568, 0.037452046, -0.027248241, -0.09173719, -0.03678979, -0.12693632, -0.09301309, 0.22039185, -0.30625427, -0.1688171, 0.031029196, -0.09083235, -0.12771425, 0.009372273, -0.13340801, 0.10092465, 0.025848037, 0.10115518, 0.013415871, 0.023331247, -0.14326555, -0.029131245, 0.07691675, 0.11063175, -0.27145106, -0.14384447, -0.08161579, 0.072238125, -0.2984061, 0.018709168, -0.0343089, -0.17460728, -0.057328653, -0.11256951, 0.09284977, -0.1562839, 0.009585571, -0.008984091, 0.061110172, 0.18507054, -0.114662394, 0.09580914, 0.08983954, -0.13247672, 0.21437015, 0.10467636, -0.006182766, -0.13820522, 0.10306468, 0.09438139, 0.0304943, -0.0009980482, -0.19063959, 0.06389709, -0.07255861, 0.14847799, 0.03369552, -0.0912108, -0.021312028, 0.016988765, -0.016394034, -0.0705033, -0.20230104, -0.22269261, 0.085830875, 0.13110885, 0.0033688694, 0.20793694, -0.049912326, 0.13708703, -0.1117592, 0.027508123, -0.072910085, -0.085672915, 0.016899642, -0.048844013, -0.02923198, -0.034879576, -0.051809862, -0.041861802, -0.14986195, 0.10560946, 0.052744146, -0.060842227, -0.06336193, -0.13266967, 0.018058501, 0.009541471, -0.112890385, 0.059399825, -0.0789476, 0.08135406, 0.17631151, -0.04887076, 0.0149660325, -0.19140807, -0.16733655, -0.105643846, 0.097323276, 0.17718865, -0.108725876, -0.1399911, -0.10215509, -0.003480651, 0.06261907, 0.05351782, 0.06868185, 0.041782573, -0.092801526, 0.117840074, 0.112409525, -0.017637638, -0.22572581, 0.109783076, 0.0027895574, 0.0686362, -0.062420055, -0.23071767, -0.12560107, -0.06818393, -0.14476444, 0.09786686, 0.1092613, -0.10853947, -0.1540347, 0.10636295, 0.068597205, 0.26701468, -0.24020365, -0.006594239, 0.13015778, -0.01895629, 0.04813248, 0.007581819, 0.046555318, 0.011647964, 0.023984157, -0.08902031, -0.094644204, -0.014067242, 0.13233113, 0.1292598, -0.15130842, -0.061441924, -0.048362, 0.12527233, 0.02463143, 0.13213767, -0.005542862, 0.12798385, -0.1908355, 0.09635072, 0.050618995, 0.06458899, -0.0389389, -0.03290816, 0.09139887, -0.08072494, 0.022156449, 0.057138976, -0.09736645, -0.0030719412, -0.07538164, -0.0058175623, -0.043440692, 0.17562525, 0.06549793, -0.16613849, 0.33917263, 0.020498214, 0.09388345, 0.15692426, -0.10906476, 0.025126504, -0.08282112, 0.039950464, 0.19224945, 0.07035592, -0.11988259, 0.22085093, -0.265007, 0.09743349, -0.14250255, -0.15040658, 0.13415892, 0.06388738, 0.003591004, 0.09476831, -0.09787895, -0.022481345, -0.10229306, -0.0127085885, 0.15507603, -0.28859922, 0.18469155, 0.19128887, 0.08427164, -0.1928603, 0.06809853, 0.09881573, 0.043061256, 0.051696505, 0.20381486, 0.11031623, 0.124739125, -0.11793035, -0.124101505, -0.14449923, -0.070637524, -0.05607923, -0.21559794, -0.11763093, -0.13347371, 0.0944831, -0.1206312, -0.11293283, 0.045061275, 0.115299426, -0.18875362, -0.15108049, 0.032759015, 0.015309465, -0.026945323, 0.049080543, 0.120981574, 0.09562133, -0.23516156, -0.16403024, 0.17608985, 0.17395039, -0.13987325, 0.009710785, 0.13988015, -0.14750114, -0.04037171, 0.31929797, 0.13803649, 0.11671588, 0.060728256, -0.026292125, 0.23012184, 0.0073893094, 0.08447038, -0.012479286, 0.1391536, -0.08071237, 0.20459087, 0.2825321, -0.34878772, -0.25996944, 0.11805024, 0.07287185, 0.08431099, 0.022321738, -0.097664215, 0.054784495, 0.07868752, -0.08792129, -0.0031483986, 0.04764772, 0.14054063, 0.078531235, 0.069461636, 0.19284672, -0.15577431, -0.014096633, -0.082756765, -0.1819463, 0.11614728, -0.1790266, 0.009412891, -0.05623931, 0.08987684, -0.05735179, 0.11574034, -0.1737423, -0.12423392, 0.4026411, -0.1244387, -0.012510701, -0.05479389, -0.008448668, -0.02923119, -0.033675022, 0.10521358, 0.068714954, 0.008335643, -0.22057386, 0.2911374, -0.06535156, 0.030545311, 0.15506752, -0.05899474, 0.07687482, 0.07657086, 0.0018676086, -0.21727683, -0.21806124, 0.045977093, -0.0227879, 0.00020413176, 0.038639467, -0.17010291, 0.04376133, -0.30937448, -0.007572013, -0.12097762, -0.16908845, 0.13831748, 0.024983097, -0.101195276, -0.0255718, -0.036092635, -0.20942749, 0.03288563, 0.029996112, -0.14122906, 0.073298335, -0.0873987, 0.13380533, 0.20531464, 0.02468841, -0.27941158, -0.035729866, 0.05086815, 0.05248924, -0.13905314, 0.18682517, -0.020038016, 0.030753586, -0.081631035, 0.097660966, -0.03071928, 0.002825769, 0.015944747, -0.16761479, 0.11781696, -0.057976793, -0.14871144, 0.029171284, -0.04802441, -0.18586695, -0.119188495, -0.12537803, -0.18667026, 0.09203852, -0.07625435, -0.022439469, -0.17688951, 0.01740861, -0.015723927, -0.038482137, 0.15425408, 0.048748214, 0.14009474, 0.039909128, 0.22841664, -0.3121662, 0.093212634, 0.120903656, -0.021185627, 0.15200046, -0.08125162, -0.06373067, -0.043239776, -0.16860656, -0.08175753, 0.09584851, -0.018588388, 0.03234535, 0.10075046, 0.030181399, -0.11812767, 0.048177645, -0.14727744, 0.07177756, 0.056175385, -0.08304373, -0.08949894, 0.15835151, 0.043105662, 0.06946073, -0.039425872, 0.011427318, -0.037483163, 0.21095334, 0.017046371, -0.115474395, 0.0418264, 0.0056294766, -0.08579824, -0.11387228, 0.049353585, -0.094275236, 0.09088851, 0.13655378, 0.22449431, 0.13562213, 0.0011249948, 0.066775724, 0.075068966, -0.13848658, 0.12653759, -0.07592741, 0.1911583, 0.05803784, -0.06865744, -0.01010776, 0.19822223, -0.13359918, -0.10976036, -0.34738627, 0.04447019, -0.20300077, 0.10231758, 0.42713642, -0.061461013, -0.056640316, 0.40802804, 0.11228025, -0.014006089, -0.13692947, 0.29802853, 0.0042500678, 0.11538634, -0.016714483, -0.0153437825, -0.18712516, 0.38541517, 0.36312923, -0.24179079, 0.10658295, -0.08694608, 0.037119493, -0.1281244, -0.2892424, -0.1398832, -0.15053076, -0.14520034, -0.059790827, 0.07820638, -0.08128077, -0.04420283, 0.091601655, 0.48241434, -0.32979077, -0.056341484, 0.04170689, -0.09089124, 0.10156253, -0.31931528, -0.12033516, 0.36057198, -0.1483993, 0.2442218, -0.09875595, -0.12653576, 0.19484608, 0.107561365, 0.4503942, -0.031711336, -0.51966333, -0.32822138, -0.12281468, 0.1769582, -0.13474657, -0.14980125, 0.014445984, 0.31912994, 0.070596755, 0.14212278, 0.22277755, 0.015994065, -0.024355268, -0.28486702, -0.0752113, 0.15461348, -0.37226263, -0.198112, -0.16663848, -0.18102315, -0.22947538, -0.006223372, 0.12418159, -0.20156536, -0.06409417, 0.42175046, 0.50088936, -0.096841216, -0.010496197, -0.07958625, 0.08978427, -0.16882639, 0.07680266, 0.18061344, 0.09594427, 0.008667466, -0.02750081, -0.14377607, -0.28818977, 0.09143157, -0.009399676, -0.23476501, 0.12208337, -0.20702416, 0.21103835, -0.088090844, -0.026834168, 0.062939554, 0.4333235, -0.26666564, -0.1374495, 0.16639635, 0.036908537, 0.34473342, 0.08140744, 0.035615917, 0.21493958, -0.08435987, -0.09899472, -0.07079882, -0.13247329, -0.23582892, -0.051992867, 0.15755422, 0.040966306, 0.115547314, -0.13365, 0.23454225, -0.003984491, 0.029184606, 0.16602024, 0.048563953, -0.11817547, 0.024880748, 0.17227323, -0.039624985, -0.16935137, -0.047416184, 0.1120213, -0.0403112, -0.015063169, -0.10023108, 0.070793234, -0.25723782, -0.05978348, -0.026670042, -0.14417088, 0.14357895, -0.10693742, -0.019402519, -0.07513311, -0.12871315, 0.13973826, -0.13548939, -0.022406256, -0.18139024, -0.10767716, -0.16638616, -0.10397068, 0.07846901, -0.19823118, -0.074798495, 0.189133, 0.23478271, 0.18847412, 0.07243591, -0.013731979, -0.09220504, -0.005618187, -0.14418662, -0.09381154, -0.048475914, 0.1387674, -0.02639108, -0.18770517, -0.10385152, 0.046437923, -0.21899936, -0.1363453, -0.17097194, -0.11791942, 0.0027124847, -0.09057869, -0.15425247, 0.04943054, -0.16306423, -0.09440203, 0.09792165, -0.098202884, 0.14306429, -0.0444393, 0.039252043, 0.05774195, 0.004080372, -0.048926104, 0.15979378, -0.12080945, 0.047032308, 0.051720235, 0.13783398, 0.052836493, -0.011973152, -0.1379813, 0.037199087, -0.07083741, 0.14217842, 0.22490509, -0.06454493, -0.14611141, -0.06135439, 0.0035802068, 0.014550194, 0.05580069, -0.024338992, -0.008909312, 0.21964243, -0.09887311, -0.02685828, -0.0075295223, 0.09454853, -0.03601957, -0.13862486, 0.25127664, 0.11082029, 0.12607194, -0.08505867, 0.09265035, -0.08622494, -0.022128928, -0.101806626, -0.042687654, 0.117082745, 0.007031999, 0.14842036, 0.005511487, 0.19068043, 0.01966977, -0.03750968, -0.04449917, 0.020095836, -0.039318234, 0.058078688, -0.12453318, -0.044846576, 0.06609924, 0.066680826, 0.25663242, -0.2188886, -0.03675699, 0.0625891, 0.0680612, -0.08258526, 0.11184995, 0.027539019, -0.05487655, 0.085858986, -0.07165126, -0.13531522, -0.18249552, -0.097039476, 0.120207585, 0.064352736, -0.05307793, -0.10981929, 0.18359117, -0.0064018047, -0.049430754, -0.31586203, 0.12587237, -0.07611349, 0.26188517, -0.27365777, 0.005891376, 0.04477708, -0.18119955, -0.02954706, 0.16410668, -0.0041906014, 0.054024316, 0.118163556, 0.094159834, -0.13947526, -0.1529391, -0.17312641, -0.115258805, -0.087116085, 0.016739491, 0.19928983, 0.03722983, 0.18667279, -0.20601231, 0.18114872, -0.12509625, -0.10392258, 0.070746124, -0.16259451, -0.21697885, 0.081353545, 0.23087169, 0.10318849, 0.042135213, 0.06891398, -0.019667339, 0.08202278, -0.13312268, 0.14754818, -0.051293902, -0.3064331, -0.10405474, -0.05958878, -0.00010769497, -0.31644565, -0.0044855867, 0.22415294, -0.024829756, -0.108996816, -0.19527592, -0.16721804, -0.047627907, -0.058194492, 0.076492734, -0.063158765, -0.24958485, -0.08107312, -0.007929105, 0.11592925, -0.015053987, -0.15508856, 0.075966366, -0.10316223, 0.035646796, 0.10983922, 0.124852315, -0.07520933, 0.081590235, -0.14562869, 0.12028914, 0.2385179, 0.01315032, -0.03375021, -0.05793036, 0.2538676, 0.0111090485, -0.04674232, 0.0042504407, 0.022649264, 0.34002438, -0.1293373, -0.014593829, -0.14285715, 0.106971145, 0.1375666, -0.05852505, -0.12641202, 0.107761875, 0.05146057, -0.20885168, 0.0086066015, -0.016475476, -0.13673061, -0.016220821, 0.14275116, 0.12178402, 0.026066197, -0.13640313, 0.053764302, 0.008837875, -0.17207448, -0.019160181, -0.09165541, 0.076034226, -0.101518944, 0.03539298, 0.14863078, 0.08148398, 0.014356249, 0.12605654, -0.059966788, -0.009635414, 0.019123154, -0.04187622, -0.15394586, 0.06045882, -0.054618295, 0.0050371177, 0.068797864, -0.09785453, 0.079852276, -0.20003587, 0.11060042, -0.18302836, -0.13016318, -0.055496316, 0.051290832, 0.020367816, -0.028754607, -0.014650488, 0.020957803, -0.10422846, -0.040185224, -0.18406919, -0.13652617, 0.013593791, -0.1823413, -0.031370994, -0.012270774, 0.1001849, 0.032584067, -0.12798746, -0.08130878, 0.0025208946, 0.037793256, -0.07162904, -0.013094515, -0.104366995, 0.0068062223, -0.09272725, -0.043838188, -0.10073715, 0.16629724, 0.08360902, -0.05298708, 0.02215805, -0.086700864, 0.13532838, 0.11733948, 0.116569616, -0.03957343, 0.007525663, -0.14405718, -0.079091385, -0.031156756, -0.037855722, 0.0725802, -0.039216634, 0.060002245, -0.08943133, -0.0037399915, 0.12807608, -0.04581659, 0.12360599, 0.09237841, -0.059352603, 0.019716764, 0.035491973, -0.060259707, -0.09028498, 0.09958836, -0.021417899, -0.14272225, -0.15820615, 0.06302664, -0.0462002, 0.036860965, 0.0047412063, -0.0629004, -0.064592786, 0.10339856, -0.057545017, -0.08422035, -0.12305572, -0.1127174, -0.10599513, 0.09101427, -0.009084053, -0.033759754, 0.045989882, -0.1019195, -0.065111816, 0.012516777, -0.09342454, -0.019547235, -0.13256101, 0.045014083, 0.11046196, 0.09379388, 0.002996785, 0.024639364, -0.1022698, -0.020165304, 0.020711398, 0.044421796, -0.15928602, -0.07520785, -0.08970546, 0.07434186, 0.21309504, 0.15394653, -0.13189347, -0.031729843, 0.061391953, 0.032034997, 0.082545996, -0.10287027, 0.1333636, 0.051901978, -0.17646147, -0.0599053, -0.17972577, -0.03470274, -0.051125932, -0.12459102, 0.019710166, 0.08073078, 0.03710448, -0.10128989, 0.17879428, -0.08871335, 0.024892941, -0.08701487, 0.0019111575, -0.13843955, -0.03568179, 0.012852483, 0.06928601, 0.11144166, -0.05391396, -0.05589146, -0.011766078, -0.46734095, -0.057150237, 0.05710983, -0.11848428, 0.19035906, -0.09722938, -0.18637566, 0.13548268, -0.14066121, 0.06913321, 0.15271378, 0.0025290377, 0.2694166, 0.21351647, -0.18653442, 0.0058828387, -0.034850087, -0.010245767, 0.035664145, 0.11848812, -0.092581645, -0.08863268, -0.03655215, -0.028789887, 0.1096329, 0.001755895, -0.029982334, -0.07825061, -0.1542957, 0.10416273, 0.12504853, 0.18559976, -0.12794775, 0.022088151, 0.15110622, -0.3661176, -0.37622607, -0.034948476, -0.1088107, 0.036550585, 0.06481061, 0.08521404, 0.052661218, -0.116958186, -0.068980485, 0.056108575, 0.07938162, -0.03811449, -0.1975859, -0.078753166, -0.038294774, 0.0047457647, -0.025654942, 0.007291433, 0.08990523, -0.04601674, 0.067263015, -0.03722062, -0.006914882, 0.18297498, 0.1340437, 0.019929737, 0.08234561, -0.0766043, 0.09627571, -0.1309161, 0.040993348, -0.09650405, 0.097711, -0.08755351, 0.089996435, -0.06416367, 0.17219497, -0.09344012, -0.062077183, -0.092215925, 0.14202413, 0.05810704, -0.037663076, 0.09458172, 0.006864479, -0.06554108, -0.079313114, 0.10237823, -0.017154017, 0.09028886, 0.053677402, 0.03428592, 0.10844618, -0.023339383, 0.21402179, 0.117538005, 0.0035633577, -0.013752522, -0.26533028, -0.067182526, -0.12286599, -0.11216539, -0.0014130222, 0.09261756, -0.061948694, 0.18162794, -0.27352607, -0.1588967, 0.06827975, -0.06233456, -0.13520749, -0.105843104, 0.04930373, 0.1737595, 0.054683384, 0.016239049, -0.06508245, -0.16004515, -0.05739383, 0.07749048, 0.008315615, -0.1332717, -0.0798271, 0.0011750689, 0.056266658, 0.06614667, 0.13197473, -0.044987187, 0.055067927, 0.020686975, 0.064201936, 0.18052275, 0.13546588, -0.2663619, -0.16364594, 0.09185144, -0.08395609, -0.32989115, -0.04571732, 0.05593449, 0.032302737, -0.12104104, -0.079792395, 0.07041123, -0.08600125, 0.13960065, 0.04011952, 0.04564051, -0.02509499, -0.05376483, -0.19969256, 0.033380207, -0.0031027216, -0.04044803, 0.14121442, -0.09168257, 0.05914893, 0.055374723, -0.043595158, 0.215191, 0.17497912, -0.10270527, -0.16527726, 0.073619775, 0.08092679, 0.14826213, 0.0067845825, 0.04148961, -0.19688784, -0.026483709, -0.2573382, -0.12576906, -0.16646342, -0.05514753, -0.087166555, -0.13597181, 0.0119568, 0.03602334, 0.08312378, -0.09130911, 0.0792296, 0.081203364, 0.20706864, 0.06867809, 0.117134966, 0.07977036, 0.23029417, -0.017000485, -0.21647172, -0.08697515, 0.03436487, 0.06019462, -0.0047417386, 0.06579178, -0.036279935, -0.2344897, -0.1184481, -0.032283, -0.12145524, -0.1496237, 0.013399969, -0.13121608, -0.061553072, 0.07563556, 0.11004712, 0.08166182, -0.034709323, -0.08109592, -0.011653231, -0.01024423, -0.12729609, -0.1357824, 0.08275214, 0.08240717, -0.10056191, 0.022817144, 0.2241341, -0.040304195, -0.19652255, -0.1942076, -0.092287295, -0.040036645, -0.08594376, -0.011942947, 0.116321966, 0.04709648, -0.06574327, 0.1933058, 0.028649086, 0.07653959, -0.12840591, 0.09329445, -0.008980783, -0.11761045, 0.0421432, -0.036817517, 0.19594426, 0.10105561, -0.10854871, 0.12952682, -0.023529215, 0.043705855, 0.09897823, -0.035925075, 0.045470648, -0.15934065, -0.16330867, 0.06516797, -0.10524118, -0.004404894, 0.010591179, -0.015206424, 0.12762035, -0.16798139, -0.059010968, 0.06504745, 0.056096904, 0.037987754, -0.022035258, 0.030951016, -0.08016003, -0.18959017, -0.01100531, 0.02376398, -0.09123228, 0.16131622, -0.005070966, -0.054793842, -0.07030821, 0.12245816, 0.025736475, 0.051348772, -0.25082082, -0.23143749, 0.06803686, -0.10071418, -0.1715228, -0.1392678, 0.0091032395, -0.0037965032, 8.5791035e-05, -0.090062395, -0.14570683, 0.075012274, 0.049781907, -0.04355795, 0.009312306, -0.091747984, 0.12538053, -0.10983004, -0.17317218, -0.10146592, -0.022271235, 0.12362858, 0.11975768, -0.07652295, -0.02221366, -0.12148181, 0.18717712, -0.0933178, 0.13604344, -0.11948757, -0.01489078, 0.06458252, -0.02100496, 0.14313135, -0.017411297, 0.076414965, 0.06479951, -0.1400494, -0.09883263, 0.059722725, -0.09080952, 0.0026276237, -0.19902843, 0.081480265, -0.045132723, -0.04725124, -0.038674574, 0.033461474, -0.008873917, -0.1828635, -0.047313895, 0.034383547, 0.030905847, -0.018634083, -0.10290898, -0.19571236, 0.12743828, -0.035937168, -0.12625374, -0.035781216, 0.02455244, -0.075086795, 0.02016871, -0.11356294, -0.08483078, -0.06287957, 0.045780163, 0.091579944, 0.21491082, -0.015608085, 0.045705277, 0.01177946, -0.117274515, -0.10980272, 0.20352452, 0.086347654, 0.16759847, -0.06836351, 0.0303166, -0.071939036, 0.07507938, -0.03313844, -0.064403005, -0.081680834, -0.01836239, -0.074249074, -0.10759686, 0.14782897, -0.03390221, 0.056315567, -0.041046597, -0.068489194, 0.21730451, 0.008269632, 0.046079345, -0.15114267, 0.10896634, 0.13813412, -0.08127591, 0.017192723, -0.03460733, 0.16754515, -0.1650095, -0.0062233834, -0.0033972114, -0.13946928, 0.1566957, -0.06235815, -0.019664494, 0.015337613, -0.11008534, 0.10140925, 0.09700885, -0.0920521, 0.015046672, 0.026902985, -0.051538613, 0.010861034, -0.17200734, -0.030575467, 0.018605474, 0.056220535, -0.014446016, 0.054264847, 0.045965414, -0.082447715, -0.06454972, -0.13802065, 0.06392111, 0.15260099, 0.080250055, -0.025703931, -0.049757656, -0.14121674, -0.033123966, -0.036178146, 0.12036173, 0.055533204, -0.032677542, 0.030072713, 0.17287375, -0.018985929, 0.03484725, -0.14439806, -0.12008287, 0.015599969, 0.03394611, -0.13394783, -0.05417998, 0.030401072, 0.00764354, -0.055312112, 0.0931251, 0.2351762, -0.16451974, -0.036085498, -0.10728145, 0.09082458, -0.069943644, -0.23454747, 0.13660386, -0.09007889, 0.1909466, 0.019740654, 0.0220762, 0.061475188, -0.06561814, 0.046731487, -0.184746, 0.10989097, -0.07217983, 0.066847734, -0.06716763, -0.049834367, -0.09606505, -0.053090557, 0.2254911, -0.05607305, -0.09477611, 0.15028307, -0.22897181, 0.022228673, -0.14690472, -0.23460475, -0.12186677, -0.095443875, 0.036124457, 0.20269349, 0.3789439, -0.0038471958, 0.2401789, 0.015475153, 0.02521781, -0.0038588247, 0.038080692, 0.038898382, 0.1389276, -0.030231465, 0.045366585, 0.070964396, -0.20180994, 0.089049295, -0.08201401, -0.056654118, 0.012224014, -0.016126761, -0.09878024, 0.056658227, 0.0050022225, 0.2451447, 0.11124547, 0.09570463, -0.053931434, 0.045674507, -0.058927715, -0.07284212, 0.095122755, 0.007462087, 0.10069751, -0.073171996, -0.028004222, 0.10866247, -0.03605029, 0.019551614, 0.007485157, -0.1587999, -0.0061287023, 0.12023208, 0.1464901, 0.11227591, 0.015923116, 0.13149127, 0.074910596, -0.08755173, -0.26823062, 0.027478188, 0.22154126, -0.06764658, -0.1271132, -0.06595171, 0.17364392, 0.08985971, -0.10226295, 0.32867926, -0.05944021, -0.023116134, -0.07891648, -0.17266695, -0.014023671, -0.06702698, 0.17794725, -0.08363559, -0.04444494, -0.2556925, 0.053775415, 0.097483285, 0.21072789, 0.1724292, 0.13670187, 0.19808571, 0.08025914, -0.018848684, -0.043789085, 0.105274335, -0.033257347, -0.006631332, 0.19294602, -0.05213856, 0.073887005, 0.12922996, -0.06440764, 0.001720879, 0.13490386, 0.1953688, -0.014309279, -0.2502511, -0.16768059, -0.14200677, -0.042760167, -0.034602914, 0.19037691, 0.08751616, -0.0022069379, -0.038622335, 0.1421675, -0.01731131, 0.07463494, 0.061203275, -0.087706245, -0.11137714, -0.09635235, -0.2073895, -0.12801069, 0.068780996, -0.17269903, 0.17924313, -0.20276229, -0.08322774, 0.020305617, 0.08771978, 0.037165795, 0.02419289, 0.17632459, 0.16756803, -0.03000645, 0.028583145, 0.09671515, 0.08131727, -0.11693582, -0.037785795, -0.1944234, -0.013345065, -0.040420108, 0.1144317, 0.019852955, 0.02694975, 0.008266677, 0.08885401, 0.047168583, -0.15585122, -0.05829374, 0.101095125, -0.03201446, 0.024353782, -0.0367018, 0.14765817, -0.03534193, -0.111839555, -0.047952272, -0.064295664, -0.0998247, -0.06387592, 0.006375065, 0.12471291, 0.09843631, 0.16115952, -0.13562056, -0.03859327, -0.1687935, 0.08032764, 0.01788393, -0.196236, -0.040372316, -0.26493412, -0.09089348, 0.0337877, -0.12362948, -0.035099708, 0.12816367, -0.03256688, -0.11988434, -0.16819921, -0.04093054, 0.0074821743, -0.012296444, -0.023522569, -0.21006952, 0.028292157, 0.116366856, 0.03056097, -0.12582183, -0.10338833, 0.020181276, -0.122206956, 0.038658265, -0.0067383694, 0.12482022, 0.00797288, 0.14269614, -0.077198796, 0.10815225, 0.016979069, 0.025581071, 0.059448626, 0.071890384, -0.04667593, 0.06426816, 0.08276281, 0.06042956, 0.0055241412, 0.10665004, -0.08776787, -0.20618002, -0.14174783, 0.06928823, 0.062028833, -0.09074643, 0.014233818, -0.24855144, -0.1719801, -0.083327666, 0.12652002, -0.07753309, -0.25228068, 0.014035208, 0.014514175, 0.1913776, 0.0957411, 0.07313455, -0.11223941, -0.10831336, -0.04103094, 0.06551474, 0.023117656, 0.09861573, -0.086349584, 0.11857342, 0.0024266313, -0.024929335, -0.026687475, -0.12136353, -0.04939935, -0.11792167, 0.10334485, -0.009722309, 0.11223324, -0.011301967, 0.03071412, -0.033252135, -0.22362472, -0.07031142, -0.0035748705, 0.026279489, -0.023387687, -0.24701187, 0.037435316, -0.028214145, 0.14769441, -0.29005066, 0.123974144, -0.05612733, -0.124358736, 0.07424873, -0.042130996, -0.2056596, 0.13662733, 0.15427056, -0.04018207, -0.2373124, 0.06158435, -0.029001215, 0.2266001, -0.081930175, 0.10167773, -0.038881507, 0.077874504, 0.23238108, 0.059698965, 0.1464722, 0.024268141, -0.034337603, 0.08818965, -0.089108974, 0.017717252, 0.036115166, 0.093328446, -0.16063683, 0.19298798, 0.06786794, -0.2259278, -0.036439277, -0.23375571, -0.111849144, -0.07431911, -0.17250544, -0.09204029, 0.018653832, 0.060860407, -0.015198027, -0.11835224, 0.01388889, -0.3132988, -0.061948646, -0.2269313, 0.1554955, 0.057215694, -0.10587853, 0.115681596, -0.009176257, -0.032108705, 0.24624105, -0.046697743, -0.045405447, 0.118617274, -0.09818683, 0.15425323, 0.024804657, 0.29095393, -0.10952467, 0.18971956, -0.042858344, 0.32072425, 0.20725046, 0.11180615, 0.010082708, 0.11563459, -0.13378403, -0.05581188, 0.004954891, 0.03379725, -0.05259744, -0.057456043, 0.015285751, -0.08872275, -0.15503782, -0.09047195, 0.09493228, 0.0049970075, 0.105982974, -0.023363017, -0.074573636, -0.04676712, -0.26120165, 0.10506308, -0.06483299, -0.06529525, -0.21377495, -0.014537876, -0.05858096, 0.02736114, -0.07259628, -0.096404165, 0.12653765, 0.07048535, 0.005005387, 0.03606383, 0.06186546, -0.23998965, -0.023318484, 0.03557258, 0.02818849, 0.056350686, -0.0517471, 0.04277766, 0.1496582, -0.07859838, -0.14777786, -0.09800098, -0.08139882, 0.06944018, -0.031046588, -0.09237721, -0.019582663, 0.093346596, 0.01750354, 0.084511176, -0.058817066, 0.18611217, -0.08397708, 0.037943184, -0.10003973, 0.07588328, 0.17705451, 0.0306695, 0.04566671, 0.0029015907, 0.14036459, -0.14273588, -0.010977559, 0.054742258, 0.03309692, 0.115464, -0.027511954, -0.014540882, 0.1324134, 0.015908109, -0.019415474, -0.092101425, -0.060422212, 0.2008959, -0.022876112, -0.05565413, -0.025211561, -0.034833606, -0.058039423, 0.030667448, 0.06464723, 0.08276071, -0.073848985, -0.053105555, 0.07722842, -0.299767, 0.100710444, -0.13623995, 0.08533083, -0.026235836, 0.07506805, 0.008373743, 0.009629342, -0.0053480086, -0.08805093, -0.22989112, -0.004912758, -0.003928922, -0.035788216, -0.019507391, 0.07143663, -0.005411057, 0.08632034, 0.0012769408, -0.042969268, 0.023903336, 0.08712975, -0.026649091, -0.10781131, 0.07478835, 0.0038948872, 0.104250096, -0.07088445, -0.0863869, 0.17218587, 0.07313079, -0.035767816, 0.12167219, -0.12607004, -0.11438648, -0.09895245, -0.12961286, -0.07802783, -0.044606276, 0.07239553, 0.086636096, 0.123130016, 0.06220422, -0.15638758, 0.03194404, 0.0809581, 0.0053418386, 0.08167313, 0.13754909, -0.037955683, -0.11403026, -0.027660491, -0.1052121, -0.12559363, -0.102871835, -0.15155275, -0.017198082, -0.12968469, -0.039526794, -0.14502515, -0.0070645935, 0.10740306, -0.0015946138, 0.018030835, -0.02181774, 0.020013476, 0.017367767, 0.0141176805, 0.0713727, -0.015458364, 0.0525921, -0.06441679, 0.08554167, 0.16435613, 0.08526658, 0.050177947, -0.004340941, -0.02881087, -0.04454409, -0.0035356544, -0.05346458, -0.05724496, -0.09440671, 0.26862267, -0.14457354, -0.07979921, -0.2877918, -0.09728447, 0.08439432, -0.20825, -0.06134129, 0.100453906, 0.06535952, -0.23576191, -0.011692342, -0.22962797, 0.115308106, -0.16435987, -0.11129146, 0.09928938, 0.082309194, 0.1257056, 0.18029481, -0.05178506, -0.043009445, 0.08090974, 0.015785063, -0.0645681, -0.037609458, -0.026518926, 0.04327325, 0.12834693, 0.100720644, -0.32021996, -0.08943689, 0.0025138252, 0.19528125, -0.060872845, 0.09535317, 0.07260238, 0.029211292, 0.1488135, 0.051338445, -0.00043822653, 0.30891323, 0.07359579, -0.08174158, -0.08965157, 0.00023314368, -0.02745253, 0.22392856, -0.18637203, 0.19219184, -0.110922426, 0.011785682, 0.036501702, -0.011211304, -0.014796878, 0.08557343, -0.18696983, -0.06778727, 0.008426205, -0.13799897, 0.14989637, 0.1478734, -0.12939209, 0.08146838, -0.099283315, -0.13469598, 0.11931822, -0.081061035, -0.19284318, 0.08004027, 0.021468049, 0.026299257, 0.08796065, -0.2008332, -0.09194695, -0.16043174, -0.2658099, -0.063381985, 0.10833403, -0.018081902, 0.060565088, 0.023752209, 0.07159159, -0.14142251, -0.04471583, 0.041903168, 0.03757162, 0.13043971, -0.093547635, -0.042203303, -0.015185675, 0.0069877803, -0.08158718, -0.1552277, 0.07963351, 0.08132546, -0.1663332, 0.11181342, -0.08996841, -0.067710266, -0.04257979, 3.548192e-05, 0.017938849, 0.015470121, 0.16956939, -0.12020103, 0.058450308, 0.17501383, -0.032214742, -0.06551053, 0.034254927, 0.083391376, 0.014925035, 0.04699539, -0.076483205, -0.14939877, 0.03489552, -0.040838953, -0.18177438, -0.116130404, 0.08584684, -0.00083012524, -0.102431305, -0.0071617053, 0.005798758, -0.019214386, 0.14509232, 0.050529484, 0.00092918635, -0.23033379, 0.016337147, -0.08981429, -0.13415997, 0.14700225, -0.07509468, -0.10944493, 0.003465943, -0.24887107, -0.07862214, -0.044195276, 0.17505057, 0.037213493, -0.0066871257, 0.1901568, 0.03241674, -0.038127996, -0.049435556, -0.004394726, -0.2742012, -0.30015644, -0.05271652, 0.0023852088, -0.057136077, -0.07374129, 0.04542397, -0.017852455, -0.079112716, -0.16178921, 0.13966791, 0.059445575, -0.06453311, 0.11643604, 0.24974038, 0.055809584, -0.23620366, 0.10985468, -0.03583876, 0.2121943, -0.1232008, 0.09535717, 0.16370621, -0.015102816, -0.11933925, -0.0734449, 0.055639744, -0.008637074, 0.17657427, -0.16927908, -0.068428226, 0.13434595, -0.11680426, -0.093647756, -0.121626206, -0.027957644, -0.11696028, 0.007359379, -0.077862136, -0.064397275, 0.067858785, 0.07610717, -0.059605077, -0.043796405, 0.06942764, -0.13035433, 0.078038566, -0.101202704, 0.08622269, -0.0829198, 0.26815933, -0.023251006, -0.04433217, -0.13177949, 0.018741949, -0.030610207, 0.14088218, 0.09816869, 0.04822327, -0.10885982, 0.08860103, 0.11705021, 0.047811396, 0.072058514, -0.1275937, 0.033888724, -0.04679305, 0.039264545, -0.1773911, -0.1174099, -0.2787186, -0.11579112, -0.007988634, -0.0021171637, 0.009900156, 0.1633564, 0.12144015, 0.17074873, 0.00273333, 0.039726228, -0.083040625, 0.020169307, -0.106848836, 0.12936425, 0.00020538515, 0.19837917, 0.012979662, 0.18470864, 0.32983354, -0.08376167, 0.018556908, -0.022635696, -0.16921888, -0.16773465, 0.2595892, 0.0104249455, 0.009844023, -0.20330262, 0.15364051, 0.09021383, -0.119270414, -0.068153545, -0.14356957, -0.04330096, 0.07381755, -0.26457453, 0.019891545, 0.083629735, 0.16755657, -0.015947262, -0.1459416, -0.0048451135, -0.19747691, -0.33609137, 0.15868469, 0.11803732, -0.04421815, -0.0065838983, -0.10611814, -0.10026399, 0.2061194, -0.03304498, 0.27936313, -0.11915065, -0.034799974, 0.11594205, -0.0879488, 0.044172123, -0.250673, -0.12379646, -0.29595628, 0.073250756, 0.018883137, 0.012777489, -0.052747373, -0.05150202, 0.13065813, -0.19985457, -0.20338102, -0.08527203, 0.07836466, -0.37414226, -0.064873196, -0.05850982, -0.018109748, -0.0028084936, -0.51532066, 0.056183964, 0.12707801, 0.086294904, 0.0039051266, -0.15245363, -0.0019210838, -0.1838167, -0.1242681, 0.054066174, 0.010760769, 0.06121233, 0.061480332, 0.20240352, 0.14601354, -0.119754, -0.08652681, 0.14557767, -0.06565433, 0.033537682, 0.007474124, 0.10279634, -0.1690046, -0.20334554, 0.019092731, 0.00011847047, -0.24076831, 0.23011042, -0.07010479, -0.013056701, 0.18539505, 0.23919383, -0.14594655, 0.0066320836, -0.054966312, 0.055803843, -0.33477607, 0.19151236, 0.04259117, 0.045845035, -0.03914517, -0.17582771, 0.25603688, -0.0013583296, 0.3737603, -0.1060294, -0.044469517, -0.011763812, 0.035034314, -0.1795688, -0.05778235, 0.39068064, -0.113866664, -0.051634382, -0.06418167, -0.11610249, -0.051397923, -0.089556076, 0.101171464, 0.07403254, -0.065566435, -0.043092582, 0.0417359, 0.06167909, -0.010484705, 0.009686547, -0.05251208, 0.0021438657, 0.0034936867, -0.26213735, -0.096927054, -0.14100155, -0.025395907, -0.09093953, -0.02101036, -0.22204709, -0.33562103, -0.045442473, -0.11509515, 0.17104284, 0.014856463, -0.37637612, 0.036889493, 0.08750464, -0.11486877, 0.23005234, -0.057843596, -0.036921903, 0.06900601, 0.033615515, -0.25839466, 0.10372877, -0.08724952, -0.0029143973, -0.05239245, -0.053669542, -0.2935751, 0.012534282, -0.09286193, 0.004071512, 0.02119639, -0.039829027, -0.008837491, -0.09805723, 0.08495558, 0.047160413, -0.05352572, 0.2015509, 0.107570305, -0.10329767, -0.020175535, -0.20333906, 0.17150654, -0.024136884, -0.025394442, -0.0119513245, -0.08819236, 0.06355765, -0.038680095, 0.21556081, -0.25156277, 0.03887637, -0.12286603, -0.071080804, -0.069071606, 0.05874003, -0.06798211, -0.0053312103, -0.09886892, -0.14355452, -0.022068357, -0.023353877, 0.053098388, -0.006539231, 0.06951694, 0.01438683, 0.09300807, 0.1557971, -0.114281476, -0.15282154, 0.028547695, -0.06551547, -0.14139152, 0.018808827, 0.00039786744, -0.07097943, -0.17183852, 0.1433465, 0.028077882, -0.04355938, 0.016354246, -0.021374151, -0.047399092, 0.05602917, 0.19856925, -0.1140673, -0.18884993, -0.12703417, 0.11955572, -0.039769266, 0.030879648, 0.03083006, 0.0025319117, 0.24051416, 0.043085985, 0.06609124, -0.056008883, -0.012755479, -0.056273714, 0.117622994, 0.08578646, -0.07281383, 0.07582606, -0.09932911, 0.098094516, -0.099263154, -0.012676471, -0.04194767, 0.17562543, -0.09001793, 0.11692978, 0.1456446, 0.011266553, 0.08302525, 0.1291318, -0.18811594, -0.27715373, -0.04451378, -0.044852156, 0.04365564, 0.20980053, 0.036692325, 0.13187167, -0.15547393, -0.06828475, -0.0474526, -0.020325297, 0.03737729, -0.16830093, 0.0064613144, -0.06349796, 0.045915153, -0.032101765, 0.35909706, -0.022144102, 0.08627815, -0.12707406, -0.17624183, -0.27580512, -0.041629106, -0.013112847, 0.29811484, 0.051939268, -0.2992322, -0.025487525, 0.26436132, 0.08749704, 0.03661291, 0.30312848, -0.079694785, -0.17911859, -0.09719947, -0.07934023, 0.28937483, -0.0079532545, 0.07489777, 0.040195942, 0.10088711, -0.033588387, 0.09757854, 0.03698187, -0.017861394, 0.076774634, 0.14994814, -0.06071232, 0.027213885, -0.19902687, -0.03808939, 0.18223923, 0.018866511, 0.06397804, -0.19260643, -0.08422276, 0.18432327, -0.28625268, 0.2699095, -0.41026348, -0.15004642, -0.08936186, -0.06294055, -0.3022322, -0.030518271, -0.011863258, 0.008196983, -0.12262224, 0.06787226, 0.0038252096, 0.20296408, -0.11893834, 0.29931128, 0.007087616, -0.06325088, -0.035087667, -0.06649189, 0.13745193, -0.110557415, 0.05938523, 0.14308625, -0.102346994, -0.060159944, -0.087622955, 0.42484167, -0.1447438, -0.08459518, 0.17518596, -0.064493686, -0.21678437, -0.24461877, 0.09065227, 0.059144143, -0.07502631, 0.05591096, 0.09445522, -0.05183813, -0.03467529, 0.29755595, 0.0318972, 0.010760183, -0.22230457, -0.088500746, -0.0148653, 0.12857646, 0.085875124, -0.3443592, -0.00011445762, -0.040551633, -0.14696042, 0.063019566, 0.12940979, 0.1677508, -0.028701017, 0.05885922, 0.070369646, 0.02605231, 0.0039066696, 0.06997031, 0.19920789, 0.011747059, -0.17246352, 0.13578397, 0.14964421, -0.082257286, -0.09239651, 0.25188437, -0.21779473, 0.114451274, 0.015644906, -0.1385663, -0.14051554, 0.102786034, -0.056401823, 0.02695226, 0.0047503314, -0.077391274, -0.07417943, -0.00047162423, -0.0715282, 0.035994135, -0.1654443, 0.045674216, -0.01918186, -0.19973129, -0.09120109, -0.03922177, 0.071734525, 0.14389226, 0.008136308, 0.0024008288, 0.086257555, -0.13191766, -0.050731026, 0.0104143405, 0.14199215, -0.1569778, -0.07042002, -0.17523539, -0.060929757, -0.14411771, 0.10883746, 0.06524895, -0.039549023, -0.11367073, 0.12253798, 0.07939255, -0.009212955, 0.068330795, -0.122681886, 0.047360726, 0.049809072, -0.0011948382, -0.0970006, -0.060203034, -0.02491255, -0.1828555, -0.06597256, -0.079344094, 0.028488653, 0.059800252, -0.121057704, -0.056137353, 0.18692267, -0.23099986, -0.1336545, 0.014236779, 0.07656929, 0.1975384, 0.08114164, -0.022010993, 0.08581695, 0.0855777, -0.06628964, -0.026260741, -0.28884304, -0.3361142, -0.028256414, 0.04596097, 0.046426475, 0.0077813184, 0.07468364, -0.06258887, 0.07303064, 0.15061086, -0.06837737, -0.040910274, -0.0056840093, 0.071537524, 0.015405227, 0.20276737, 0.019643797, 0.019163731, -0.0028610597, -0.032236986, 0.09702891, 0.07815644, 0.05443079, 0.059087478, -0.091790594, 0.047928, -0.0723199, -0.0817701, -0.10596348, -0.068963036, -0.031859316, 0.06431531, -0.014546738, -0.11772087, 0.024065455, 0.102196574, -0.11453462, -0.2352431, -0.061120003, 0.122633934, -0.11680802, -0.10461472, -0.14724769, -0.21832208, 0.18792287, 0.044289656, 0.20535053, -0.15654135, 0.10614462, 0.0384257, 0.011351858, -0.2520477, 0.10945947, -0.058635406, 0.023118049, 0.018468216, -0.14832188, 0.098272145, -0.24256632, 0.077821046, -0.02516406, -0.24878682, 0.005133196, 0.20336565, 0.10267585, 0.008132366, 0.10376742, 0.056886762, 0.04339764, 0.14301872, -0.061444964, -0.052676443, 0.026577143, 0.16111876, -0.061481494, 0.1436884, 0.0586658, -0.0795363, -0.1311038, -0.0776049, 0.0064661987, 0.031110922, 0.11940488, 0.03623765, -0.05305544, 0.14143154, 0.12891254, -0.080561526, 0.112126045, -0.1570321, 0.05740445, 0.040640693, 0.2330287, 0.071330994, -0.038846668, 0.029530037, 0.15018623, 0.11749137, -0.07462036, -0.07853589, -4.835618e-05, -0.06590703, -0.027202155, 0.07235731, 0.023000775, 0.06129043, -0.16541912, -0.113510646, -0.17661668, -0.1140556, -0.068402834, -0.046326317, 0.028493524, 0.03964482, -0.14584684, -0.08104018, 0.08008891, 0.028726455, 0.13587403, -0.17844613, 0.032640807, 0.09742663, 0.083309, -0.0651097, -0.048669443, 0.15465751, 0.05335537, -0.044438872, 0.039701425, 0.2455422, 0.011526388, -0.13394095, 0.091403686, 0.08414323, -0.13816625, -0.05969714, 0.01898396, -0.043755714, 0.055536143, -0.026898637, -0.025381183, -0.006661844, 0.13086113, 0.00985318, 0.15842679, 0.07897618, -0.09285988, 0.08131486, -0.14188194, 0.016956558, -0.038193177, -0.11727217, -0.10940207, -0.095488004, 0.03117828, 0.058336735, -0.11498523, 0.045133684, 0.07262235, 0.1354771, -0.20699058, 0.034207508, 0.10332344, 0.024578135, -0.1590715, 0.12669484, -0.091453604, 0.05309817, 0.068958335, -0.04345762, 0.009931844, 0.112955004, -0.10514884, -0.0742351, 0.09813315, 0.1187394, -0.026504815, -0.01762832, -0.03308634, -0.09036855, -0.19069923, -0.10337425, 0.13962737, -0.050872393, 0.052199163, 0.12776875, 0.09411894, 0.009976976, -0.009402943, 0.096000604, -0.061003864, -0.038483515, 0.099868864, -0.05223762, -0.15669924, 0.037897773, -0.090391904, -0.07893921, 0.03538139, -0.08201888, -0.028681736, -0.07300677, 0.05391529, -0.022929577, -0.115795195, -0.10926623, -0.08725767, 0.029898334, 0.07708601, -0.12816294, -0.007848536, 0.08017805, 0.0023171643, 0.028814968, 0.097609214, -0.018545052, -0.1426524, 0.17443405, 0.015451368, -0.0048420504, -0.17639986, -0.0077560404, 0.039526705, 0.03946319, -0.036279026, 0.056466803, 0.10616568, -0.04294672, -0.030408248, 0.077939756, -0.10737321, 0.19351055, 0.09757262, 0.024245689, -0.12517704, -0.109225616, -0.053800903, -0.07766277, 0.10572097, -0.014468454, -0.0030016515, 0.040977202, -0.011681413, 0.050566096, 0.14036669, 0.12990877, -0.1683785, -0.049331985, -0.19679806, -0.07169718, 0.032229982, -0.00015378871, 0.035963196, -0.018278822, 0.08711291, 0.071522586, -0.06427303, -0.0676436, 0.08217509, 0.07086379, -0.071783975, -0.17567433, -0.0355256, -0.060052767, -0.019245217, 0.01473539, -0.048041783, -0.10212076, -0.119149424, -0.065845326, -0.07417155, 0.09473696, -0.011153879, -0.13245907, 0.16511759, 0.04049763, 0.21044716, -0.1553254, -0.040579747, -0.051915336, 0.05589452, -0.106644884, 0.048786562, 0.103719674, 0.02198429, -0.042944346, 0.033361103, 0.14207572, 0.057069547, -0.117926076, -0.0046852757, 0.06396913, 0.0044843634, 0.10978515, 0.1341652, 0.05216743, 0.011596921, -0.07290569, -0.1580025, 0.090849265, 0.026354928, -0.05600616, 0.0114782015, -0.1109136, -0.049092416, -0.18950094, -0.005251115, -0.03730503, 0.061045073, 0.035559844, 0.10285023, -0.06505745, 0.045730464, 0.05615447, 0.07726695, 0.16942853, 0.13217835, 0.05469718, 0.03335366, 0.033831812, -0.04854884, 0.16450764, -0.26006678, -0.10293265, 0.06973093, 0.046189208, -0.1470247, -0.07774142, 0.047123518, -0.08867608, 0.10647428, 0.1367414, 0.07189315, -0.0072066817, 0.07098091, -0.028481413, -0.04507666, 0.2000642, 0.048322268, -0.22189696, 0.049611963, -0.055897053, 0.09976697, 0.06305444, -0.09359016, -0.01857799, -0.18969606, -0.100140356, -0.10314249, 0.04547122, -0.012613539, 0.119424954, 0.18407156, 0.10347494, -0.056161337, -0.08403279, 0.21488032, -0.101235226, 0.14055833, 0.039040502, -0.06963441, 0.037477337, 0.00028105394, -0.09035175, -0.033045955, -0.09591986, -0.0067302445, -0.14752196, 0.12681492, -0.16899759, -0.15495685, -0.04545927, 0.19544676, -0.13892898, 0.010113595, -0.11296466, -0.009106781, 0.098996654, 0.065086484, -0.31627625, 0.030959683, 0.07424569, -0.011375853, -0.14965627, 0.13691914, 0.02658365, -0.057698198, 0.074076064, -0.22488531, 0.008920605, 0.075610705, -0.08460638, -0.14016606, 0.071226835, -0.03809112, -0.026482884, 0.013175086, -0.029587401, -0.11440798, 0.10751027, -0.14130813, 0.054534134, -0.014941368, 0.123492785, 0.1012081, 0.084841, 0.16675414, -0.06970517, -0.23043814, 0.048150565, 0.09012086, -0.0873435, 0.15778755, -0.05849317, -0.19054627, -0.08259808, -0.16527997, 0.071254075, -0.23048082, -0.14543165, 0.055906177, 0.019827086, 0.26035228, 0.0816001, 0.035059378, -0.09075224, -0.05527261, 0.027274743, -0.09152008, 0.23373014, -0.15876105, 0.04743263, -0.109609276, 0.040876202, -0.2841276, 0.08806081, -0.004453032, 0.0871607, -0.012914914, 0.21570732, -0.0019915488, -0.008309707, 0.0540879, 0.100266896, 0.10629716, 0.09048817, -0.06295152, -0.032155145, 0.03559597, -0.06310742, 0.14132227, 0.11267721, 0.030822586, 0.2163879, 0.07837517, -0.09089907, 0.017238509, -0.023719927, 0.04158016, 0.15201622, -0.23663947, -0.12501119, -0.00097447773, -0.06601979, -0.010835981, 0.13122089, 0.031877458, -0.11434916, -0.004780053, -0.1632665, -0.030855298, 0.07513773, -0.038156807, 0.20261449, 0.082464114, -0.020739926, -0.21121004, -0.030967021, -0.007517031, -0.21183406, -0.035553727, 0.032278508, -0.004234612, 0.06695581, 0.014181923, 0.10197816, -0.053342056, 0.115166, -0.06053318, 0.15964961, 0.123827636, 0.09955373, -0.015737455, -0.14469407, -0.12282871, -0.11376321, -0.034048606, 0.09369142, -0.07581702, 0.025566567, -0.2985074, -0.047348958, -0.030625198, -0.005475659, 0.07950075, -0.091045626, 0.038989305, -0.10658788, 0.10053066, -0.09318236, -0.029424965, 0.012508062, 0.066655725, -0.110974416, 0.20452708, -0.063685566, 0.11933201, -0.194656, -0.12455811, -0.15137623, -0.0797537, -0.10488882, -0.12558334, -0.110780455, 0.2209788, -0.007947394, -0.07176699, 0.06251878, -0.06509863, -0.0053699794, -0.0391945, 0.078794785, 0.074174665, 0.021989075, -0.36769533, -0.06901191, -0.13685651, -0.037158065, -0.13087521, -0.115178846, -0.05412239, -0.15293498, 0.19532835, -0.21930711, 0.062165927, 0.020801483, -0.06921306, -0.022984605, -0.092871964, 0.17958999, -0.12955028, 0.15419464, 0.04690702, 0.09138227, -0.122681886, -0.062648624, -0.11488254, 0.15150732, -0.067670316, 0.030161213, 0.13967846, -0.030443091, 0.035300706, 0.07174407, -0.011882183, 0.008797946, -0.06867139, 0.07232901, 0.058063503, -0.072976924, 0.16056985, 0.17522302, 0.10864854, 0.13035494, -0.097907394, 0.070359595, -0.035206493, 0.0020367499, -0.06505783, 0.069937475, -0.11637275, -0.0993525, 0.07126297, 0.114163905, 0.04352737, -0.12750934, 0.047289692, 0.06482552, 0.07195381, -0.07181068, -0.0097827315, 0.03915396, -0.06658971, -0.07223119, -0.04273233, -0.08439233, -0.0136073725, -0.08257924, -0.09872783, 0.026807573, 0.07073224, 0.16220792, 0.013838996, -0.11093499, 0.10952461, -0.0996793, 0.00026390384, -0.0713112, -0.15193881, -0.060572755, 0.13237494, -0.07802739, 0.23072678, 0.08148834, 0.087282315, -0.128024, -0.100310996, 0.068558745, -0.02122019, -0.0884177, -0.032423776, 0.076572545, -0.23825696, 0.051595725, 0.11643549, -0.11482699, 0.071113735, -0.04805592, -0.14470032, -0.017766558, 0.05412548, 0.08967896, -0.04229422, -0.0399285, 0.034257937, -0.0033294836, -0.1794097, 0.08012277, 0.038164128, 0.1608607, 0.17781177, 0.1009739, 0.022658356, -0.022106238, -0.042739034, 0.11093098, 0.07951397, 0.05077749, 0.033743948, -0.08085652, 0.07851927, 0.11347319, -0.012225888, 0.13822532, 0.197293, -0.07451945, -0.04598351, -0.047376752, -0.16827464, 0.17613977, -0.0017501533, -0.084407024, 0.0726181, -0.09758317, -0.094887465, 0.009729977, 0.120065115, 0.04226151, 0.029244518, -0.02145474, -0.064715676, 0.027062748, 0.0959041, 0.06682558, 0.1865368, -0.02239833, 0.03843119, -0.0020893747, -0.0593141, -0.011925667, 0.024643084, 0.17698517, 0.062356275, -0.121693835, 0.19622713, -0.14335248, 0.025475454, -0.03930493, 0.123441294, -0.07907701, 0.0040283953, -0.07423087, -0.04027221, -0.16132209, 0.016868588, -0.06307212, 0.114765, -0.107563674, -0.13029256, 0.036305763, -0.067061774, -0.08883249, 0.05838892, 0.07296345, -0.0979002, -0.04794214, 0.08240012, -0.01698202, -0.032930803, 0.090085424, -0.07028222, 0.032329094, 0.1261508, 0.06727428, 0.09691463, -0.040677585, 0.131503, 0.09068628, 0.11243252, 0.119982086, -0.02134376, 0.1202979, -0.22559294, 0.07059274, 0.03232028, 0.04611578, 0.10675348, -0.0530828, -0.010174092, -0.05180712, -0.087053955, -0.042978182, 0.03496573, 0.16893189, 0.038022295, 0.13405547, 0.01860492, -0.06897435, -0.13499333, 0.018680997, 0.13781433, 0.13759816, 0.1269351, 0.06524985, 0.063929066, 0.029211154, 0.1230996, -0.07348344, -0.12259786, 0.09045094, 0.039049815, 0.036149077, -0.06631798, -0.10857095, -0.120202005, -0.21105155, 0.15525441, -0.09638137, 0.069834046, 0.031979788, 0.11400805, -0.1263116, -0.10581232, -0.20838892, -0.020402288, -0.047097612, -0.044220943, 0.15605952, 0.24956226, -0.30995893, 0.15684904, -0.026469352, -0.13090171, -0.09783387, 0.33037558, 0.12540501, 0.20323329, -0.13474646, -0.12474205, 0.32175753, 0.03221433, -0.1406687, -0.42712498, -0.2621701, -0.12733212, -0.31405377, -0.08370849, 0.045092873, 0.22638687, -0.091766715, 0.01826521, -0.06088565, -0.107412435, -0.12628825, 0.21757802, 0.13253315, 0.21059512, -0.13995765, 0.07264968, -0.29537866, -0.328243, 0.042987183, -0.038917128, -0.29434133, 0.119811065, -0.01614608, 0.16355218, -0.32802492, 0.024395507, 0.08134976, -0.21419306, 0.12334251, 0.040819407, -0.48182553, 0.07685617, -0.113522746, 0.17780544, -0.13040529, -0.26839268, -0.039132718, 0.15658747, 0.26418278, -0.03172984, 0.1750057, 0.019768247, -0.10804643, -0.1762558, -0.15158285, -0.012999642, 0.22935236, 0.03520894, -0.10096471, 0.3110446, -0.2143908, -0.042460058, 0.16496195, 0.28408954, 0.024165977, 0.28793308, 0.18664396, -0.013058729, -0.19490436, -0.014991513, 0.036016993, -0.20427684, 0.17063835, 0.088754795, 0.027731892, 0.2215856, -0.13180776, -0.29846206, -0.006123536, 0.1362102, 0.17428946, -0.2830288, 0.03780278, -0.05950879, 0.08675481, -0.017775422, -0.23713627, 0.32167414, -0.04131586, 0.3476826, 0.01505441, -0.039581552, -0.12986232, -0.1342865, 0.050866716, -0.16676877, 0.12207348, 0.02331762, -0.28834906, -0.070630126, 0.07880332, -0.2959575, 0.02872836, 0.075857595, -0.02957926, -0.12088355, -0.022133814, -0.1078062, -0.055278994, -0.08863506, -0.050014917, 0.015623325, 0.18337232, 0.031527616, 0.05272188, -0.14874007, 0.033289682, -0.20009953, -0.0192258, 0.11455828, 0.06836642, -0.02424246, 0.12179573, 0.013180671, 0.0402908, -0.29745305, -0.07299984, -0.03482741, 0.088545196, 0.098757796, 0.20486327, -0.17070179, -0.07682355, -0.1057217, -0.19340628, -0.030402165, 0.14462994, -0.1309145, -0.06309806, 0.15227327, 0.119311474, -0.11099308, 0.07937112, -0.123781376, 0.049817633, -0.098653674, 0.016268725, 0.13705218, 0.009140039, 0.0035068959, 0.040738773, 0.046410915, -0.07083023, 0.098286346, 0.05721013, 0.1329357, 0.04731369, 0.032826774, -0.010389204, -0.06625584, -0.108076274, -0.0036453155, -0.13744071, -0.10979636, 0.106033035, 0.037953947, 0.023055762, -0.19533594, -0.04627454, -0.05008417, 0.030075364, -0.047474034, 0.13261089, 0.14647608, -0.03455098, 0.020061823, -0.19851537, -0.08143158, 0.028802337, -0.05397702, 0.13161133, -0.036994927, -0.050710402, -0.07918616, 0.101967886, 0.10394702, 0.058242764, -0.023547327, -0.0030223867, -0.09979232, -0.0051101935, 0.09172804, 0.010327182, -0.08424491, -0.031827778, -0.25553128, 0.113846034, 0.15356568, 0.014768109, -0.013689147, -0.25300634, -0.13018614, 0.08063617, -0.070917115, 0.08312166, -0.097660266, 0.07995376, -0.21235417, -0.02811273, 0.12294969, -0.14624599, 0.11907987, 0.08790629, -0.06948141, -0.043665014, -0.027872222, 0.019954339, -0.07436985, 0.018193277, -0.09182175, -0.032397557, -0.013479628, -0.028374976, -0.03979521, 0.09788557, -0.11467815, -0.17691432, 0.05876948, -0.020030752, -0.116832115, -0.017422596, -0.14475626, 0.06674147, -0.04580992, -0.0866135, -0.07777238, 0.108213596, -0.123955436, -0.025739335, 0.054368433, -0.044185515, -0.13383208, 0.08733479, 0.07886823, -0.004848531, 0.021308722, -0.042656217, 0.002322273, 0.10494246, 0.16085954, 0.05877831, 0.0050832373, 0.11663354, -0.14518043, -0.045546107, -0.09887455, -0.13816108, -0.08112361, 0.013248256, -0.061583076, -0.1569868, -0.0005182123, -0.0459602, -0.1069229, 0.14334424, -0.18269758, -0.0472126, -0.10895206, -0.17631657, -0.066212915, 0.041753776, -0.10090369, 0.13625887, 0.14015345, 0.011432843, -0.05988982, 